<?xml version="1.0"?>
<opencv_storage>
<stage8>
  <maxWeakCount>49</maxWeakCount>
  <stageThreshold>-5.8211576938629150e-01</stageThreshold>
  <weakClassifiers>
    <_>
      <internalNodes>
        0 -1 142202 -2.2567543201148510e-03</internalNodes>
      <leafValues>
        7.9793816804885864e-01 3.0393701791763306e-01</leafValues></_>
    <_>
      <internalNodes>
        0 -1 82236 5.5993823334574699e-03</internalNodes>
      <leafValues>
        -4.9603734165430069e-02 5.4104882478713989e-01</leafValues></_>
    <_>
      <internalNodes>
        0 -1 44340 -4.7260680003091693e-04</internalNodes>
      <leafValues>
        3.3472526073455811e-01 -1.7682772874832153e-01</leafValues></_>
    <_>
      <internalNodes>
        0 -1 51206 4.5226693153381348e-02</internalNodes>
      <leafValues>
        -2.0249544084072113e-01 2.5347244739532471e-01</leafValues></_>
    <_>
      <internalNodes>
        0 -1 156480 1.8324935808777809e-02</internalNodes>
      <leafValues>
        -8.9948974549770355e-02 4.9882394075393677e-01</leafValues></_>
    <_>
      <internalNodes>
        0 -1 141770 -9.5554180443286896e-03</internalNodes>
      <leafValues>
        2.5674009323120117e-01 -1.6288046538829803e-01</leafValues></_>
    <_>
      <internalNodes>
        0 -1 120684 2.3694969713687897e-02</internalNodes>
      <leafValues>
        -1.4717054367065430e-01 3.0914616584777832e-01</leafValues></_>
    <_>
      <internalNodes>
        0 -1 85282 -2.6233226526528597e-03</internalNodes>
      <leafValues>
        3.0741173028945923e-01 -1.2110982090234756e-01</leafValues></_>
    <_>
      <internalNodes>
        0 -1 36098 1.5922460705041885e-02</internalNodes>
      <leafValues>
        -1.2753669917583466e-01 2.6099756360054016e-01</leafValues></_>
    <_>
      <internalNodes>
        0 -1 38651 -3.5798442363739014e-01</internalNodes>
      <leafValues>
        4.9807080626487732e-01 -6.8231090903282166e-02</leafValues></_>
    <_>
      <internalNodes>
        0 -1 159168 -2.1741203963756561e-03</internalNodes>
      <leafValues>
        2.2777774930000305e-01 -1.4368829131126404e-01</leafValues></_>
    <_>
      <internalNodes>
        0 -1 72344 6.0766022652387619e-03</internalNodes>
      <leafValues>
        -7.2385214269161224e-02 4.6885427832603455e-01</leafValues></_>
    <_>
      <internalNodes>
        0 -1 31672 6.6751465201377869e-02</internalNodes>
      <leafValues>
        7.9960934817790985e-02 -3.8042747974395752e-01</leafValues></_>
    <_>
      <internalNodes>
        0 -1 11755 1.5235041081905365e-01</internalNodes>
      <leafValues>
        -8.5172086954116821e-02 3.6780199408531189e-01</leafValues></_>
    <_>
      <internalNodes>
        0 -1 75098 1.1173797771334648e-02</internalNodes>
      <leafValues>
        -3.4008417278528214e-02 7.7694582939147949e-01</leafValues></_>
    <_>
      <internalNodes>
        0 -1 156101 -2.0369537174701691e-02</internalNodes>
      <leafValues>
        5.5037087202072144e-01 -5.1312498748302460e-02</leafValues></_>
    <_>
      <internalNodes>
        0 -1 83091 6.6363150253891945e-03</internalNodes>
      <leafValues>
        3.6966741085052490e-02 -8.2532000541687012e-01</leafValues></_>
    <_>
      <internalNodes>
        0 -1 119598 1.7497257795184851e-03</internalNodes>
      <leafValues>
        2.7879407629370689e-02 -7.8399121761322021e-01</leafValues></_>
    <_>
      <internalNodes>
        0 -1 158397 1.9856668077409267e-03</internalNodes>
      <leafValues>
        -7.0373177528381348e-02 4.1377773880958557e-01</leafValues></_>
    <_>
      <internalNodes>
        0 -1 122546 -6.9290334358811378e-03</internalNodes>
      <leafValues>
        1.8439595401287079e-01 -1.4878395199775696e-01</leafValues></_>
    <_>
      <internalNodes>
        0 -1 80237 9.7546810284256935e-03</internalNodes>
      <leafValues>
        -9.2354953289031982e-02 2.8374457359313965e-01</leafValues></_>
    <_>
      <internalNodes>
        0 -1 98109 -1.7291880212724209e-03</internalNodes>
      <leafValues>
        2.8434404730796814e-01 -1.2664930522441864e-01</leafValues></_>
    <_>
      <internalNodes>
        0 -1 161837 7.6391105540096760e-03</internalNodes>
      <leafValues>
        3.4861318767070770e-02 -8.5805332660675049e-01</leafValues></_>
    <_>
      <internalNodes>
        0 -1 8074 -9.5162503421306610e-03</internalNodes>
      <leafValues>
        1.8542733788490295e-01 -1.4535647630691528e-01</leafValues></_>
    <_>
      <internalNodes>
        0 -1 44717 5.6540304794907570e-03</internalNodes>
      <leafValues>
        -1.3787133991718292e-01 2.3243191838264465e-01</leafValues></_>
    <_>
      <internalNodes>
        0 -1 44547 -7.2478532791137695e-02</internalNodes>
      <leafValues>
        3.4733697772026062e-01 -7.9028166830539703e-02</leafValues></_>
    <_>
      <internalNodes>
        0 -1 28802 -2.9965205118060112e-02</internalNodes>
      <leafValues>
        -6.1178535223007202e-01 4.9289748072624207e-02</leafValues></_>
    <_>
      <internalNodes>
        0 -1 8949 5.9895543381571770e-03</internalNodes>
      <leafValues>
        3.4282974898815155e-02 -6.9848889112472534e-01</leafValues></_>
    <_>
      <internalNodes>
        0 -1 33547 -2.6858579367399216e-03</internalNodes>
      <leafValues>
        2.5890362262725830e-01 -1.1886191368103027e-01</leafValues></_>
    <_>
      <internalNodes>
        0 -1 56335 1.9993297755718231e-03</internalNodes>
      <leafValues>
        -1.1843877285718918e-01 2.7663394808769226e-01</leafValues></_>
    <_>
      <internalNodes>
        0 -1 34392 5.5569708347320557e-03</internalNodes>
      <leafValues>
        5.0780095160007477e-02 -6.1796438694000244e-01</leafValues></_>
    <_>
      <internalNodes>
        0 -1 141641 1.4376344624906778e-03</internalNodes>
      <leafValues>
        -1.1402066051959991e-01 2.3658634722232819e-01</leafValues></_>
    <_>
      <internalNodes>
        0 -1 131701 -2.0030640065670013e-02</internalNodes>
      <leafValues>
        -6.7663276195526123e-01 3.9096839725971222e-02</leafValues></_>
    <_>
      <internalNodes>
        0 -1 112194 9.9002812057733536e-03</internalNodes>
      <leafValues>
        3.4356359392404556e-02 -7.1535855531692505e-01</leafValues></_>
    <_>
      <internalNodes>
        0 -1 160637 -6.5838932059705257e-03</internalNodes>
      <leafValues>
        -8.1433892250061035e-01 2.5696801021695137e-02</leafValues></_>
    <_>
      <internalNodes>
        0 -1 151370 1.4520754106342793e-02</internalNodes>
      <leafValues>
        6.6074118018150330e-02 -3.5837149620056152e-01</leafValues></_>
    <_>
      <internalNodes>
        0 -1 146633 8.6072983685880899e-04</internalNodes>
      <leafValues>
        -9.7847916185855865e-02 2.3930041491985321e-01</leafValues></_>
    <_>
      <internalNodes>
        0 -1 34093 -4.7202594578266144e-03</internalNodes>
      <leafValues>
        2.6721298694610596e-01 -8.8953599333763123e-02</leafValues></_>
    <_>
      <internalNodes>
        0 -1 58231 1.2993615819141269e-03</internalNodes>
      <leafValues>
        -1.5671789646148682e-01 1.6382171213626862e-01</leafValues></_>
    <_>
      <internalNodes>
        0 -1 161185 2.8753736842190847e-05</internalNodes>
      <leafValues>
        -1.4885458350181580e-01 1.7165212333202362e-01</leafValues></_>
    <_>
      <internalNodes>
        0 -1 20962 3.5704504698514938e-03</internalNodes>
      <leafValues>
        6.3972860574722290e-02 -4.2466706037521362e-01</leafValues></_>
    <_>
      <internalNodes>
        0 -1 62128 -4.4413213618099689e-03</internalNodes>
      <leafValues>
        2.6816555857658386e-01 -9.3109905719757080e-02</leafValues></_>
    <_>
      <internalNodes>
        0 -1 70767 4.9941884353756905e-03</internalNodes>
      <leafValues>
        -1.1191591620445251e-01 2.4808062613010406e-01</leafValues></_>
    <_>
      <internalNodes>
        0 -1 157786 -3.3885217271745205e-04</internalNodes>
      <leafValues>
        2.2648784518241882e-01 -1.2294664233922958e-01</leafValues></_>
    <_>
      <internalNodes>
        0 -1 50965 -2.0193806290626526e-01</internalNodes>
      <leafValues>
        5.7255607843399048e-01 -4.9667693674564362e-02</leafValues></_>
    <_>
      <internalNodes>
        0 -1 22157 -6.0986969619989395e-03</internalNodes>
      <leafValues>
        -6.6906952857971191e-01 4.5707110315561295e-02</leafValues></_>
    <_>
      <internalNodes>
        0 -1 24114 -3.8905302062630653e-03</internalNodes>
      <leafValues>
        1.8424573540687561e-01 -1.3819645345211029e-01</leafValues></_>
    <_>
      <internalNodes>
        0 -1 94409 4.8741325736045837e-02</internalNodes>
      <leafValues>
        -4.7889102250337601e-02 4.9181732535362244e-01</leafValues></_>
    <_>
      <internalNodes>
        0 -1 94816 -9.7496912349015474e-04</internalNodes>
      <leafValues>
        2.1269342303276062e-01 -1.1715322732925415e-01</leafValues></_></weakClassifiers></stage8>
</opencv_storage>
