<?xml version="1.0"?>
<opencv_storage>
<stage16>
  <maxWeakCount>60</maxWeakCount>
  <stageThreshold>-5.6943392753601074e-01</stageThreshold>
  <weakClassifiers>
    <_>
      <internalNodes>
        0 -1 76993 -2.9066510498523712e-02</internalNodes>
      <leafValues>
        7.4726718664169312e-01 2.7861377596855164e-01</leafValues></_>
    <_>
      <internalNodes>
        0 -1 158263 -8.7980609387159348e-03</internalNodes>
      <leafValues>
        4.9686974287033081e-01 -8.2610420882701874e-02</leafValues></_>
    <_>
      <internalNodes>
        0 -1 153921 -1.2138208840042353e-03</internalNodes>
      <leafValues>
        4.4843989610671997e-01 -1.4372561872005463e-01</leafValues></_>
    <_>
      <internalNodes>
        0 -1 55943 3.6899045109748840e-02</internalNodes>
      <leafValues>
        6.1585702002048492e-02 -5.3735047578811646e-01</leafValues></_>
    <_>
      <internalNodes>
        0 -1 140016 4.7886678948998451e-03</internalNodes>
      <leafValues>
        -7.8081697225570679e-02 5.3633862733840942e-01</leafValues></_>
    <_>
      <internalNodes>
        0 -1 31845 1.3755619525909424e-02</internalNodes>
      <leafValues>
        -8.6540527641773224e-02 5.1299786567687988e-01</leafValues></_>
    <_>
      <internalNodes>
        0 -1 53564 -5.7139359414577484e-03</internalNodes>
      <leafValues>
        4.5100232958793640e-01 -9.0750664472579956e-02</leafValues></_>
    <_>
      <internalNodes>
        0 -1 85564 -3.4124970436096191e-02</internalNodes>
      <leafValues>
        -3.8236537575721741e-01 8.0521941184997559e-02</leafValues></_>
    <_>
      <internalNodes>
        0 -1 144405 5.4508447647094727e-03</internalNodes>
      <leafValues>
        -6.1289463192224503e-02 4.7255307435989380e-01</leafValues></_>
    <_>
      <internalNodes>
        0 -1 32207 -1.6992571949958801e-01</internalNodes>
      <leafValues>
        7.8157836198806763e-01 -3.1999837607145309e-02</leafValues></_>
    <_>
      <internalNodes>
        0 -1 14930 2.2621151804924011e-01</internalNodes>
      <leafValues>
        -9.8825298249721527e-02 2.5011530518531799e-01</leafValues></_>
    <_>
      <internalNodes>
        0 -1 106049 2.1584831178188324e-02</internalNodes>
      <leafValues>
        -6.2596775591373444e-02 4.8425433039665222e-01</leafValues></_>
    <_>
      <internalNodes>
        0 -1 29646 1.5340044628828764e-03</internalNodes>
      <leafValues>
        1.1088808625936508e-01 -2.3523934185504913e-01</leafValues></_>
    <_>
      <internalNodes>
        0 -1 144395 -3.0309297144412994e-03</internalNodes>
      <leafValues>
        4.4943964481353760e-01 -5.3633175790309906e-02</leafValues></_>
    <_>
      <internalNodes>
        0 -1 121797 4.1940659284591675e-03</internalNodes>
      <leafValues>
        5.5898860096931458e-02 -4.4617891311645508e-01</leafValues></_>
    <_>
      <internalNodes>
        0 -1 77376 4.6502882614731789e-03</internalNodes>
      <leafValues>
        -9.6749097108840942e-02 2.3803257942199707e-01</leafValues></_>
    <_>
      <internalNodes>
        0 -1 56286 2.5904087815433741e-03</internalNodes>
      <leafValues>
        -9.8888725042343140e-02 2.5894820690155029e-01</leafValues></_>
    <_>
      <internalNodes>
        0 -1 62107 5.4380772635340691e-03</internalNodes>
      <leafValues>
        -7.9925231635570526e-02 3.1723541021347046e-01</leafValues></_>
    <_>
      <internalNodes>
        0 -1 61306 -4.2504742741584778e-03</internalNodes>
      <leafValues>
        3.7604993581771851e-01 -6.9049559533596039e-02</leafValues></_>
    <_>
      <internalNodes>
        0 -1 160700 -3.0813422054052353e-03</internalNodes>
      <leafValues>
        -5.9637546539306641e-01 4.7415584325790405e-02</leafValues></_>
    <_>
      <internalNodes>
        0 -1 88804 -1.1846749657706823e-05</internalNodes>
      <leafValues>
        1.6605639457702637e-01 -1.4126563072204590e-01</leafValues></_>
    <_>
      <internalNodes>
        0 -1 925 -4.5532369986176491e-03</internalNodes>
      <leafValues>
        -3.2651203870773315e-01 7.9533703625202179e-02</leafValues></_>
    <_>
      <internalNodes>
        0 -1 124666 -3.3016175031661987e-02</internalNodes>
      <leafValues>
        1.7923039197921753e-01 -1.3560286164283752e-01</leafValues></_>
    <_>
      <internalNodes>
        0 -1 148028 9.4770311989123002e-06</internalNodes>
      <leafValues>
        -1.4159926772117615e-01 1.6318137943744659e-01</leafValues></_>
    <_>
      <internalNodes>
        0 -1 106671 1.3212226804171223e-05</internalNodes>
      <leafValues>
        -1.4742381870746613e-01 1.5187287330627441e-01</leafValues></_>
    <_>
      <internalNodes>
        0 -1 70420 1.1793431440310087e-05</internalNodes>
      <leafValues>
        -1.3709220290184021e-01 1.6975775361061096e-01</leafValues></_>
    <_>
      <internalNodes>
        0 -1 17506 -6.3058156520128250e-03</internalNodes>
      <leafValues>
        4.9249067902565002e-01 -4.8224661499261856e-02</leafValues></_>
    <_>
      <internalNodes>
        0 -1 14122 3.7576225586235523e-03</internalNodes>
      <leafValues>
        6.6148072481155396e-02 -3.8210406899452209e-01</leafValues></_>
    <_>
      <internalNodes>
        0 -1 58584 -1.3014469295740128e-02</internalNodes>
      <leafValues>
        2.9718375205993652e-01 -8.0963879823684692e-02</leafValues></_>
    <_>
      <internalNodes>
        0 -1 48554 1.1605951003730297e-02</internalNodes>
      <leafValues>
        -1.0297848284244537e-01 2.2463116049766541e-01</leafValues></_>
    <_>
      <internalNodes>
        0 -1 12086 -1.6910076141357422e-01</internalNodes>
      <leafValues>
        4.8036637902259827e-01 -4.7190427780151367e-02</leafValues></_>
    <_>
      <internalNodes>
        0 -1 59970 4.5148800127208233e-03</internalNodes>
      <leafValues>
        4.9757059663534164e-02 -4.9277034401893616e-01</leafValues></_>
    <_>
      <internalNodes>
        0 -1 119594 9.4770311989123002e-06</internalNodes>
      <leafValues>
        -1.4717306196689606e-01 1.4700706303119659e-01</leafValues></_>
    <_>
      <internalNodes>
        0 -1 56287 2.3930286988615990e-03</internalNodes>
      <leafValues>
        -8.6646191775798798e-02 2.5852483510971069e-01</leafValues></_>
    <_>
      <internalNodes>
        0 -1 110588 -7.9860503319650888e-04</internalNodes>
      <leafValues>
        -4.1544824838638306e-01 5.8922722935676575e-02</leafValues></_>
    <_>
      <internalNodes>
        0 -1 82188 3.0631262809038162e-02</internalNodes>
      <leafValues>
        -1.0256773978471756e-01 2.2490465641021729e-01</leafValues></_>
    <_>
      <internalNodes>
        0 -1 140673 -6.0639556497335434e-02</internalNodes>
      <leafValues>
        -4.8827832937240601e-01 5.1249481737613678e-02</leafValues></_>
    <_>
      <internalNodes>
        0 -1 75094 1.2701596133410931e-03</internalNodes>
      <leafValues>
        -6.6538378596305847e-02 3.2851499319076538e-01</leafValues></_>
    <_>
      <internalNodes>
        0 -1 2096 -1.2582355737686157e-01</internalNodes>
      <leafValues>
        9.0810084342956543e-01 -2.3243334144353867e-02</leafValues></_>
    <_>
      <internalNodes>
        0 -1 2217 -1.1659945361316204e-02</internalNodes>
      <leafValues>
        -3.6842086911201477e-01 7.1121171116828918e-02</leafValues></_>
    <_>
      <internalNodes>
        0 -1 1200 1.2372501194477081e-02</internalNodes>
      <leafValues>
        6.7834556102752686e-02 -2.8939145803451538e-01</leafValues></_>
    <_>
      <internalNodes>
        0 -1 42990 2.5021876208484173e-03</internalNodes>
      <leafValues>
        -3.4984234720468521e-02 5.8940905332565308e-01</leafValues></_>
    <_>
      <internalNodes>
        0 -1 139784 1.1101178824901581e-02</internalNodes>
      <leafValues>
        3.3371631056070328e-02 -6.6295474767684937e-01</leafValues></_>
    <_>
      <internalNodes>
        0 -1 131802 8.0687261652201414e-04</internalNodes>
      <leafValues>
        -6.7024961113929749e-02 3.1550452113151550e-01</leafValues></_>
    <_>
      <internalNodes>
        0 -1 16942 6.0606978833675385e-02</internalNodes>
      <leafValues>
        7.0329688489437103e-02 -3.2628458738327026e-01</leafValues></_>
    <_>
      <internalNodes>
        0 -1 115369 2.0603194832801819e-01</internalNodes>
      <leafValues>
        -3.3396631479263306e-02 7.0060729980468750e-01</leafValues></_>
    <_>
      <internalNodes>
        0 -1 102093 -9.2806786298751831e-02</internalNodes>
      <leafValues>
        -4.1806888580322266e-01 5.8864381164312363e-02</leafValues></_>
    <_>
      <internalNodes>
        0 -1 56341 -1.3614889234304428e-02</internalNodes>
      <leafValues>
        2.4360577762126923e-01 -9.8341360688209534e-02</leafValues></_>
    <_>
      <internalNodes>
        0 -1 53832 -2.9064897447824478e-02</internalNodes>
      <leafValues>
        2.1608594059944153e-01 -1.1376539617776871e-01</leafValues></_>
    <_>
      <internalNodes>
        0 -1 87569 -1.3446045108139515e-02</internalNodes>
      <leafValues>
        -7.4590843915939331e-01 2.9210399836301804e-02</leafValues></_>
    <_>
      <internalNodes>
        0 -1 127764 1.0218829847872257e-03</internalNodes>
      <leafValues>
        -9.8617546260356903e-02 2.1364910900592804e-01</leafValues></_>
    <_>
      <internalNodes>
        0 -1 75715 1.0070658754557371e-03</internalNodes>
      <leafValues>
        -6.6677436232566833e-02 3.1012001633644104e-01</leafValues></_>
    <_>
      <internalNodes>
        0 -1 160833 4.8228783998638391e-04</internalNodes>
      <leafValues>
        9.6941858530044556e-02 -2.1970857679843903e-01</leafValues></_>
    <_>
      <internalNodes>
        0 -1 157449 2.1566338546108454e-05</internalNodes>
      <leafValues>
        -1.3025513291358948e-01 1.7993362247943878e-01</leafValues></_>
    <_>
      <internalNodes>
        0 -1 59968 -4.2680734768509865e-03</internalNodes>
      <leafValues>
        -4.7122958302497864e-01 4.5396834611892700e-02</leafValues></_>
    <_>
      <internalNodes>
        0 -1 42269 8.8410906028002501e-04</internalNodes>
      <leafValues>
        8.4058262407779694e-02 -2.4812757968902588e-01</leafValues></_>
    <_>
      <internalNodes>
        0 -1 76279 -2.0084055140614510e-03</internalNodes>
      <leafValues>
        2.4010618031024933e-01 -9.8194018006324768e-02</leafValues></_>
    <_>
      <internalNodes>
        0 -1 160185 3.5047596320509911e-03</internalNodes>
      <leafValues>
        3.9473269134759903e-02 -5.1063114404678345e-01</leafValues></_>
    <_>
      <internalNodes>
        0 -1 64014 3.8407209794968367e-03</internalNodes>
      <leafValues>
        6.3163712620735168e-02 -3.0445632338523865e-01</leafValues></_>
    <_>
      <internalNodes>
        0 -1 99334 -2.9090363532304764e-03</internalNodes>
      <leafValues>
        4.1756907105445862e-01 -4.9597963690757751e-02</leafValues></_></weakClassifiers></stage16>
</opencv_storage>
