<?xml version="1.0"?>
<opencv_storage>
<stage2>
  <maxWeakCount>24</maxWeakCount>
  <stageThreshold>-6.8407976627349854e-01</stageThreshold>
  <weakClassifiers>
    <_>
      <internalNodes>
        0 -1 85844 3.9062676951289177e-03</internalNodes>
      <leafValues>
        1.9903381168842316e-01 7.9170125722885132e-01</leafValues></_>
    <_>
      <internalNodes>
        0 -1 146178 -3.2315696589648724e-03</internalNodes>
      <leafValues>
        6.8721532821655273e-01 -9.1667294502258301e-02</leafValues></_>
    <_>
      <internalNodes>
        0 -1 66159 1.8280392978340387e-03</internalNodes>
      <leafValues>
        -2.3045460879802704e-01 4.4987949728965759e-01</leafValues></_>
    <_>
      <internalNodes>
        0 -1 142002 9.2016486451029778e-04</internalNodes>
      <leafValues>
        -2.4991212785243988e-01 3.2319846749305725e-01</leafValues></_>
    <_>
      <internalNodes>
        0 -1 8765 -5.4300956428050995e-02</internalNodes>
      <leafValues>
        4.2429211735725403e-01 -1.5974964201450348e-01</leafValues></_>
    <_>
      <internalNodes>
        0 -1 52961 -3.2852575182914734e-02</internalNodes>
      <leafValues>
        7.4582946300506592e-01 -1.0043496638536453e-01</leafValues></_>
    <_>
      <internalNodes>
        0 -1 117564 -3.2371138222515583e-03</internalNodes>
      <leafValues>
        3.1962755322456360e-01 -2.2980701923370361e-01</leafValues></_>
    <_>
      <internalNodes>
        0 -1 62126 -3.2172168139368296e-03</internalNodes>
      <leafValues>
        3.6693304777145386e-01 -1.3835154473781586e-01</leafValues></_>
    <_>
      <internalNodes>
        0 -1 11576 1.7836445476859808e-03</internalNodes>
      <leafValues>
        -1.7817260324954987e-01 2.8575107455253601e-01</leafValues></_>
    <_>
      <internalNodes>
        0 -1 11586 -7.0927804335951805e-03</internalNodes>
      <leafValues>
        3.4197539091110229e-01 -1.6405579447746277e-01</leafValues></_>
    <_>
      <internalNodes>
        0 -1 156419 -2.4639835464768112e-04</internalNodes>
      <leafValues>
        2.7705973386764526e-01 -1.8696410953998566e-01</leafValues></_>
    <_>
      <internalNodes>
        0 -1 10010 1.1638461146503687e-03</internalNodes>
      <leafValues>
        6.5518654882907867e-02 -6.4306247234344482e-01</leafValues></_>
    <_>
      <internalNodes>
        0 -1 31119 1.5509579097852111e-03</internalNodes>
      <leafValues>
        -1.3389870524406433e-01 3.7859049439430237e-01</leafValues></_>
    <_>
      <internalNodes>
        0 -1 160057 4.1974158957600594e-03</internalNodes>
      <leafValues>
        -1.3355383276939392e-01 3.6021420359611511e-01</leafValues></_>
    <_>
      <internalNodes>
        0 -1 59273 1.0028099641203880e-02</internalNodes>
      <leafValues>
        -1.5413276851177216e-01 2.8412953019142151e-01</leafValues></_>
    <_>
      <internalNodes>
        0 -1 42567 -1.1538524180650711e-01</internalNodes>
      <leafValues>
        4.0392419695854187e-01 -1.0707797855138779e-01</leafValues></_>
    <_>
      <internalNodes>
        0 -1 55210 4.9431290477514267e-02</internalNodes>
      <leafValues>
        -6.6257178783416748e-02 5.7495951652526855e-01</leafValues></_>
    <_>
      <internalNodes>
        0 -1 152652 -9.5716526266187429e-04</internalNodes>
      <leafValues>
        2.4870631098747253e-01 -1.7985273897647858e-01</leafValues></_>
    <_>
      <internalNodes>
        0 -1 133251 2.6885713450610638e-03</internalNodes>
      <leafValues>
        -1.3485975563526154e-01 3.0987989902496338e-01</leafValues></_>
    <_>
      <internalNodes>
        0 -1 86635 4.9786008894443512e-02</internalNodes>
      <leafValues>
        -9.2961907386779785e-02 4.4504430890083313e-01</leafValues></_>
    <_>
      <internalNodes>
        0 -1 158940 -1.0336114093661308e-02</internalNodes>
      <leafValues>
        -7.4277377128601074e-01 6.2607981264591217e-02</leafValues></_>
    <_>
      <internalNodes>
        0 -1 80027 2.8592441231012344e-03</internalNodes>
      <leafValues>
        -1.7408615350723267e-01 2.3529191315174103e-01</leafValues></_>
    <_>
      <internalNodes>
        0 -1 131767 -5.7196053676307201e-03</internalNodes>
      <leafValues>
        3.9412349462509155e-01 -9.8714239895343781e-02</leafValues></_>
    <_>
      <internalNodes>
        0 -1 27178 1.8938238918781281e-01</internalNodes>
      <leafValues>
        -7.2969220578670502e-02 5.2393448352813721e-01</leafValues></_></weakClassifiers></stage2>
</opencv_storage>
