<?xml version="1.0"?>
<opencv_storage>
<cascade>
  <stageType>BOOST</stageType>
  <featureType>HAAR</featureType>
  <height>24</height>
  <width>24</width>
  <stageParams>
    <boostType>GAB</boostType>
    <minHitRate>9.9000000953674316e-01</minHitRate>
    <maxFalseAlarm>5.0000000000000000e-01</maxFalseAlarm>
    <weightTrimRate>9.4999999999999996e-01</weightTrimRate>
    <maxDepth>1</maxDepth>
    <maxWeakCount>100</maxWeakCount></stageParams>
  <featureParams>
    <maxCatCount>0</maxCatCount>
    <featSize>1</featSize>
    <mode>BASIC</mode></featureParams>
  <stageNum>20</stageNum>
  <stages>
    <!-- stage 0 -->
    <_>
      <maxWeakCount>8</maxWeakCount>
      <stageThreshold>-1.3521487712860107e+00</stageThreshold>
      <weakClassifiers>
        <_>
          <internalNodes>
            0 -1 220 -6.1523422598838806e-02</internalNodes>
          <leafValues>
            4.9645391106605530e-01 -5.5469954013824463e-01</leafValues></_>
        <_>
          <internalNodes>
            0 -1 305 2.2102814167737961e-02</internalNodes>
          <leafValues>
            -3.2169732451438904e-01 5.9377348423004150e-01</leafValues></_>
        <_>
          <internalNodes>
            0 -1 15 -2.7397885918617249e-01</internalNodes>
          <leafValues>
            -8.4626817703247070e-01 2.0093427598476410e-01</leafValues></_>
        <_>
          <internalNodes>
            0 -1 125 2.7237129211425781e-01</internalNodes>
          <leafValues>
            2.0102310180664062e-01 -6.9499343633651733e-01</leafValues></_>
        <_>
          <internalNodes>
            0 -1 444 -1.0099956765770912e-02</internalNodes>
          <leafValues>
            5.5163031816482544e-01 -2.3275507986545563e-01</leafValues></_>
        <_>
          <internalNodes>
            0 -1 49 -2.2590458393096924e-02</internalNodes>
          <leafValues>
            5.3341543674468994e-01 -1.7970907688140869e-01</leafValues></_>
        <_>
          <internalNodes>
            0 -1 270 -2.8092160820960999e-02</internalNodes>
          <leafValues>
            5.8851253986358643e-01 -2.0951855182647705e-01</leafValues></_>
        <_>
          <internalNodes>
            0 -1 216 1.1126914061605930e-02</internalNodes>
          <leafValues>
            -1.5774108469486237e-01 6.9294571876525879e-01</leafValues></_></weakClassifiers></_>
    <!-- stage 1 -->
    <_>
      <maxWeakCount>12</maxWeakCount>
      <stageThreshold>-1.4139624834060669e+00</stageThreshold>
      <weakClassifiers>
        <_>
          <internalNodes>
            0 -1 156 -1.2894099950790405e-01</internalNodes>
          <leafValues>
            3.6111110448837280e-01 -5.2941179275512695e-01</leafValues></_>
        <_>
          <internalNodes>
            0 -1 14 2.0915694534778595e-01</internalNodes>
          <leafValues>
            1.2437658756971359e-01 -8.3360731601715088e-01</leafValues></_>
        <_>
          <internalNodes>
            0 -1 340 4.9952514469623566e-02</internalNodes>
          <leafValues>
            -2.0011718571186066e-01 6.9465947151184082e-01</leafValues></_>
        <_>
          <internalNodes>
            0 -1 267 -2.9936661943793297e-02</internalNodes>
          <leafValues>
            5.3208667039871216e-01 -1.9682861864566803e-01</leafValues></_>
        <_>
          <internalNodes>
            0 -1 367 -6.2363937497138977e-02</internalNodes>
          <leafValues>
            5.6738960742950439e-01 -1.4951311051845551e-01</leafValues></_>
        <_>
          <internalNodes>
            0 -1 196 -5.5037394165992737e-02</internalNodes>
          <leafValues>
            6.2074518203735352e-01 -1.4553919434547424e-01</leafValues></_>
        <_>
          <internalNodes>
            0 -1 88 1.9199442118406296e-02</internalNodes>
          <leafValues>
            -1.4294105768203735e-01 5.2988201379776001e-01</leafValues></_>
        <_>
          <internalNodes>
            0 -1 64 -1.4152590185403824e-02</internalNodes>
          <leafValues>
            4.4462487101554871e-01 -1.9867470860481262e-01</leafValues></_>
        <_>
          <internalNodes>
            0 -1 329 2.3027442395687103e-02</internalNodes>
          <leafValues>
            -1.3603098690509796e-01 5.5453437566757202e-01</leafValues></_>
        <_>
          <internalNodes>
            0 -1 307 -2.5978267192840576e-02</internalNodes>
          <leafValues>
            4.3093463778495789e-01 -1.8066872656345367e-01</leafValues></_>
        <_>
          <internalNodes>
            0 -1 422 -4.4511705636978149e-03</internalNodes>
          <leafValues>
            4.3786162137985229e-01 -1.9392701983451843e-01</leafValues></_>
        <_>
          <internalNodes>
            0 -1 391 3.5808578133583069e-02</internalNodes>
          <leafValues>
            -1.9360196590423584e-01 5.1802694797515869e-01</leafValues></_></weakClassifiers></_>
    <!-- stage 2 -->
    <_>
      <maxWeakCount>13</maxWeakCount>
      <stageThreshold>-1.2701030969619751e+00</stageThreshold>
      <weakClassifiers>
        <_>
          <internalNodes>
            0 -1 101 -1.3591632523457520e-05</internalNodes>
          <leafValues>
            3.7542663514614105e-02 -6.0563379526138306e-01</leafValues></_>
        <_>
          <internalNodes>
            0 -1 101 1.1684167475323193e-05</internalNodes>
          <leafValues>
            -3.0449560284614563e-01 3.6054751276969910e-01</leafValues></_>
        <_>
          <internalNodes>
            0 -1 540 4.9227764829993248e-03</internalNodes>
          <leafValues>
            -2.3151049017906189e-01 4.3827769160270691e-01</leafValues></_>
        <_>
          <internalNodes>
            0 -1 258 1.2037533521652222e-01</internalNodes>
          <leafValues>
            2.0007561147212982e-01 -5.1310712099075317e-01</leafValues></_>
        <_>
          <internalNodes>
            0 -1 458 -1.3591632523457520e-05</internalNodes>
          <leafValues>
            3.1901168823242188e-01 -2.1785902976989746e-01</leafValues></_>
        <_>
          <internalNodes>
            0 -1 97 -1.8838334828615189e-02</internalNodes>
          <leafValues>
            5.1181888580322266e-01 -1.1446791887283325e-01</leafValues></_>
        <_>
          <internalNodes>
            0 -1 194 2.8877923265099525e-02</internalNodes>
          <leafValues>
            -1.1219859868288040e-01 5.4189348220825195e-01</leafValues></_>
        <_>
          <internalNodes>
            0 -1 127 -9.2206656932830811e-02</internalNodes>
          <leafValues>
            5.2943986654281616e-01 -1.3919974863529205e-01</leafValues></_>
        <_>
          <internalNodes>
            0 -1 285 -3.6941975355148315e-02</internalNodes>
          <leafValues>
            6.4612686634063721e-01 -9.7210049629211426e-02</leafValues></_>
        <_>
          <internalNodes>
            0 -1 322 1.5157726920733694e-05</internalNodes>
          <leafValues>
            -2.0666207373142242e-01 3.0512064695358276e-01</leafValues></_>
        <_>
          <internalNodes>
            0 -1 482 -7.6353934127837420e-04</internalNodes>
          <leafValues>
            -4.9583899974822998e-01 1.1841410398483276e-01</leafValues></_>
        <_>
          <internalNodes>
            0 -1 348 1.2718443940684665e-05</internalNodes>
          <leafValues>
            -2.3241481184959412e-01 2.8948715329170227e-01</leafValues></_>
        <_>
          <internalNodes>
            0 -1 552 -1.9404584309086204e-03</internalNodes>
          <leafValues>
            -7.9730057716369629e-01 1.0036730766296387e-01</leafValues></_></weakClassifiers></_>
    <!-- stage 3 -->
    <_>
      <maxWeakCount>16</maxWeakCount>
      <stageThreshold>-1.1030780076980591e+00</stageThreshold>
      <weakClassifiers>
        <_>
          <internalNodes>
            0 -1 35 -4.3663594871759415e-02</internalNodes>
          <leafValues>
            1.9148936867713928e-01 -5.1398879289627075e-01</leafValues></_>
        <_>
          <internalNodes>
            0 -1 542 8.4275742992758751e-03</internalNodes>
          <leafValues>
            -1.8029449880123138e-01 4.2529568076133728e-01</leafValues></_>
        <_>
          <internalNodes>
            0 -1 160 7.2859592735767365e-02</internalNodes>
          <leafValues>
            -1.7740516364574432e-01 4.0955534577369690e-01</leafValues></_>
        <_>
          <internalNodes>
            0 -1 147 -1.0505526512861252e-01</internalNodes>
          <leafValues>
            5.1636320352554321e-01 -1.3428211212158203e-01</leafValues></_>
        <_>
          <internalNodes>
            0 -1 289 6.9138363003730774e-02</internalNodes>
          <leafValues>
            -8.9508488774299622e-02 6.1851406097412109e-01</leafValues></_>
        <_>
          <internalNodes>
            0 -1 118 -8.4739655721932650e-04</internalNodes>
          <leafValues>
            -5.6471884250640869e-01 1.1998315900564194e-01</leafValues></_>
        <_>
          <internalNodes>
            0 -1 336 8.6674606427550316e-03</internalNodes>
          <leafValues>
            -1.6374778747558594e-01 3.0984073877334595e-01</leafValues></_>
        <_>
          <internalNodes>
            0 -1 79 1.3294444652274251e-03</internalNodes>
          <leafValues>
            6.8591855466365814e-02 -7.1770894527435303e-01</leafValues></_>
        <_>
          <internalNodes>
            0 -1 186 -1.3274514458316844e-05</internalNodes>
          <leafValues>
            2.2043451666831970e-01 -2.3124346137046814e-01</leafValues></_>
        <_>
          <internalNodes>
            0 -1 81 -6.8729743361473083e-04</internalNodes>
          <leafValues>
            -5.2183312177658081e-01 9.0644091367721558e-02</leafValues></_>
        <_>
          <internalNodes>
            0 -1 2 -7.4998964555561543e-04</internalNodes>
          <leafValues>
            -4.7788417339324951e-01 1.1472251266241074e-01</leafValues></_>
        <_>
          <internalNodes>
            0 -1 48 -1.2960046529769897e-02</internalNodes>
          <leafValues>
            3.0926188826560974e-01 -1.9120311737060547e-01</leafValues></_>
        <_>
          <internalNodes>
            0 -1 34 1.4244281686842442e-02</internalNodes>
          <leafValues>
            -1.5152485668659210e-01 4.1257980465888977e-01</leafValues></_>
        <_>
          <internalNodes>
            0 -1 423 1.3159167792764492e-05</internalNodes>
          <leafValues>
            -1.9001279771327972e-01 2.7113997936248779e-01</leafValues></_>
        <_>
          <internalNodes>
            0 -1 3 1.2134450953453779e-03</internalNodes>
          <leafValues>
            1.0098410397768021e-01 -4.8037528991699219e-01</leafValues></_>
        <_>
          <internalNodes>
            0 -1 272 2.1267083939164877e-03</internalNodes>
          <leafValues>
            8.3874776959419250e-02 -5.7937443256378174e-01</leafValues></_></weakClassifiers></_>
    <!-- stage 4 -->
    <_>
      <maxWeakCount>20</maxWeakCount>
      <stageThreshold>-1.1002739667892456e+00</stageThreshold>
      <weakClassifiers>
        <_>
          <internalNodes>
            0 -1 473 -1.4812023378908634e-02</internalNodes>
          <leafValues>
            1.5987460315227509e-01 -5.0039649009704590e-01</leafValues></_>
        <_>
          <internalNodes>
            0 -1 38 8.6834535002708435e-02</internalNodes>
          <leafValues>
            -1.6845367848873138e-01 5.3691005706787109e-01</leafValues></_>
        <_>
          <internalNodes>
            0 -1 33 -1.9221734255552292e-02</internalNodes>
          <leafValues>
            5.0325655937194824e-01 -1.6348856687545776e-01</leafValues></_>
        <_>
          <internalNodes>
            0 -1 351 -4.4133752584457397e-02</internalNodes>
          <leafValues>
            4.1921791434288025e-01 -1.3458776473999023e-01</leafValues></_>
        <_>
          <internalNodes>
            0 -1 18 1.0653153993189335e-02</internalNodes>
          <leafValues>
            -1.3615535199642181e-01 4.2253085970878601e-01</leafValues></_>
        <_>
          <internalNodes>
            0 -1 349 2.7984514832496643e-02</internalNodes>
          <leafValues>
            -8.1986986100673676e-02 5.8834344148635864e-01</leafValues></_>
        <_>
          <internalNodes>
            0 -1 553 1.8630069680511951e-03</internalNodes>
          <leafValues>
            7.8783556818962097e-02 -7.4212116003036499e-01</leafValues></_>
        <_>
          <internalNodes>
            0 -1 503 -1.6112670302391052e-02</internalNodes>
          <leafValues>
            4.7845661640167236e-01 -1.0770033299922943e-01</leafValues></_>
        <_>
          <internalNodes>
            0 -1 10 -3.4743666648864746e-02</internalNodes>
          <leafValues>
            4.0906402468681335e-01 -1.2840612232685089e-01</leafValues></_>
        <_>
          <internalNodes>
            0 -1 266 2.7660079300403595e-02</internalNodes>
          <leafValues>
            -7.9308547079563141e-02 5.7499653100967407e-01</leafValues></_>
        <_>
          <internalNodes>
            0 -1 63 4.4561244547367096e-02</internalNodes>
          <leafValues>
            -1.3050511479377747e-01 4.0423142910003662e-01</leafValues></_>
        <_>
          <internalNodes>
            0 -1 105 -3.2592393457889557e-02</internalNodes>
          <leafValues>
            3.7652811408042908e-01 -1.4896777272224426e-01</leafValues></_>
        <_>
          <internalNodes>
            0 -1 531 1.0228544706478715e-03</internalNodes>
          <leafValues>
            7.8320778906345367e-02 -6.8805170059204102e-01</leafValues></_>
        <_>
          <internalNodes>
            0 -1 52 -3.5926192067563534e-03</internalNodes>
          <leafValues>
            3.2704031467437744e-01 -1.6457921266555786e-01</leafValues></_>
        <_>
          <internalNodes>
            0 -1 380 -8.9562125504016876e-03</internalNodes>
          <leafValues>
            4.6396002173423767e-01 -1.1319424211978912e-01</leafValues></_>
        <_>
          <internalNodes>
            0 -1 533 2.7544092154130340e-04</internalNodes>
          <leafValues>
            1.7688523232936859e-01 -3.5833063721656799e-01</leafValues></_>
        <_>
          <internalNodes>
            0 -1 526 2.4142684414982796e-03</internalNodes>
          <leafValues>
            5.5158603936433792e-02 -6.2077802419662476e-01</leafValues></_>
        <_>
          <internalNodes>
            0 -1 400 8.6437240242958069e-03</internalNodes>
          <leafValues>
            -1.3859598338603973e-01 3.8632366061210632e-01</leafValues></_>
        <_>
          <internalNodes>
            0 -1 364 4.3279331177473068e-02</internalNodes>
          <leafValues>
            -7.6199680566787720e-02 6.4857381582260132e-01</leafValues></_>
        <_>
          <internalNodes>
            0 -1 325 -1.8573917448520660e-02</internalNodes>
          <leafValues>
            3.4654840826988220e-01 -1.8939386308193207e-01</leafValues></_></weakClassifiers></_>
    <!-- stage 5 -->
    <_>
      <maxWeakCount>24</maxWeakCount>
      <stageThreshold>-1.1766782999038696e+00</stageThreshold>
      <weakClassifiers>
        <_>
          <internalNodes>
            0 -1 16 -4.1943080723285675e-02</internalNodes>
          <leafValues>
            2.3636363446712494e-01 -4.6470588445663452e-01</leafValues></_>
        <_>
          <internalNodes>
            0 -1 126 8.8493302464485168e-03</internalNodes>
          <leafValues>
            -1.5951408445835114e-01 4.7989159822463989e-01</leafValues></_>
        <_>
          <internalNodes>
            0 -1 276 -1.3036433607339859e-02</internalNodes>
          <leafValues>
            2.8840979933738708e-01 -1.8837207555770874e-01</leafValues></_>
        <_>
          <internalNodes>
            0 -1 0 -4.3741444824263453e-04</internalNodes>
          <leafValues>
            -4.3144556879997253e-01 1.0714576393365860e-01</leafValues></_>
        <_>
          <internalNodes>
            0 -1 0 2.3490992316510528e-04</internalNodes>
          <leafValues>
            2.0374633371829987e-01 -3.1224691867828369e-01</leafValues></_>
        <_>
          <internalNodes>
            0 -1 17 -9.3544824048876762e-03</internalNodes>
          <leafValues>
            4.4502285122871399e-01 -1.0537739098072052e-01</leafValues></_>
        <_>
          <internalNodes>
            0 -1 46 -2.2450797259807587e-02</internalNodes>
          <leafValues>
            -6.1787331104278564e-01 5.1412377506494522e-02</leafValues></_>
        <_>
          <internalNodes>
            0 -1 323 2.7539297007024288e-03</internalNodes>
          <leafValues>
            3.1230315566062927e-02 -8.4711438417434692e-01</leafValues></_>
        <_>
          <internalNodes>
            0 -1 185 -4.8459805548191071e-02</internalNodes>
          <leafValues>
            3.3409228920936584e-01 -1.2971429526805878e-01</leafValues></_>
        <_>
          <internalNodes>
            0 -1 467 -1.6753319650888443e-03</internalNodes>
          <leafValues>
            2.7012652158737183e-01 -1.5608312189579010e-01</leafValues></_>
        <_>
          <internalNodes>
            0 -1 6 -5.8025133330374956e-04</internalNodes>
          <leafValues>
            -3.2232436537742615e-01 1.2880605459213257e-01</leafValues></_>
        <_>
          <internalNodes>
            0 -1 179 -2.5894019752740860e-02</internalNodes>
          <leafValues>
            4.3970316648483276e-01 -1.1082823574542999e-01</leafValues></_>
        <_>
          <internalNodes>
            0 -1 268 5.9112468734383583e-03</internalNodes>
          <leafValues>
            -1.0961245745420456e-01 4.5770016312599182e-01</leafValues></_>
        <_>
          <internalNodes>
            0 -1 407 1.9737733528017998e-03</internalNodes>
          <leafValues>
            1.0291692614555359e-01 -5.1379013061523438e-01</leafValues></_>
        <_>
          <internalNodes>
            0 -1 253 -1.0315028950572014e-02</internalNodes>
          <leafValues>
            5.4003643989562988e-01 -8.4533102810382843e-02</leafValues></_>
        <_>
          <internalNodes>
            0 -1 207 1.2805394362658262e-03</internalNodes>
          <leafValues>
            -1.7436955869197845e-01 2.3170377314090729e-01</leafValues></_>
        <_>
          <internalNodes>
            0 -1 78 9.7178283613175154e-04</internalNodes>
          <leafValues>
            7.8850694000720978e-02 -5.6857949495315552e-01</leafValues></_>
        <_>
          <internalNodes>
            0 -1 257 -1.7701721517369151e-03</internalNodes>
          <leafValues>
            2.8456237912178040e-01 -1.4747382700443268e-01</leafValues></_>
        <_>
          <internalNodes>
            0 -1 234 5.2701095119118690e-03</internalNodes>
          <leafValues>
            -1.1882033944129944e-01 3.4544879198074341e-01</leafValues></_>
        <_>
          <internalNodes>
            0 -1 73 -8.2815065979957581e-04</internalNodes>
          <leafValues>
            -5.5371701717376709e-01 7.3258362710475922e-02</leafValues></_>
        <_>
          <internalNodes>
            0 -1 8 2.4207388050854206e-03</internalNodes>
          <leafValues>
            1.0073672980070114e-01 -3.8108161091804504e-01</leafValues></_>
        <_>
          <internalNodes>
            0 -1 369 -1.6731370706111193e-03</internalNodes>
          <leafValues>
            -6.3378739356994629e-01 5.0520427525043488e-02</leafValues></_>
        <_>
          <internalNodes>
            0 -1 135 5.7828528806567192e-03</internalNodes>
          <leafValues>
            -1.0990113765001297e-01 3.6701631546020508e-01</leafValues></_>
        <_>
          <internalNodes>
            0 -1 379 -8.5691791027784348e-03</internalNodes>
          <leafValues>
            2.4270886182785034e-01 -1.4578622579574585e-01</leafValues></_></weakClassifiers></_>
    <!-- stage 6 -->
    <_>
      <maxWeakCount>27</maxWeakCount>
      <stageThreshold>-1.0929781198501587e+00</stageThreshold>
      <weakClassifiers>
        <_>
          <internalNodes>
            0 -1 219 4.2311199009418488e-02</internalNodes>
          <leafValues>
            -4.3015214800834656e-01 3.1343284249305725e-01</leafValues></_>
        <_>
          <internalNodes>
            0 -1 539 1.1205427348613739e-02</internalNodes>
          <leafValues>
            -1.3570483028888702e-01 4.4280463457107544e-01</leafValues></_>
        <_>
          <internalNodes>
            0 -1 9 -1.4421117492020130e-02</internalNodes>
          <leafValues>
            3.4417316317558289e-01 -1.2196338176727295e-01</leafValues></_>
        <_>
          <internalNodes>
            0 -1 241 -2.5209477171301842e-02</internalNodes>
          <leafValues>
            4.0018409490585327e-01 -8.0461569130420685e-02</leafValues></_>
        <_>
          <internalNodes>
            0 -1 7 9.5425627660006285e-04</internalNodes>
          <leafValues>
            8.8546223938465118e-02 -4.0847766399383545e-01</leafValues></_>
        <_>
          <internalNodes>
            0 -1 291 -1.6156820580363274e-02</internalNodes>
          <leafValues>
            4.1924774646759033e-01 -7.1441881358623505e-02</leafValues></_>
        <_>
          <internalNodes>
            0 -1 290 4.7785714268684387e-03</internalNodes>
          <leafValues>
            -1.3133263587951660e-01 2.6889508962631226e-01</leafValues></_>
        <_>
          <internalNodes>
            0 -1 436 -2.1219700574874878e-02</internalNodes>
          <leafValues>
            4.9231338500976562e-01 -6.4692772924900055e-02</leafValues></_>
        <_>
          <internalNodes>
            0 -1 431 2.5550425052642822e-02</internalNodes>
          <leafValues>
            -1.1619104444980621e-01 3.3005762100219727e-01</leafValues></_>
        <_>
          <internalNodes>
            0 -1 455 -3.3082629088312387e-03</internalNodes>
          <leafValues>
            2.8002646565437317e-01 -1.4772397279739380e-01</leafValues></_>
        <_>
          <internalNodes>
            0 -1 547 -1.0553242173045874e-03</internalNodes>
          <leafValues>
            -6.2837719917297363e-01 5.8104813098907471e-02</leafValues></_>
        <_>
          <internalNodes>
            0 -1 362 1.8769038142636418e-03</internalNodes>
          <leafValues>
            7.5322464108467102e-02 -5.8763498067855835e-01</leafValues></_>
        <_>
          <internalNodes>
            0 -1 57 -2.5029052048921585e-02</internalNodes>
          <leafValues>
            3.7755623459815979e-01 -9.2943005263805389e-02</leafValues></_>
        <_>
          <internalNodes>
            0 -1 180 2.9453013092279434e-02</internalNodes>
          <leafValues>
            -7.8333511948585510e-02 4.7400695085525513e-01</leafValues></_>
        <_>
          <internalNodes>
            0 -1 286 -2.3726720362901688e-02</internalNodes>
          <leafValues>
            3.4421265125274658e-01 -1.1200634390115738e-01</leafValues></_>
        <_>
          <internalNodes>
            0 -1 430 1.3741577975451946e-02</internalNodes>
          <leafValues>
            -7.4546784162521362e-02 5.2240788936614990e-01</leafValues></_>
        <_>
          <internalNodes>
            0 -1 80 -4.7365241334773600e-04</internalNodes>
          <leafValues>
            -3.7719854712486267e-01 1.3385106623172760e-01</leafValues></_>
        <_>
          <internalNodes>
            0 -1 512 -4.3213842436671257e-03</internalNodes>
          <leafValues>
            -6.7227256298065186e-01 4.6097964048385620e-02</leafValues></_>
        <_>
          <internalNodes>
            0 -1 490 -1.0890820063650608e-02</internalNodes>
          <leafValues>
            5.2823269367218018e-01 -7.1181342005729675e-02</leafValues></_>
        <_>
          <internalNodes>
            0 -1 332 -1.7678201198577881e-02</internalNodes>
          <leafValues>
            2.4509459733963013e-01 -1.4520460367202759e-01</leafValues></_>
        <_>
          <internalNodes>
            0 -1 295 -1.4316490851342678e-02</internalNodes>
          <leafValues>
            2.9365536570549011e-01 -1.2241753190755844e-01</leafValues></_>
        <_>
          <internalNodes>
            0 -1 518 -1.0123823303729296e-03</internalNodes>
          <leafValues>
            -3.6458298563957214e-01 1.0585889965295792e-01</leafValues></_>
        <_>
          <internalNodes>
            0 -1 372 -1.7408266663551331e-02</internalNodes>
          <leafValues>
            2.6210102438926697e-01 -1.4055144786834717e-01</leafValues></_>
        <_>
          <internalNodes>
            0 -1 137 -2.4848842620849609e-01</internalNodes>
          <leafValues>
            -8.5708099603652954e-01 4.0484786033630371e-02</leafValues></_>
        <_>
          <internalNodes>
            0 -1 67 -1.3321972219273448e-03</internalNodes>
          <leafValues>
            -5.7239955663681030e-01 5.2416227757930756e-02</leafValues></_>
        <_>
          <internalNodes>
            0 -1 146 2.2968738339841366e-03</internalNodes>
          <leafValues>
            -1.2766551971435547e-01 2.9252350330352783e-01</leafValues></_>
        <_>
          <internalNodes>
            0 -1 80 5.2536663133651018e-04</internalNodes>
          <leafValues>
            9.3789987266063690e-02 -3.6422067880630493e-01</leafValues></_></weakClassifiers></_>
    <!-- stage 7 -->
    <_>
      <maxWeakCount>27</maxWeakCount>
      <stageThreshold>-1.1225771903991699e+00</stageThreshold>
      <weakClassifiers>
        <_>
          <internalNodes>
            0 -1 131 -7.7183999121189117e-02</internalNodes>
          <leafValues>
            4.4247787445783615e-02 -4.7945204377174377e-01</leafValues></_>
        <_>
          <internalNodes>
            0 -1 23 -2.6488518342375755e-02</internalNodes>
          <leafValues>
            3.1437462568283081e-01 -1.8674261868000031e-01</leafValues></_>
        <_>
          <internalNodes>
            0 -1 261 -5.6933857500553131e-02</internalNodes>
          <leafValues>
            7.3823505640029907e-01 -5.3415250033140182e-02</leafValues></_>
        <_>
          <internalNodes>
            0 -1 474 -2.4020059034228325e-02</internalNodes>
          <leafValues>
            3.7366914749145508e-01 -9.9045440554618835e-02</leafValues></_>
        <_>
          <internalNodes>
            0 -1 506 -3.0262570828199387e-02</internalNodes>
          <leafValues>
            5.8342570066452026e-01 -7.4219822883605957e-02</leafValues></_>
        <_>
          <internalNodes>
            0 -1 463 1.9272703677415848e-02</internalNodes>
          <leafValues>
            -1.2521137297153473e-01 3.3314818143844604e-01</leafValues></_>
        <_>
          <internalNodes>
            0 -1 515 4.1437828913331032e-03</internalNodes>
          <leafValues>
            6.9261699914932251e-02 -6.2610501050949097e-01</leafValues></_>
        <_>
          <internalNodes>
            0 -1 242 1.2401502579450607e-02</internalNodes>
          <leafValues>
            -9.8491899669170380e-02 3.6278513073921204e-01</leafValues></_>
        <_>
          <internalNodes>
            0 -1 278 1.9415879249572754e-01</internalNodes>
          <leafValues>
            5.8599296957254410e-02 -6.5891480445861816e-01</leafValues></_>
        <_>
          <internalNodes>
            0 -1 140 -2.3218724876642227e-02</internalNodes>
          <leafValues>
            -7.0077538490295410e-01 7.0713967084884644e-02</leafValues></_>
        <_>
          <internalNodes>
            0 -1 62 -3.8935065269470215e-02</internalNodes>
          <leafValues>
            -7.9293155670166016e-01 4.4089592993259430e-02</leafValues></_>
        <_>
          <internalNodes>
            0 -1 95 4.4743478298187256e-02</internalNodes>
          <leafValues>
            3.5973340272903442e-02 -7.6575332880020142e-01</leafValues></_>
        <_>
          <internalNodes>
            0 -1 19 1.8799033015966415e-02</internalNodes>
          <leafValues>
            -1.0199212282896042e-01 3.6793434619903564e-01</leafValues></_>
        <_>
          <internalNodes>
            0 -1 129 -1.3047027587890625e-01</internalNodes>
          <leafValues>
            3.9215049147605896e-01 -9.3698158860206604e-02</leafValues></_>
        <_>
          <internalNodes>
            0 -1 30 -1.7670792341232300e-01</internalNodes>
          <leafValues>
            -8.5153287649154663e-01 4.8502180725336075e-02</leafValues></_>
        <_>
          <internalNodes>
            0 -1 334 -1.2134477496147156e-02</internalNodes>
          <leafValues>
            5.5763095617294312e-01 -7.8436121344566345e-02</leafValues></_>
        <_>
          <internalNodes>
            0 -1 40 2.4548886343836784e-02</internalNodes>
          <leafValues>
            7.1863368153572083e-02 -5.7368421554565430e-01</leafValues></_>
        <_>
          <internalNodes>
            0 -1 293 -5.6670838966965675e-03</internalNodes>
          <leafValues>
            2.6824113726615906e-01 -1.3099575042724609e-01</leafValues></_>
        <_>
          <internalNodes>
            0 -1 53 -9.1050699353218079e-02</internalNodes>
          <leafValues>
            3.5699948668479919e-01 -9.0004235506057739e-02</leafValues></_>
        <_>
          <internalNodes>
            0 -1 440 6.7365891300141811e-04</internalNodes>
          <leafValues>
            -1.4171026647090912e-01 2.4786759912967682e-01</leafValues></_>
        <_>
          <internalNodes>
            0 -1 123 1.4918434619903564e-01</internalNodes>
          <leafValues>
            5.7682611048221588e-02 -6.4690166711807251e-01</leafValues></_>
        <_>
          <internalNodes>
            0 -1 533 -9.1723853256553411e-04</internalNodes>
          <leafValues>
            -4.9894833564758301e-01 6.3037022948265076e-02</leafValues></_>
        <_>
          <internalNodes>
            0 -1 60 -2.9236359987407923e-03</internalNodes>
          <leafValues>
            -7.3424887657165527e-01 3.8464490324258804e-02</leafValues></_>
        <_>
          <internalNodes>
            0 -1 279 -2.1267659030854702e-03</internalNodes>
          <leafValues>
            1.8132741749286652e-01 -1.8123655021190643e-01</leafValues></_>
        <_>
          <internalNodes>
            0 -1 287 -1.6739126294851303e-03</internalNodes>
          <leafValues>
            2.2850611805915833e-01 -1.4568409323692322e-01</leafValues></_>
        <_>
          <internalNodes>
            0 -1 36 4.7839153558015823e-03</internalNodes>
          <leafValues>
            5.4992105811834335e-02 -6.1721932888031006e-01</leafValues></_>
        <_>
          <internalNodes>
            0 -1 281 1.4930481556802988e-03</internalNodes>
          <leafValues>
            -1.4941005408763885e-01 2.4272584915161133e-01</leafValues></_></weakClassifiers></_>
    <!-- stage 8 -->
    <_>
      <maxWeakCount>28</maxWeakCount>
      <stageThreshold>-9.5957410335540771e-01</stageThreshold>
      <weakClassifiers>
        <_>
          <internalNodes>
            0 -1 155 -5.4388321936130524e-02</internalNodes>
          <leafValues>
            -3.1630169600248337e-02 -4.8502993583679199e-01</leafValues></_>
        <_>
          <internalNodes>
            0 -1 130 2.7079746127128601e-02</internalNodes>
          <leafValues>
            -1.4781044423580170e-01 3.2025593519210815e-01</leafValues></_>
        <_>
          <internalNodes>
            0 -1 92 -4.2574331164360046e-03</internalNodes>
          <leafValues>
            3.0277091264724731e-01 -1.2368442118167877e-01</leafValues></_>
        <_>
          <internalNodes>
            0 -1 191 -1.5994330868124962e-02</internalNodes>
          <leafValues>
            3.6516559123992920e-01 -8.9733310043811798e-02</leafValues></_>
        <_>
          <internalNodes>
            0 -1 283 -1.3279817998409271e-02</internalNodes>
          <leafValues>
            -7.0632416009902954e-01 4.8199024051427841e-02</leafValues></_>
        <_>
          <internalNodes>
            0 -1 529 2.1448098123073578e-03</internalNodes>
          <leafValues>
            8.3123736083507538e-02 -4.1562181711196899e-01</leafValues></_>
        <_>
          <internalNodes>
            0 -1 264 3.7896330468356609e-03</internalNodes>
          <leafValues>
            -6.8695671856403351e-02 3.7779039144515991e-01</leafValues></_>
        <_>
          <internalNodes>
            0 -1 365 -4.9764394760131836e-02</internalNodes>
          <leafValues>
            2.5049492716789246e-01 -1.5100833773612976e-01</leafValues></_>
        <_>
          <internalNodes>
            0 -1 339 1.3796734856441617e-03</internalNodes>
          <leafValues>
            6.6740736365318298e-02 -5.2033710479736328e-01</leafValues></_>
        <_>
          <internalNodes>
            0 -1 77 1.5950840897858143e-03</internalNodes>
          <leafValues>
            5.8989547193050385e-02 -5.0526744127273560e-01</leafValues></_>
        <_>
          <internalNodes>
            0 -1 418 -1.3826324138790369e-03</internalNodes>
          <leafValues>
            2.6142677664756775e-01 -1.2893173098564148e-01</leafValues></_>
        <_>
          <internalNodes>
            0 -1 388 -3.8975528441369534e-03</internalNodes>
          <leafValues>
            2.8779348731040955e-01 -1.1536057293415070e-01</leafValues></_>
        <_>
          <internalNodes>
            0 -1 98 -1.2117211520671844e-01</internalNodes>
          <leafValues>
            2.8180301189422607e-01 -1.1186735332012177e-01</leafValues></_>
        <_>
          <internalNodes>
            0 -1 167 -2.4218007456511259e-03</internalNodes>
          <leafValues>
            2.2421747446060181e-01 -1.7202636599540710e-01</leafValues></_>
        <_>
          <internalNodes>
            0 -1 544 6.2753763049840927e-03</internalNodes>
          <leafValues>
            -1.4310757815837860e-01 2.3318614065647125e-01</leafValues></_>
        <_>
          <internalNodes>
            0 -1 182 -2.4792473763227463e-02</internalNodes>
          <leafValues>
            2.9520085453987122e-01 -1.1964589357376099e-01</leafValues></_>
        <_>
          <internalNodes>
            0 -1 172 -2.3417441174387932e-02</internalNodes>
          <leafValues>
            2.7396097779273987e-01 -1.2871263921260834e-01</leafValues></_>
        <_>
          <internalNodes>
            0 -1 25 2.5962397456169128e-01</internalNodes>
          <leafValues>
            -1.0255262255668640e-01 3.2161375880241394e-01</leafValues></_>
        <_>
          <internalNodes>
            0 -1 274 -3.4135632216930389e-02</internalNodes>
          <leafValues>
            2.2906813025474548e-01 -1.6116389632225037e-01</leafValues></_>
        <_>
          <internalNodes>
            0 -1 149 -8.7132016196846962e-03</internalNodes>
          <leafValues>
            2.2310440242290497e-01 -1.6671475768089294e-01</leafValues></_>
        <_>
          <internalNodes>
            0 -1 206 -3.1340502202510834e-02</internalNodes>
          <leafValues>
            2.9919469356536865e-01 -1.1240931600332260e-01</leafValues></_>
        <_>
          <internalNodes>
            0 -1 408 -1.0586366057395935e-02</internalNodes>
          <leafValues>
            2.6982516050338745e-01 -1.1754816025495529e-01</leafValues></_>
        <_>
          <internalNodes>
            0 -1 466 1.3646770268678665e-02</internalNodes>
          <leafValues>
            -1.1793153733015060e-01 2.8560522198677063e-01</leafValues></_>
        <_>
          <internalNodes>
            0 -1 551 5.2442669402807951e-04</internalNodes>
          <leafValues>
            9.0136863291263580e-02 -3.8755336403846741e-01</leafValues></_>
        <_>
          <internalNodes>
            0 -1 528 -2.2000831086188555e-03</internalNodes>
          <leafValues>
            -8.1105834245681763e-01 3.5400465130805969e-02</leafValues></_>
        <_>
          <internalNodes>
            0 -1 42 -5.0015258602797985e-03</internalNodes>
          <leafValues>
            4.0173703432083130e-01 -9.0194597840309143e-02</leafValues></_>
        <_>
          <internalNodes>
            0 -1 252 2.1870662458240986e-03</internalNodes>
          <leafValues>
            6.2746219336986542e-02 -5.3783857822418213e-01</leafValues></_>
        <_>
          <internalNodes>
            0 -1 91 2.9614414088428020e-03</internalNodes>
          <leafValues>
            -8.9141853153705597e-02 3.8478514552116394e-01</leafValues></_></weakClassifiers></_>
    <!-- stage 9 -->
    <_>
      <maxWeakCount>29</maxWeakCount>
      <stageThreshold>-1.1076421737670898e+00</stageThreshold>
      <weakClassifiers>
        <_>
          <internalNodes>
            0 -1 122 6.7859645932912827e-03</internalNodes>
          <leafValues>
            -4.4622093439102173e-01 1.6666667163372040e-01</leafValues></_>
        <_>
          <internalNodes>
            0 -1 301 7.7786250039935112e-03</internalNodes>
          <leafValues>
            -1.0418920218944550e-01 5.1397049427032471e-01</leafValues></_>
        <_>
          <internalNodes>
            0 -1 483 -9.7599532455205917e-04</internalNodes>
          <leafValues>
            2.4511456489562988e-01 -1.4431650936603546e-01</leafValues></_>
        <_>
          <internalNodes>
            0 -1 87 -5.0314300460740924e-04</internalNodes>
          <leafValues>
            2.0939366519451141e-01 -1.5624341368675232e-01</leafValues></_>
        <_>
          <internalNodes>
            0 -1 153 8.1228101626038551e-03</internalNodes>
          <leafValues>
            -9.0953990817070007e-02 3.1459751725196838e-01</leafValues></_>
        <_>
          <internalNodes>
            0 -1 112 -1.3991964980959892e-02</internalNodes>
          <leafValues>
            -6.1543446779251099e-01 4.9574814736843109e-02</leafValues></_>
        <_>
          <internalNodes>
            0 -1 469 -6.0254316776990891e-03</internalNodes>
          <leafValues>
            2.7117639780044556e-01 -1.0116339474916458e-01</leafValues></_>
        <_>
          <internalNodes>
            0 -1 447 -5.8862594887614250e-03</internalNodes>
          <leafValues>
            2.0892041921615601e-01 -1.4513179659843445e-01</leafValues></_>
        <_>
          <internalNodes>
            0 -1 357 -7.8525934368371964e-03</internalNodes>
          <leafValues>
            2.6495447754859924e-01 -1.1465102434158325e-01</leafValues></_>
        <_>
          <internalNodes>
            0 -1 114 -4.6063386835157871e-03</internalNodes>
          <leafValues>
            -4.6087193489074707e-01 1.0915663093328476e-01</leafValues></_>
        <_>
          <internalNodes>
            0 -1 239 -9.9040847271680832e-04</internalNodes>
          <leafValues>
            2.2804157435894012e-01 -1.3937808573246002e-01</leafValues></_>
        <_>
          <internalNodes>
            0 -1 343 4.0711844339966774e-03</internalNodes>
          <leafValues>
            1.5812300145626068e-01 -2.0880329608917236e-01</leafValues></_>
        <_>
          <internalNodes>
            0 -1 398 5.4925442673265934e-03</internalNodes>
          <leafValues>
            -1.3905748724937439e-01 2.6169380545616150e-01</leafValues></_>
        <_>
          <internalNodes>
            0 -1 438 9.2612989246845245e-03</internalNodes>
          <leafValues>
            4.9488134682178497e-02 -8.1394726037979126e-01</leafValues></_>
        <_>
          <internalNodes>
            0 -1 333 -2.1659333724528551e-03</internalNodes>
          <leafValues>
            2.1186052262783051e-01 -1.5655139088630676e-01</leafValues></_>
        <_>
          <internalNodes>
            0 -1 435 1.1654852423816919e-03</internalNodes>
          <leafValues>
            -9.4635210931301117e-02 2.7598056197166443e-01</leafValues></_>
        <_>
          <internalNodes>
            0 -1 374 -2.2498015314340591e-03</internalNodes>
          <leafValues>
            2.5155895948410034e-01 -1.2231232225894928e-01</leafValues></_>
        <_>
          <internalNodes>
            0 -1 31 -1.5974456910043955e-03</internalNodes>
          <leafValues>
            2.5859615206718445e-01 -1.2599396705627441e-01</leafValues></_>
        <_>
          <internalNodes>
            0 -1 470 -6.8437424488365650e-04</internalNodes>
          <leafValues>
            1.8902085721492767e-01 -1.6393421590328217e-01</leafValues></_>
        <_>
          <internalNodes>
            0 -1 314 -2.3699086159467697e-03</internalNodes>
          <leafValues>
            2.2083318233489990e-01 -1.4468318223953247e-01</leafValues></_>
        <_>
          <internalNodes>
            0 -1 154 -3.1136709451675415e-01</internalNodes>
          <leafValues>
            -1. 3.5064645111560822e-02</leafValues></_>
        <_>
          <internalNodes>
            0 -1 498 1.2767957523465157e-03</internalNodes>
          <leafValues>
            4.1960511356592178e-02 -5.2251559495925903e-01</leafValues></_>
        <_>
          <internalNodes>
            0 -1 426 -1.2903553433716297e-03</internalNodes>
          <leafValues>
            2.5403183698654175e-01 -1.2091469764709473e-01</leafValues></_>
        <_>
          <internalNodes>
            0 -1 358 -5.7605663314461708e-03</internalNodes>
          <leafValues>
            2.3752976953983307e-01 -1.3348376750946045e-01</leafValues></_>
        <_>
          <internalNodes>
            0 -1 132 -1.2487566098570824e-02</internalNodes>
          <leafValues>
            -3.7088480591773987e-01 8.3005703985691071e-02</leafValues></_>
        <_>
          <internalNodes>
            0 -1 480 -3.8903381209820509e-05</internalNodes>
          <leafValues>
            1.7667926847934723e-01 -1.6580995917320251e-01</leafValues></_>
        <_>
          <internalNodes>
            0 -1 120 -5.7192979147657752e-04</internalNodes>
          <leafValues>
            -4.2271447181701660e-01 8.0633223056793213e-02</leafValues></_>
        <_>
          <internalNodes>
            0 -1 401 -1.2603955343365669e-02</internalNodes>
          <leafValues>
            -7.8237098455429077e-01 3.0348733067512512e-02</leafValues></_>
        <_>
          <internalNodes>
            0 -1 403 1.7922488041222095e-03</internalNodes>
          <leafValues>
            -1.2096994370222092e-01 2.8756976127624512e-01</leafValues></_></weakClassifiers></_>
    <!-- stage 10 -->
    <_>
      <maxWeakCount>28</maxWeakCount>
      <stageThreshold>-1.0274530649185181e+00</stageThreshold>
      <weakClassifiers>
        <_>
          <internalNodes>
            0 -1 250 2.5057917810045183e-05</internalNodes>
          <leafValues>
            -5.1282054185867310e-01 -1.5527950227260590e-01</leafValues></_>
        <_>
          <internalNodes>
            0 -1 300 -8.9300908148288727e-03</internalNodes>
          <leafValues>
            -4.1940823197364807e-01 7.4539780616760254e-02</leafValues></_>
        <_>
          <internalNodes>
            0 -1 302 1.1076836381107569e-03</internalNodes>
          <leafValues>
            1.2857195734977722e-01 -3.3972573280334473e-01</leafValues></_>
        <_>
          <internalNodes>
            0 -1 547 1.1250103125348687e-03</internalNodes>
          <leafValues>
            7.2165541350841522e-02 -5.6046730279922485e-01</leafValues></_>
        <_>
          <internalNodes>
            0 -1 250 -2.5221936084562913e-05</internalNodes>
          <leafValues>
            2.5777912139892578e-01 -1.4068740606307983e-01</leafValues></_>
        <_>
          <internalNodes>
            0 -1 546 -1.3026157394051552e-03</internalNodes>
          <leafValues>
            -4.4323685765266418e-01 6.7865848541259766e-02</leafValues></_>
        <_>
          <internalNodes>
            0 -1 205 6.3641793094575405e-03</internalNodes>
          <leafValues>
            -8.2504764199256897e-02 3.7425714731216431e-01</leafValues></_>
        <_>
          <internalNodes>
            0 -1 549 -1.0375112760812044e-03</internalNodes>
          <leafValues>
            -5.1254552602767944e-01 7.3917046189308167e-02</leafValues></_>
        <_>
          <internalNodes>
            0 -1 157 -2.0434696227312088e-02</internalNodes>
          <leafValues>
            5.9906381368637085e-01 -6.4676254987716675e-02</leafValues></_>
        <_>
          <internalNodes>
            0 -1 429 -2.2529915440827608e-05</internalNodes>
          <leafValues>
            2.2028169035911560e-01 -1.7550949752330780e-01</leafValues></_>
        <_>
          <internalNodes>
            0 -1 233 7.4283378198742867e-03</internalNodes>
          <leafValues>
            -9.5584206283092499e-02 3.8479840755462646e-01</leafValues></_>
        <_>
          <internalNodes>
            0 -1 121 -1.2332091573625803e-03</internalNodes>
          <leafValues>
            -3.4596231579780579e-01 9.6646867692470551e-02</leafValues></_>
        <_>
          <internalNodes>
            0 -1 121 1.1089451145380735e-03</internalNodes>
          <leafValues>
            1.4005148410797119e-01 -3.4947222471237183e-01</leafValues></_>
        <_>
          <internalNodes>
            0 -1 145 4.5137116685509682e-03</internalNodes>
          <leafValues>
            -1.2790244817733765e-01 2.7213662862777710e-01</leafValues></_>
        <_>
          <internalNodes>
            0 -1 451 -2.1619824692606926e-03</internalNodes>
          <leafValues>
            3.0027976632118225e-01 -1.1481534689664841e-01</leafValues></_>
        <_>
          <internalNodes>
            0 -1 510 -3.9041042327880859e-05</internalNodes>
          <leafValues>
            2.1970656514167786e-01 -1.6162742674350739e-01</leafValues></_>
        <_>
          <internalNodes>
            0 -1 144 8.7597761303186417e-03</internalNodes>
          <leafValues>
            -8.6155407130718231e-02 4.0267881751060486e-01</leafValues></_>
        <_>
          <internalNodes>
            0 -1 47 -1.5906656160950661e-02</internalNodes>
          <leafValues>
            4.7461906075477600e-01 -6.9248713552951813e-02</leafValues></_>
        <_>
          <internalNodes>
            0 -1 128 1.2756468355655670e-01</internalNodes>
          <leafValues>
            -8.7135016918182373e-02 4.6041661500930786e-01</leafValues></_>
        <_>
          <internalNodes>
            0 -1 535 1.0707278270274401e-03</internalNodes>
          <leafValues>
            9.3107566237449646e-02 -3.5443669557571411e-01</leafValues></_>
        <_>
          <internalNodes>
            0 -1 485 3.0266928661148995e-05</internalNodes>
          <leafValues>
            -1.6641438007354736e-01 2.2620150446891785e-01</leafValues></_>
        <_>
          <internalNodes>
            0 -1 501 5.6861203163862228e-02</internalNodes>
          <leafValues>
            -6.7779876291751862e-02 5.2246731519699097e-01</leafValues></_>
        <_>
          <internalNodes>
            0 -1 495 -2.5583416572771966e-05</internalNodes>
          <leafValues>
            2.0792463421821594e-01 -1.6219496726989746e-01</leafValues></_>
        <_>
          <internalNodes>
            0 -1 215 -1.9779913127422333e-02</internalNodes>
          <leafValues>
            -9.4424962997436523e-01 3.7920746952295303e-02</leafValues></_>
        <_>
          <internalNodes>
            0 -1 457 2.3483982658945024e-05</internalNodes>
          <leafValues>
            -1.7704290151596069e-01 1.8070155382156372e-01</leafValues></_>
        <_>
          <internalNodes>
            0 -1 309 1.1694800923578441e-04</internalNodes>
          <leafValues>
            -1.4669166505336761e-01 2.3943205177783966e-01</leafValues></_>
        <_>
          <internalNodes>
            0 -1 342 3.9270287379622459e-03</internalNodes>
          <leafValues>
            7.1501441299915314e-02 -4.6038156747817993e-01</leafValues></_>
        <_>
          <internalNodes>
            0 -1 318 1.5550421085208654e-03</internalNodes>
          <leafValues>
            -9.3337193131446838e-02 3.7288135290145874e-01</leafValues></_></weakClassifiers></_>
    <!-- stage 11 -->
    <_>
      <maxWeakCount>34</maxWeakCount>
      <stageThreshold>-1.0794054269790649e+00</stageThreshold>
      <weakClassifiers>
        <_>
          <internalNodes>
            0 -1 20 1.0160493850708008e-01</internalNodes>
          <leafValues>
            -4.5631068944931030e-01 -4.6511627733707428e-02</leafValues></_>
        <_>
          <internalNodes>
            0 -1 139 1.3639068603515625e-01</internalNodes>
          <leafValues>
            1.4730547554790974e-02 -8.0337637662887573e-01</leafValues></_>
        <_>
          <internalNodes>
            0 -1 326 -2.1634781360626221e-01</internalNodes>
          <leafValues>
            -6.6331875324249268e-01 6.8706065416336060e-02</leafValues></_>
        <_>
          <internalNodes>
            0 -1 477 -7.7907200902700424e-03</internalNodes>
          <leafValues>
            3.1346005201339722e-01 -8.5025168955326080e-02</leafValues></_>
        <_>
          <internalNodes>
            0 -1 499 1.3408779632300138e-03</internalNodes>
          <leafValues>
            8.4668539464473724e-02 -3.3142176270484924e-01</leafValues></_>
        <_>
          <internalNodes>
            0 -1 410 3.0983872711658478e-03</internalNodes>
          <leafValues>
            -9.6218191087245941e-02 3.1103417277336121e-01</leafValues></_>
        <_>
          <internalNodes>
            0 -1 471 -5.6605143472552299e-03</internalNodes>
          <leafValues>
            2.0307716727256775e-01 -1.3794387876987457e-01</leafValues></_>
        <_>
          <internalNodes>
            0 -1 424 7.9310480505228043e-03</internalNodes>
          <leafValues>
            -1.2594453990459442e-01 2.0291793346405029e-01</leafValues></_>
        <_>
          <internalNodes>
            0 -1 404 -1.7394866794347763e-02</internalNodes>
          <leafValues>
            3.3064699172973633e-01 -9.4854786992073059e-02</leafValues></_>
        <_>
          <internalNodes>
            0 -1 324 -8.1944968551397324e-03</internalNodes>
          <leafValues>
            4.6769252419471741e-01 -5.0589334219694138e-02</leafValues></_>
        <_>
          <internalNodes>
            0 -1 462 -3.4879025071859360e-02</internalNodes>
          <leafValues>
            -6.3039153814315796e-01 4.4586233794689178e-02</leafValues></_>
        <_>
          <internalNodes>
            0 -1 514 -3.2291915267705917e-03</internalNodes>
          <leafValues>
            -5.4577279090881348e-01 4.1864246129989624e-02</leafValues></_>
        <_>
          <internalNodes>
            0 -1 297 -1.9319025159347802e-04</internalNodes>
          <leafValues>
            1.9801647961139679e-01 -1.3134326040744781e-01</leafValues></_>
        <_>
          <internalNodes>
            0 -1 383 -1.2400059495121241e-03</internalNodes>
          <leafValues>
            -3.7221282720565796e-01 6.8096853792667389e-02</leafValues></_>
        <_>
          <internalNodes>
            0 -1 238 -1.4086685841903090e-03</internalNodes>
          <leafValues>
            1.6716445982456207e-01 -1.5313087403774261e-01</leafValues></_>
        <_>
          <internalNodes>
            0 -1 223 -3.4579496830701828e-02</internalNodes>
          <leafValues>
            4.3955960869789124e-01 -6.5497584640979767e-02</leafValues></_>
        <_>
          <internalNodes>
            0 -1 310 -1.5674833208322525e-02</internalNodes>
          <leafValues>
            6.0979080200195312e-01 -4.4442117214202881e-02</leafValues></_>
        <_>
          <internalNodes>
            0 -1 284 -8.4098195657134056e-04</internalNodes>
          <leafValues>
            1.8833693861961365e-01 -1.3489599525928497e-01</leafValues></_>
        <_>
          <internalNodes>
            0 -1 106 7.9593323171138763e-02</internalNodes>
          <leafValues>
            5.7800881564617157e-02 -4.4747516512870789e-01</leafValues></_>
        <_>
          <internalNodes>
            0 -1 22 2.3637292906641960e-02</internalNodes>
          <leafValues>
            -7.9596407711505890e-02 3.8726201653480530e-01</leafValues></_>
        <_>
          <internalNodes>
            0 -1 32 3.5540643148124218e-03</internalNodes>
          <leafValues>
            -1.2828479707241058e-01 2.4932281672954559e-01</leafValues></_>
        <_>
          <internalNodes>
            0 -1 11 3.1430765520781279e-03</internalNodes>
          <leafValues>
            -1.5120847523212433e-01 1.8706037104129791e-01</leafValues></_>
        <_>
          <internalNodes>
            0 -1 187 -6.5574632026255131e-04</internalNodes>
          <leafValues>
            -3.9957192540168762e-01 8.1269249320030212e-02</leafValues></_>
        <_>
          <internalNodes>
            0 -1 443 8.5234139114618301e-03</internalNodes>
          <leafValues>
            3.3516038209199905e-02 -7.0952349901199341e-01</leafValues></_>
        <_>
          <internalNodes>
            0 -1 453 -3.4306212910450995e-05</internalNodes>
          <leafValues>
            1.6971288621425629e-01 -1.7070356011390686e-01</leafValues></_>
        <_>
          <internalNodes>
            0 -1 331 -1.4733634889125824e-02</internalNodes>
          <leafValues>
            -7.4201416969299316e-01 3.5944279283285141e-02</leafValues></_>
        <_>
          <internalNodes>
            0 -1 262 -2.0494047552347183e-02</internalNodes>
          <leafValues>
            5.5988764762878418e-01 -6.2492433935403824e-02</leafValues></_>
        <_>
          <internalNodes>
            0 -1 116 -1.0032126680016518e-02</internalNodes>
          <leafValues>
            2.5329154729843140e-01 -1.0453938692808151e-01</leafValues></_>
        <_>
          <internalNodes>
            0 -1 315 8.6949858814477921e-03</internalNodes>
          <leafValues>
            -9.4788558781147003e-02 2.8908059000968933e-01</leafValues></_>
        <_>
          <internalNodes>
            0 -1 282 1.9291895627975464e-01</internalNodes>
          <leafValues>
            3.9652310311794281e-02 -7.4245846271514893e-01</leafValues></_>
        <_>
          <internalNodes>
            0 -1 288 8.3551910938695073e-04</internalNodes>
          <leafValues>
            -1.6131128370761871e-01 1.6656523942947388e-01</leafValues></_>
        <_>
          <internalNodes>
            0 -1 188 1.3350521912798285e-03</internalNodes>
          <leafValues>
            -9.4508774578571320e-02 3.0124312639236450e-01</leafValues></_>
        <_>
          <internalNodes>
            0 -1 199 9.0514887124300003e-03</internalNodes>
          <leafValues>
            2.8246957808732986e-02 -9.4855815172195435e-01</leafValues></_>
        <_>
          <internalNodes>
            0 -1 159 -9.1069319751113653e-04</internalNodes>
          <leafValues>
            2.0135968923568726e-01 -1.3165186345577240e-01</leafValues></_></weakClassifiers></_>
    <!-- stage 12 -->
    <_>
      <maxWeakCount>36</maxWeakCount>
      <stageThreshold>-1.0111789703369141e+00</stageThreshold>
      <weakClassifiers>
        <_>
          <internalNodes>
            0 -1 143 -1.3739287853240967e-01</internalNodes>
          <leafValues>
            4.7999998927116394e-01 -3.9477124810218811e-01</leafValues></_>
        <_>
          <internalNodes>
            0 -1 517 6.8658974487334490e-04</internalNodes>
          <leafValues>
            3.6881726235151291e-02 -4.5755657553672791e-01</leafValues></_>
        <_>
          <internalNodes>
            0 -1 476 6.8633207120001316e-03</internalNodes>
          <leafValues>
            4.9094054847955704e-02 -8.0835306644439697e-01</leafValues></_>
        <_>
          <internalNodes>
            0 -1 500 -2.5330497883260250e-03</internalNodes>
          <leafValues>
            -3.2633203268051147e-01 9.0716198086738586e-02</leafValues></_>
        <_>
          <internalNodes>
            0 -1 163 1.1923409998416901e-02</internalNodes>
          <leafValues>
            4.0699079632759094e-02 -6.5703475475311279e-01</leafValues></_>
        <_>
          <internalNodes>
            0 -1 213 4.3001831509172916e-03</internalNodes>
          <leafValues>
            -7.2111561894416809e-02 3.9139062166213989e-01</leafValues></_>
        <_>
          <internalNodes>
            0 -1 5 7.6080970466136932e-03</internalNodes>
          <leafValues>
            5.7865999639034271e-02 -4.7249028086662292e-01</leafValues></_>
        <_>
          <internalNodes>
            0 -1 43 1.7307901754975319e-02</internalNodes>
          <leafValues>
            -6.7746452987194061e-02 3.8624793291091919e-01</leafValues></_>
        <_>
          <internalNodes>
            0 -1 69 1.8223630031570792e-03</internalNodes>
          <leafValues>
            6.3944689929485321e-02 -4.2873668670654297e-01</leafValues></_>
        <_>
          <internalNodes>
            0 -1 487 -5.5336824152618647e-04</internalNodes>
          <leafValues>
            3.2372009754180908e-01 -9.5060124993324280e-02</leafValues></_>
        <_>
          <internalNodes>
            0 -1 486 -2.8510414995253086e-03</internalNodes>
          <leafValues>
            3.1436914205551147e-01 -9.8405018448829651e-02</leafValues></_>
        <_>
          <internalNodes>
            0 -1 165 1.9527019467204809e-03</internalNodes>
          <leafValues>
            -1.0076328366994858e-01 2.8681859374046326e-01</leafValues></_>
        <_>
          <internalNodes>
            0 -1 58 -4.3565817177295685e-02</internalNodes>
          <leafValues>
            2.5889813899993896e-01 -1.0425938665866852e-01</leafValues></_>
        <_>
          <internalNodes>
            0 -1 445 1.5559711493551731e-02</internalNodes>
          <leafValues>
            -7.0296518504619598e-02 3.8775131106376648e-01</leafValues></_>
        <_>
          <internalNodes>
            0 -1 522 1.0308690834790468e-03</internalNodes>
          <leafValues>
            7.6834559440612793e-02 -3.9350095391273499e-01</leafValues></_>
        <_>
          <internalNodes>
            0 -1 323 -1.5958221629261971e-03</internalNodes>
          <leafValues>
            -5.0176578760147095e-01 4.8589732497930527e-02</leafValues></_>
        <_>
          <internalNodes>
            0 -1 183 3.1103026121854782e-03</internalNodes>
          <leafValues>
            5.1139764487743378e-02 -4.8689708113670349e-01</leafValues></_>
        <_>
          <internalNodes>
            0 -1 251 -2.2940253838896751e-03</internalNodes>
          <leafValues>
            2.5797218084335327e-01 -1.2052730470895767e-01</leafValues></_>
        <_>
          <internalNodes>
            0 -1 521 -1.7603347077965736e-03</internalNodes>
          <leafValues>
            2.7107506990432739e-01 -8.9083299040794373e-02</leafValues></_>
        <_>
          <internalNodes>
            0 -1 76 -3.6509457277134061e-04</internalNodes>
          <leafValues>
            -3.0599239468574524e-01 8.4523998200893402e-02</leafValues></_>
        <_>
          <internalNodes>
            0 -1 450 -1.0590632446110249e-03</internalNodes>
          <leafValues>
            1.9395245611667633e-01 -1.4070169627666473e-01</leafValues></_>
        <_>
          <internalNodes>
            0 -1 319 3.4927553497254848e-03</internalNodes>
          <leafValues>
            -7.0641756057739258e-02 4.0428537130355835e-01</leafValues></_>
        <_>
          <internalNodes>
            0 -1 68 7.4439137242734432e-03</internalNodes>
          <leafValues>
            4.4326558709144592e-02 -6.8479979038238525e-01</leafValues></_>
        <_>
          <internalNodes>
            0 -1 65 2.8446853160858154e-02</internalNodes>
          <leafValues>
            -1.0242159664630890e-01 3.3224633336067200e-01</leafValues></_>
        <_>
          <internalNodes>
            0 -1 231 2.6152934879064560e-03</internalNodes>
          <leafValues>
            -1.4929287135601044e-01 1.8308183550834656e-01</leafValues></_>
        <_>
          <internalNodes>
            0 -1 341 -1.4254947018343955e-05</internalNodes>
          <leafValues>
            1.7238174378871918e-01 -1.5508864820003510e-01</leafValues></_>
        <_>
          <internalNodes>
            0 -1 504 -3.5928912460803986e-02</internalNodes>
          <leafValues>
            5.5099105834960938e-01 -4.8719506710767746e-02</leafValues></_>
        <_>
          <internalNodes>
            0 -1 389 -1.6593341715633869e-03</internalNodes>
          <leafValues>
            2.2554826736450195e-01 -1.2936994433403015e-01</leafValues></_>
        <_>
          <internalNodes>
            0 -1 277 -3.3946670591831207e-02</internalNodes>
          <leafValues>
            4.5483663678169250e-01 -6.0768954455852509e-02</leafValues></_>
        <_>
          <internalNodes>
            0 -1 61 9.3891570577397943e-04</internalNodes>
          <leafValues>
            1.0564176738262177e-01 -2.5193634629249573e-01</leafValues></_>
        <_>
          <internalNodes>
            0 -1 460 9.6722478047013283e-03</internalNodes>
          <leafValues>
            -6.8686358630657196e-02 3.9591038227081299e-01</leafValues></_>
        <_>
          <internalNodes>
            0 -1 201 -1.3744795694947243e-02</internalNodes>
          <leafValues>
            -9.1623210906982422e-01 3.0941095203161240e-02</leafValues></_>
        <_>
          <internalNodes>
            0 -1 0 -4.2140512960031629e-04</internalNodes>
          <leafValues>
            -3.5931268334388733e-01 6.9358050823211670e-02</leafValues></_>
        <_>
          <internalNodes>
            0 -1 425 -1.7493776977062225e-04</internalNodes>
          <leafValues>
            2.1057963371276855e-01 -1.3438850641250610e-01</leafValues></_>
        <_>
          <internalNodes>
            0 -1 133 1.9032130949199200e-03</internalNodes>
          <leafValues>
            -8.0815240740776062e-02 3.6044049263000488e-01</leafValues></_>
        <_>
          <internalNodes>
            0 -1 414 -1.0666987858712673e-02</internalNodes>
          <leafValues>
            -8.3506536483764648e-01 3.2954938709735870e-02</leafValues></_></weakClassifiers></_>
    <!-- stage 13 -->
    <_>
      <maxWeakCount>34</maxWeakCount>
      <stageThreshold>-9.3252551555633545e-01</stageThreshold>
      <weakClassifiers>
        <_>
          <internalNodes>
            0 -1 271 1.9166717305779457e-02</internalNodes>
          <leafValues>
            -3.9192709326744080e-01 5.0000000000000000e-01</leafValues></_>
        <_>
          <internalNodes>
            0 -1 37 5.3887903690338135e-02</internalNodes>
          <leafValues>
            -1.3994248211383820e-01 2.3164604604244232e-01</leafValues></_>
        <_>
          <internalNodes>
            0 -1 6 2.4936823174357414e-03</internalNodes>
          <leafValues>
            7.1382433176040649e-02 -4.3260759115219116e-01</leafValues></_>
        <_>
          <internalNodes>
            0 -1 6 2.3397498298436403e-03</internalNodes>
          <leafValues>
            -8.5469270125031471e-03 8.3826267719268799e-01</leafValues></_>
        <_>
          <internalNodes>
            0 -1 6 2.2382668685168028e-03</internalNodes>
          <leafValues>
            6.4366725273430347e-03 -6.9346714019775391e-01</leafValues></_>
        <_>
          <internalNodes>
            0 -1 138 -4.4529646635055542e-02</internalNodes>
          <leafValues>
            -5.3364509344100952e-01 7.8229315578937531e-02</leafValues></_>
        <_>
          <internalNodes>
            0 -1 416 -3.1737610697746277e-03</internalNodes>
          <leafValues>
            2.0023007690906525e-01 -1.4658047258853912e-01</leafValues></_>
        <_>
          <internalNodes>
            0 -1 27 5.6940007954835892e-02</internalNodes>
          <leafValues>
            6.6095121204853058e-02 -6.8834096193313599e-01</leafValues></_>
        <_>
          <internalNodes>
            0 -1 12 -1.2878553941845894e-02</internalNodes>
          <leafValues>
            2.3194769024848938e-01 -1.3596147298812866e-01</leafValues></_>
        <_>
          <internalNodes>
            0 -1 86 4.7170282341539860e-03</internalNodes>
          <leafValues>
            -8.7566405534744263e-02 3.1913745403289795e-01</leafValues></_>
        <_>
          <internalNodes>
            0 -1 222 1.4113999903202057e-02</internalNodes>
          <leafValues>
            3.0844280496239662e-02 -9.1793048381805420e-01</leafValues></_>
        <_>
          <internalNodes>
            0 -1 161 6.2601203098893166e-03</internalNodes>
          <leafValues>
            -1.0447552055120468e-01 2.7530014514923096e-01</leafValues></_>
        <_>
          <internalNodes>
            0 -1 428 1.1107188183814287e-03</internalNodes>
          <leafValues>
            -9.8862953484058380e-02 2.5848641991615295e-01</leafValues></_>
        <_>
          <internalNodes>
            0 -1 382 1.9198962254449725e-03</internalNodes>
          <leafValues>
            -1.7206256091594696e-01 1.8196646869182587e-01</leafValues></_>
        <_>
          <internalNodes>
            0 -1 104 2.6386240497231483e-03</internalNodes>
          <leafValues>
            -1.1295071989297867e-01 2.4879522621631622e-01</leafValues></_>
        <_>
          <internalNodes>
            0 -1 59 4.1357532143592834e-02</internalNodes>
          <leafValues>
            -6.9146782159805298e-02 3.3996132016181946e-01</leafValues></_>
        <_>
          <internalNodes>
            0 -1 254 1.6837071627378464e-02</internalNodes>
          <leafValues>
            -9.2459209263324738e-02 2.7670967578887939e-01</leafValues></_>
        <_>
          <internalNodes>
            0 -1 249 2.5417753495275974e-03</internalNodes>
          <leafValues>
            3.0974019318819046e-02 -6.8950718641281128e-01</leafValues></_>
        <_>
          <internalNodes>
            0 -1 83 1.1006897687911987e-01</internalNodes>
          <leafValues>
            3.5209629684686661e-02 -7.7785760164260864e-01</leafValues></_>
        <_>
          <internalNodes>
            0 -1 236 -3.6493856459856033e-03</internalNodes>
          <leafValues>
            -7.0001584291458130e-01 2.9529567807912827e-02</leafValues></_>
        <_>
          <internalNodes>
            0 -1 508 -4.4303014874458313e-03</internalNodes>
          <leafValues>
            2.1149675548076630e-01 -1.2538395822048187e-01</leafValues></_>
        <_>
          <internalNodes>
            0 -1 509 9.1116633266210556e-03</internalNodes>
          <leafValues>
            -7.8227438032627106e-02 3.7563142180442810e-01</leafValues></_>
        <_>
          <internalNodes>
            0 -1 406 3.1418600119650364e-03</internalNodes>
          <leafValues>
            4.6312257647514343e-02 -5.6715470552444458e-01</leafValues></_>
        <_>
          <internalNodes>
            0 -1 393 -5.1485285162925720e-02</internalNodes>
          <leafValues>
            6.1627399921417236e-01 -4.3912556022405624e-02</leafValues></_>
        <_>
          <internalNodes>
            0 -1 244 -1.9518055487424135e-03</internalNodes>
          <leafValues>
            3.5943150520324707e-01 -7.1884259581565857e-02</leafValues></_>
        <_>
          <internalNodes>
            0 -1 330 3.1388723291456699e-03</internalNodes>
          <leafValues>
            4.5492533594369888e-02 -5.5875480175018311e-01</leafValues></_>
        <_>
          <internalNodes>
            0 -1 497 -3.4155398607254028e-03</internalNodes>
          <leafValues>
            -8.4239256381988525e-01 2.5256551802158356e-02</leafValues></_>
        <_>
          <internalNodes>
            0 -1 209 -4.5562639832496643e-02</internalNodes>
          <leafValues>
            -5.1173102855682373e-01 3.9252325892448425e-02</leafValues></_>
        <_>
          <internalNodes>
            0 -1 299 -2.8998492285609245e-02</internalNodes>
          <leafValues>
            -7.8890419006347656e-01 2.5275863707065582e-02</leafValues></_>
        <_>
          <internalNodes>
            0 -1 541 1.4997859485447407e-02</internalNodes>
          <leafValues>
            -4.3912805616855621e-02 6.4713925123214722e-01</leafValues></_>
        <_>
          <internalNodes>
            0 -1 491 4.3641971424221992e-03</internalNodes>
          <leafValues>
            4.6413142234086990e-02 -5.9998577833175659e-01</leafValues></_>
        <_>
          <internalNodes>
            0 -1 99 1.3852121308445930e-02</internalNodes>
          <leafValues>
            3.1413648277521133e-02 -6.5594446659088135e-01</leafValues></_>
        <_>
          <internalNodes>
            0 -1 228 -1.8661334179341793e-03</internalNodes>
          <leafValues>
            2.1323272585868835e-01 -1.1256743222475052e-01</leafValues></_>
        <_>
          <internalNodes>
            0 -1 312 -3.6135152913630009e-03</internalNodes>
          <leafValues>
            -8.2182139158248901e-01 2.7457563206553459e-02</leafValues></_></weakClassifiers></_>
    <!-- stage 14 -->
    <_>
      <maxWeakCount>40</maxWeakCount>
      <stageThreshold>-1.0100431442260742e+00</stageThreshold>
      <weakClassifiers>
        <_>
          <internalNodes>
            0 -1 190 -6.7514264956116676e-03</internalNodes>
          <leafValues>
            4.9019608646631241e-02 -4.2877906560897827e-01</leafValues></_>
        <_>
          <internalNodes>
            0 -1 193 1.1207139119505882e-02</internalNodes>
          <leafValues>
            -1.0782990604639053e-01 3.2643130421638489e-01</leafValues></_>
        <_>
          <internalNodes>
            0 -1 494 -6.7825466394424438e-03</internalNodes>
          <leafValues>
            -8.7708312273025513e-01 3.0620155856013298e-02</leafValues></_>
        <_>
          <internalNodes>
            0 -1 259 2.3458832874894142e-02</internalNodes>
          <leafValues>
            3.2001305371522903e-02 -9.1652667522430420e-01</leafValues></_>
        <_>
          <internalNodes>
            0 -1 237 -1.8298411369323730e-01</internalNodes>
          <leafValues>
            3.3297529816627502e-01 -6.5056867897510529e-02</leafValues></_>
        <_>
          <internalNodes>
            0 -1 235 -1.0238174581900239e-04</internalNodes>
          <leafValues>
            1.5728811919689178e-01 -1.4796340465545654e-01</leafValues></_>
        <_>
          <internalNodes>
            0 -1 415 7.4545904062688351e-03</internalNodes>
          <leafValues>
            -7.8428067266941071e-02 2.9753720760345459e-01</leafValues></_>
        <_>
          <internalNodes>
            0 -1 195 1.3206276344135404e-03</internalNodes>
          <leafValues>
            -8.9308731257915497e-02 2.5092375278472900e-01</leafValues></_>
        <_>
          <internalNodes>
            0 -1 527 -6.1826156452298164e-03</internalNodes>
          <leafValues>
            -9.2198407649993896e-01 2.2286606952548027e-02</leafValues></_>
        <_>
          <internalNodes>
            0 -1 187 -5.1408231956884265e-04</internalNodes>
          <leafValues>
            -3.3793193101882935e-01 7.2364345192909241e-02</leafValues></_>
        <_>
          <internalNodes>
            0 -1 162 2.5057485327124596e-03</internalNodes>
          <leafValues>
            -6.3737682998180389e-02 3.0624160170555115e-01</leafValues></_>
        <_>
          <internalNodes>
            0 -1 177 -1.8950324505567551e-02</internalNodes>
          <leafValues>
            -8.0910348892211914e-01 2.3851444944739342e-02</leafValues></_>
        <_>
          <internalNodes>
            0 -1 176 -3.5918545909225941e-03</internalNodes>
          <leafValues>
            3.1304818391799927e-01 -8.6416922509670258e-02</leafValues></_>
        <_>
          <internalNodes>
            0 -1 181 -8.9649613946676254e-03</internalNodes>
          <leafValues>
            1.8933472037315369e-01 -1.3253083825111389e-01</leafValues></_>
        <_>
          <internalNodes>
            0 -1 345 2.7211293578147888e-02</internalNodes>
          <leafValues>
            5.4929099977016449e-02 -4.1775026917457581e-01</leafValues></_>
        <_>
          <internalNodes>
            0 -1 321 -1.0275538079440594e-02</internalNodes>
          <leafValues>
            4.1552856564521790e-01 -6.6313371062278748e-02</leafValues></_>
        <_>
          <internalNodes>
            0 -1 2 3.9023440331220627e-04</internalNodes>
          <leafValues>
            7.5712360441684723e-02 -2.8130650520324707e-01</leafValues></_>
        <_>
          <internalNodes>
            0 -1 484 -1.7552332952618599e-02</internalNodes>
          <leafValues>
            -8.1301224231719971e-01 2.9841508716344833e-02</leafValues></_>
        <_>
          <internalNodes>
            0 -1 468 8.4944367408752441e-03</internalNodes>
          <leafValues>
            -8.4954932332038879e-02 3.1943142414093018e-01</leafValues></_>
        <_>
          <internalNodes>
            0 -1 306 -1.2366484850645065e-01</internalNodes>
          <leafValues>
            -4.4368165731430054e-01 5.4339632391929626e-02</leafValues></_>
        <_>
          <internalNodes>
            0 -1 472 2.2577384952455759e-03</internalNodes>
          <leafValues>
            -1.5195091068744659e-01 1.7149531841278076e-01</leafValues></_>
        <_>
          <internalNodes>
            0 -1 405 -7.5318990275263786e-03</internalNodes>
          <leafValues>
            -9.0672773122787476e-01 2.7669981122016907e-02</leafValues></_>
        <_>
          <internalNodes>
            0 -1 51 -2.3969549685716629e-02</internalNodes>
          <leafValues>
            -6.5586686134338379e-01 2.8522089123725891e-02</leafValues></_>
        <_>
          <internalNodes>
            0 -1 456 -2.3447126150131226e-03</internalNodes>
          <leafValues>
            3.4351387619972229e-01 -7.3929555714130402e-02</leafValues></_>
        <_>
          <internalNodes>
            0 -1 543 1.1983890086412430e-02</internalNodes>
          <leafValues>
            3.5523790866136551e-02 -6.7323577404022217e-01</leafValues></_>
        <_>
          <internalNodes>
            0 -1 265 1.9675954245030880e-03</internalNodes>
          <leafValues>
            -9.0931594371795654e-02 2.6711532473564148e-01</leafValues></_>
        <_>
          <internalNodes>
            0 -1 555 1.7489774618297815e-03</internalNodes>
          <leafValues>
            2.9160691425204277e-02 -7.3462998867034912e-01</leafValues></_>
        <_>
          <internalNodes>
            0 -1 361 6.2848706729710102e-03</internalNodes>
          <leafValues>
            -5.9250038117170334e-02 4.3862047791481018e-01</leafValues></_>
        <_>
          <internalNodes>
            0 -1 117 1.2574661523103714e-02</internalNodes>
          <leafValues>
            3.7356421351432800e-02 -7.2102105617523193e-01</leafValues></_>
        <_>
          <internalNodes>
            0 -1 298 -3.0855946242809296e-03</internalNodes>
          <leafValues>
            2.4079121649265289e-01 -1.0739953815937042e-01</leafValues></_>
        <_>
          <internalNodes>
            0 -1 530 -3.6940247809980065e-05</internalNodes>
          <leafValues>
            1.6199311614036560e-01 -1.5070354938507080e-01</leafValues></_>
        <_>
          <internalNodes>
            0 -1 384 -4.5629311352968216e-03</internalNodes>
          <leafValues>
            -5.0510644912719727e-01 5.1111496984958649e-02</leafValues></_>
        <_>
          <internalNodes>
            0 -1 489 7.8611718490719795e-03</internalNodes>
          <leafValues>
            -7.4054673314094543e-02 3.6366963386535645e-01</leafValues></_>
        <_>
          <internalNodes>
            0 -1 496 -8.1585388397797942e-04</internalNodes>
          <leafValues>
            -4.3631321191787720e-01 6.1709817498922348e-02</leafValues></_>
        <_>
          <internalNodes>
            0 -1 387 3.5631798207759857e-02</internalNodes>
          <leafValues>
            -4.9861472100019455e-02 5.2982026338577271e-01</leafValues></_>
        <_>
          <internalNodes>
            0 -1 417 2.4368804879486561e-03</internalNodes>
          <leafValues>
            3.9927139878273010e-02 -6.8736445903778076e-01</leafValues></_>
        <_>
          <internalNodes>
            0 -1 461 1.0061098728328943e-03</internalNodes>
          <leafValues>
            -6.6974356770515442e-02 4.1164961457252502e-01</leafValues></_>
        <_>
          <internalNodes>
            0 -1 420 -7.8665581531822681e-04</internalNodes>
          <leafValues>
            2.0622706413269043e-01 -1.2966185808181763e-01</leafValues></_>
        <_>
          <internalNodes>
            0 -1 370 4.7920201905071735e-03</internalNodes>
          <leafValues>
            -1.1881178617477417e-01 2.3987409472465515e-01</leafValues></_>
        <_>
          <internalNodes>
            0 -1 550 1.6731712967157364e-03</internalNodes>
          <leafValues>
            7.9001702368259430e-02 -3.2387918233871460e-01</leafValues></_></weakClassifiers></_>
    <!-- stage 15 -->
    <_>
      <maxWeakCount>40</maxWeakCount>
      <stageThreshold>-9.9631750583648682e-01</stageThreshold>
      <weakClassifiers>
        <_>
          <internalNodes>
            0 -1 432 6.4847481553442776e-05</internalNodes>
          <leafValues>
            -4.7390842437744141e-01 -2.1060842275619507e-01</leafValues></_>
        <_>
          <internalNodes>
            0 -1 519 -3.0538087710738182e-02</internalNodes>
          <leafValues>
            -8.7911427021026611e-01 3.7261345423758030e-03</leafValues></_>
        <_>
          <internalNodes>
            0 -1 337 -2.1959513105684891e-05</internalNodes>
          <leafValues>
            1.6474507749080658e-01 -1.3696995377540588e-01</leafValues></_>
        <_>
          <internalNodes>
            0 -1 212 2.9364971851464361e-05</internalNodes>
          <leafValues>
            -1.4025516808032990e-01 1.5424892306327820e-01</leafValues></_>
        <_>
          <internalNodes>
            0 -1 221 -7.7114993473514915e-04</internalNodes>
          <leafValues>
            2.9526722431182861e-01 -7.1998648345470428e-02</leafValues></_>
        <_>
          <internalNodes>
            0 -1 454 5.5294916965067387e-03</internalNodes>
          <leafValues>
            2.4883212521672249e-02 -8.7653696537017822e-01</leafValues></_>
        <_>
          <internalNodes>
            0 -1 386 3.6240957677364349e-02</internalNodes>
          <leafValues>
            2.9546232894062996e-02 -8.0230462551116943e-01</leafValues></_>
        <_>
          <internalNodes>
            0 -1 82 -2.0538304746150970e-01</internalNodes>
          <leafValues>
            -9.2419284582138062e-01 2.7770193293690681e-02</leafValues></_>
        <_>
          <internalNodes>
            0 -1 24 -5.0875291228294373e-02</internalNodes>
          <leafValues>
            3.0247876048088074e-01 -7.5173765420913696e-02</leafValues></_>
        <_>
          <internalNodes>
            0 -1 84 1.5292491763830185e-02</internalNodes>
          <leafValues>
            -9.5437400043010712e-02 2.5654834508895874e-01</leafValues></_>
        <_>
          <internalNodes>
            0 -1 4 2.9772869311273098e-03</internalNodes>
          <leafValues>
            4.8472180962562561e-02 -5.2578395605087280e-01</leafValues></_>
        <_>
          <internalNodes>
            0 -1 313 -2.8280875994823873e-05</internalNodes>
          <leafValues>
            1.6222923994064331e-01 -1.4516162872314453e-01</leafValues></_>
        <_>
          <internalNodes>
            0 -1 355 -7.3726626578718424e-04</internalNodes>
          <leafValues>
            1.9923402369022369e-01 -1.2518943846225739e-01</leafValues></_>
        <_>
          <internalNodes>
            0 -1 378 -4.6123797073960304e-03</internalNodes>
          <leafValues>
            2.2490115463733673e-01 -1.0598235577344894e-01</leafValues></_>
        <_>
          <internalNodes>
            0 -1 413 -2.6829253882169724e-02</internalNodes>
          <leafValues>
            1.6912150382995605e-01 -1.4057733118534088e-01</leafValues></_>
        <_>
          <internalNodes>
            0 -1 353 1.1760380119085312e-02</internalNodes>
          <leafValues>
            -9.4191782176494598e-02 2.7163606882095337e-01</leafValues></_>
        <_>
          <internalNodes>
            0 -1 377 4.7563687985530123e-05</internalNodes>
          <leafValues>
            -1.5206138789653778e-01 1.6305370628833771e-01</leafValues></_>
        <_>
          <internalNodes>
            0 -1 1 -1.3678267132490873e-03</internalNodes>
          <leafValues>
            -5.2974194288253784e-01 4.3435614556074142e-02</leafValues></_>
        <_>
          <internalNodes>
            0 -1 21 2.6267737150192261e-02</internalNodes>
          <leafValues>
            3.2073613256216049e-02 -6.7393654584884644e-01</leafValues></_>
        <_>
          <internalNodes>
            0 -1 119 -1.4019571244716644e-03</internalNodes>
          <leafValues>
            -5.7608944177627563e-01 3.8508627563714981e-02</leafValues></_>
        <_>
          <internalNodes>
            0 -1 229 -1.7548294272273779e-03</internalNodes>
          <leafValues>
            2.2841483354568481e-01 -1.1931791901588440e-01</leafValues></_>
        <_>
          <internalNodes>
            0 -1 171 -1.0460120439529419e-01</internalNodes>
          <leafValues>
            -7.9246068000793457e-01 3.2207619398832321e-02</leafValues></_>
        <_>
          <internalNodes>
            0 -1 225 -2.9599427944049239e-04</internalNodes>
          <leafValues>
            2.2930999100208282e-01 -1.1198452115058899e-01</leafValues></_>
        <_>
          <internalNodes>
            0 -1 396 -1.4164019376039505e-03</internalNodes>
          <leafValues>
            2.1051639318466187e-01 -1.1820989102125168e-01</leafValues></_>
        <_>
          <internalNodes>
            0 -1 303 1.5158842504024506e-01</internalNodes>
          <leafValues>
            -6.7018881440162659e-02 3.9400210976600647e-01</leafValues></_>
        <_>
          <internalNodes>
            0 -1 134 1.2176712043583393e-03</internalNodes>
          <leafValues>
            -9.0927600860595703e-02 2.6448163390159607e-01</leafValues></_>
        <_>
          <internalNodes>
            0 -1 150 2.1769499871879816e-03</internalNodes>
          <leafValues>
            -1.1165639758110046e-01 2.1084490418434143e-01</leafValues></_>
        <_>
          <internalNodes>
            0 -1 344 -2.5577035557944328e-05</internalNodes>
          <leafValues>
            1.6045849025249481e-01 -1.4141282439231873e-01</leafValues></_>
        <_>
          <internalNodes>
            0 -1 76 -4.7754729166626930e-04</internalNodes>
          <leafValues>
            -3.4891945123672485e-01 6.6756524145603180e-02</leafValues></_>
        <_>
          <internalNodes>
            0 -1 475 1.0227070190012455e-02</internalNodes>
          <leafValues>
            -5.9198353439569473e-02 4.0046834945678711e-01</leafValues></_>
        <_>
          <internalNodes>
            0 -1 124 -8.0577358603477478e-03</internalNodes>
          <leafValues>
            3.0907055735588074e-01 -7.6021514832973480e-02</leafValues></_>
        <_>
          <internalNodes>
            0 -1 217 4.8266818339470774e-05</internalNodes>
          <leafValues>
            -1.5176625549793243e-01 1.7064507305622101e-01</leafValues></_>
        <_>
          <internalNodes>
            0 -1 273 4.6526519581675529e-03</internalNodes>
          <leafValues>
            4.9348630011081696e-02 -4.9316546320915222e-01</leafValues></_>
        <_>
          <internalNodes>
            0 -1 434 -1.6465656459331512e-02</internalNodes>
          <leafValues>
            -8.9969074726104736e-01 2.0219881087541580e-02</leafValues></_>
        <_>
          <internalNodes>
            0 -1 537 1.0063644498586655e-02</internalNodes>
          <leafValues>
            -8.6875185370445251e-02 2.9787328839302063e-01</leafValues></_>
        <_>
          <internalNodes>
            0 -1 479 -2.3504902856075205e-05</internalNodes>
          <leafValues>
            1.6265179216861725e-01 -1.4144800603389740e-01</leafValues></_>
        <_>
          <internalNodes>
            0 -1 459 -4.7841396182775497e-02</internalNodes>
          <leafValues>
            -5.2477747201919556e-01 4.4942259788513184e-02</leafValues></_>
        <_>
          <internalNodes>
            0 -1 296 -1.7712186090648174e-03</internalNodes>
          <leafValues>
            -6.5266418457031250e-01 3.3159166574478149e-02</leafValues></_>
        <_>
          <internalNodes>
            0 -1 226 2.9142326675355434e-03</internalNodes>
          <leafValues>
            -9.7295515239238739e-02 2.7081704139709473e-01</leafValues></_>
        <_>
          <internalNodes>
            0 -1 166 2.9964828863739967e-03</internalNodes>
          <leafValues>
            -1.3434539735317230e-01 2.1393534541130066e-01</leafValues></_></weakClassifiers></_>
    <!-- stage 16 -->
    <_>
      <maxWeakCount>41</maxWeakCount>
      <stageThreshold>-9.5986551046371460e-01</stageThreshold>
      <weakClassifiers>
        <_>
          <internalNodes>
            0 -1 204 6.2171906232833862e-02</internalNodes>
          <leafValues>
            -4.1977077722549438e-01 3.2608695328235626e-02</leafValues></_>
        <_>
          <internalNodes>
            0 -1 141 1.4966123853810132e-04</internalNodes>
          <leafValues>
            -1.7167708277702332e-01 1.3469523191452026e-01</leafValues></_>
        <_>
          <internalNodes>
            0 -1 520 -2.1927868947386742e-03</internalNodes>
          <leafValues>
            2.9331800341606140e-01 -8.7913818657398224e-02</leafValues></_>
        <_>
          <internalNodes>
            0 -1 304 1.0377790778875351e-02</internalNodes>
          <leafValues>
            -9.7564198076725006e-02 2.4587988853454590e-01</leafValues></_>
        <_>
          <internalNodes>
            0 -1 441 2.9785670340061188e-02</internalNodes>
          <leafValues>
            -4.0269933640956879e-02 5.2741986513137817e-01</leafValues></_>
        <_>
          <internalNodes>
            0 -1 227 2.4475492537021637e-02</internalNodes>
          <leafValues>
            5.8210417628288269e-02 -3.7567251920700073e-01</leafValues></_>
        <_>
          <internalNodes>
            0 -1 102 -1.3153824955224991e-02</internalNodes>
          <leafValues>
            -3.1723272800445557e-01 9.7657322883605957e-02</leafValues></_>
        <_>
          <internalNodes>
            0 -1 55 -1.1446177214384079e-01</internalNodes>
          <leafValues>
            4.8298043012619019e-01 -4.1452568024396896e-02</leafValues></_>
        <_>
          <internalNodes>
            0 -1 168 4.6559125185012817e-02</internalNodes>
          <leafValues>
            -3.7849474698305130e-02 8.2696270942687988e-01</leafValues></_>
        <_>
          <internalNodes>
            0 -1 184 -7.6350332237780094e-03</internalNodes>
          <leafValues>
            1.7865668237209320e-01 -1.2053439766168594e-01</leafValues></_>
        <_>
          <internalNodes>
            0 -1 210 -1.7349801491945982e-03</internalNodes>
          <leafValues>
            2.4950885772705078e-01 -7.9664401710033417e-02</leafValues></_>
        <_>
          <internalNodes>
            0 -1 208 -1.4571406645700336e-03</internalNodes>
          <leafValues>
            -3.3361083269119263e-01 6.9413498044013977e-02</leafValues></_>
        <_>
          <internalNodes>
            0 -1 41 -2.3825906217098236e-02</internalNodes>
          <leafValues>
            -8.0384421348571777e-01 2.9785431921482086e-02</leafValues></_>
        <_>
          <internalNodes>
            0 -1 359 1.7537549138069153e-03</internalNodes>
          <leafValues>
            -8.2980543375015259e-02 2.9471299052238464e-01</leafValues></_>
        <_>
          <internalNodes>
            0 -1 85 -1.4702561497688293e-01</internalNodes>
          <leafValues>
            3.2757806777954102e-01 -6.4543053507804871e-02</leafValues></_>
        <_>
          <internalNodes>
            0 -1 397 1.1019082739949226e-02</internalNodes>
          <leafValues>
            -9.0828090906143188e-02 2.7750638127326965e-01</leafValues></_>
        <_>
          <internalNodes>
            0 -1 448 -8.9226812124252319e-03</internalNodes>
          <leafValues>
            2.0213076472282410e-01 -1.3528224825859070e-01</leafValues></_>
        <_>
          <internalNodes>
            0 -1 148 -1.7888159491121769e-03</internalNodes>
          <leafValues>
            -3.8177299499511719e-01 6.8917118012905121e-02</leafValues></_>
        <_>
          <internalNodes>
            0 -1 111 -1.7159493872895837e-03</internalNodes>
          <leafValues>
            2.8129330277442932e-01 -9.4000905752182007e-02</leafValues></_>
        <_>
          <internalNodes>
            0 -1 113 -2.8959781047888100e-05</internalNodes>
          <leafValues>
            1.8011446297168732e-01 -1.3299556076526642e-01</leafValues></_>
        <_>
          <internalNodes>
            0 -1 74 -1.0219434043392539e-03</internalNodes>
          <leafValues>
            -4.1241765022277832e-01 5.6466162204742432e-02</leafValues></_>
        <_>
          <internalNodes>
            0 -1 381 -2.4931458756327629e-03</internalNodes>
          <leafValues>
            3.1735202670097351e-01 -8.1424124538898468e-02</leafValues></_>
        <_>
          <internalNodes>
            0 -1 347 1.8876602407544851e-03</internalNodes>
          <leafValues>
            -1.1634395271539688e-01 1.9364719092845917e-01</leafValues></_>
        <_>
          <internalNodes>
            0 -1 198 -2.6285892724990845e-01</internalNodes>
          <leafValues>
            -6.1100256443023682e-01 3.8095571100711823e-02</leafValues></_>
        <_>
          <internalNodes>
            0 -1 13 2.1782916039228439e-02</internalNodes>
          <leafValues>
            4.0429178625345230e-02 -4.6957826614379883e-01</leafValues></_>
        <_>
          <internalNodes>
            0 -1 433 -9.4989663921296597e-04</internalNodes>
          <leafValues>
            2.5002616643905640e-01 -1.0529977828264236e-01</leafValues></_>
        <_>
          <internalNodes>
            0 -1 152 2.5479218456894159e-03</internalNodes>
          <leafValues>
            -1.0987368226051331e-01 2.2861514985561371e-01</leafValues></_>
        <_>
          <internalNodes>
            0 -1 439 -9.0465396642684937e-03</internalNodes>
          <leafValues>
            -2.5879472494125366e-01 9.3731135129928589e-02</leafValues></_>
        <_>
          <internalNodes>
            0 -1 352 1.2162470258772373e-02</internalNodes>
          <leafValues>
            -9.1719813644886017e-02 2.6803404092788696e-01</leafValues></_>
        <_>
          <internalNodes>
            0 -1 107 -1.4106653630733490e-02</internalNodes>
          <leafValues>
            2.0398744940757751e-01 -1.1724572628736496e-01</leafValues></_>
        <_>
          <internalNodes>
            0 -1 437 -5.3216140717267990e-02</internalNodes>
          <leafValues>
            -7.5377571582794189e-01 3.1220607459545135e-02</leafValues></_>
        <_>
          <internalNodes>
            0 -1 511 -5.1631266251206398e-04</internalNodes>
          <leafValues>
            2.0946601033210754e-01 -1.5550528466701508e-01</leafValues></_>
        <_>
          <internalNodes>
            0 -1 211 -3.1933677382767200e-03</internalNodes>
          <leafValues>
            -6.1576932668685913e-01 4.3398734182119370e-02</leafValues></_>
        <_>
          <internalNodes>
            0 -1 71 -3.2860710052773356e-04</internalNodes>
          <leafValues>
            1.3850039243698120e-01 -1.7540496587753296e-01</leafValues></_>
        <_>
          <internalNodes>
            0 -1 534 7.2726060170680285e-04</internalNodes>
          <leafValues>
            7.8818731009960175e-02 -3.1102266907691956e-01</leafValues></_>
        <_>
          <internalNodes>
            0 -1 513 -1.7547030001878738e-02</internalNodes>
          <leafValues>
            -6.6448390483856201e-01 2.8604080900549889e-02</leafValues></_>
        <_>
          <internalNodes>
            0 -1 158 2.5651296600699425e-03</internalNodes>
          <leafValues>
            -1.4369091391563416e-01 1.7371121048927307e-01</leafValues></_>
        <_>
          <internalNodes>
            0 -1 200 5.3847394883632660e-03</internalNodes>
          <leafValues>
            3.6968275904655457e-02 -7.0889991521835327e-01</leafValues></_>
        <_>
          <internalNodes>
            0 -1 492 3.7524623330682516e-03</internalNodes>
          <leafValues>
            4.9355179071426392e-02 -4.3353286385536194e-01</leafValues></_>
        <_>
          <internalNodes>
            0 -1 151 3.7681490648537874e-03</internalNodes>
          <leafValues>
            -5.9027079492807388e-02 4.8761337995529175e-01</leafValues></_>
        <_>
          <internalNodes>
            0 -1 26 -7.7503040432929993e-02</internalNodes>
          <leafValues>
            -2.9699152708053589e-01 8.6736232042312622e-02</leafValues></_></weakClassifiers></_>
    <!-- stage 17 -->
    <_>
      <maxWeakCount>43</maxWeakCount>
      <stageThreshold>-9.5692718029022217e-01</stageThreshold>
      <weakClassifiers>
        <_>
          <internalNodes>
            0 -1 402 1.0262140631675720e-01</internalNodes>
          <leafValues>
            -4.3335565924644470e-01 4.5945945382118225e-01</leafValues></_>
        <_>
          <internalNodes>
            0 -1 218 -1.1242187581956387e-02</internalNodes>
          <leafValues>
            -3.0133804678916931e-01 4.4373869895935059e-02</leafValues></_>
        <_>
          <internalNodes>
            0 -1 44 -2.6419986039400101e-02</internalNodes>
          <leafValues>
            -8.0997264385223389e-01 4.0021773427724838e-02</leafValues></_>
        <_>
          <internalNodes>
            0 -1 232 -2.3549158126115799e-02</internalNodes>
          <leafValues>
            1.6765026748180389e-01 -1.4769576489925385e-01</leafValues></_>
        <_>
          <internalNodes>
            0 -1 550 -9.6503167878836393e-04</internalNodes>
          <leafValues>
            -2.4778278172016144e-01 8.3437755703926086e-02</leafValues></_>
        <_>
          <internalNodes>
            0 -1 230 -3.5602852702140808e-02</internalNodes>
          <leafValues>
            2.5622847676277161e-01 -7.3541745543479919e-02</leafValues></_>
        <_>
          <internalNodes>
            0 -1 90 -1.3570298906415701e-03</internalNodes>
          <leafValues>
            4.0873268246650696e-01 -5.8607853949069977e-02</leafValues></_>
        <_>
          <internalNodes>
            0 -1 159 2.3864312097430229e-03</internalNodes>
          <leafValues>
            -8.4429927170276642e-02 2.6717376708984375e-01</leafValues></_>
        <_>
          <internalNodes>
            0 -1 373 -7.8336738049983978e-02</internalNodes>
          <leafValues>
            -7.6775765419006348e-01 4.5330159366130829e-02</leafValues></_>
        <_>
          <internalNodes>
            0 -1 164 9.9354192614555359e-02</internalNodes>
          <leafValues>
            3.0536703765392303e-02 -4.6284845471382141e-01</leafValues></_>
        <_>
          <internalNodes>
            0 -1 505 3.0598569661378860e-02</internalNodes>
          <leafValues>
            -7.5062014162540436e-02 3.1427028775215149e-01</leafValues></_>
        <_>
          <internalNodes>
            0 -1 481 -2.8312011272646487e-04</internalNodes>
          <leafValues>
            -2.4595566093921661e-01 8.6531199514865875e-02</leafValues></_>
        <_>
          <internalNodes>
            0 -1 465 3.6835991777479649e-03</internalNodes>
          <leafValues>
            -7.8321740031242371e-02 2.9087239503860474e-01</leafValues></_>
        <_>
          <internalNodes>
            0 -1 360 -1.5296149067580700e-03</internalNodes>
          <leafValues>
            5.0625222921371460e-01 -4.5643795281648636e-02</leafValues></_>
        <_>
          <internalNodes>
            0 -1 356 -6.1580762267112732e-03</internalNodes>
          <leafValues>
            5.3766715526580811e-01 -4.2761337012052536e-02</leafValues></_>
        <_>
          <internalNodes>
            0 -1 260 -3.0124298064038157e-04</internalNodes>
          <leafValues>
            1.6329990327358246e-01 -1.4996154606342316e-01</leafValues></_>
        <_>
          <internalNodes>
            0 -1 28 3.1530961394309998e-02</internalNodes>
          <leafValues>
            7.5090147554874420e-02 -3.0257833003997803e-01</leafValues></_>
        <_>
          <internalNodes>
            0 -1 256 -6.7850321531295776e-02</internalNodes>
          <leafValues>
            6.2748104333877563e-01 -4.8012558370828629e-02</leafValues></_>
        <_>
          <internalNodes>
            0 -1 56 -5.5983290076255798e-03</internalNodes>
          <leafValues>
            -3.0196827650070190e-01 8.0318011343479156e-02</leafValues></_>
        <_>
          <internalNodes>
            0 -1 335 1.9980948418378830e-02</internalNodes>
          <leafValues>
            -6.8844929337501526e-02 3.7732923030853271e-01</leafValues></_>
        <_>
          <internalNodes>
            0 -1 169 1.0995657742023468e-01</internalNodes>
          <leafValues>
            -8.0007359385490417e-02 2.7266463637351990e-01</leafValues></_>
        <_>
          <internalNodes>
            0 -1 311 -4.0189161896705627e-02</internalNodes>
          <leafValues>
            6.5763980150222778e-01 -3.3154170960187912e-02</leafValues></_>
        <_>
          <internalNodes>
            0 -1 346 1.6787179047241807e-03</internalNodes>
          <leafValues>
            3.5735081881284714e-02 -7.3820680379867554e-01</leafValues></_>
        <_>
          <internalNodes>
            0 -1 412 4.8169936053454876e-03</internalNodes>
          <leafValues>
            -1.3063001632690430e-01 1.7706140875816345e-01</leafValues></_>
        <_>
          <internalNodes>
            0 -1 363 9.7552957013249397e-03</internalNodes>
          <leafValues>
            4.6307314187288284e-02 -5.3806149959564209e-01</leafValues></_>
        <_>
          <internalNodes>
            0 -1 442 -6.0096234083175659e-03</internalNodes>
          <leafValues>
            4.5221745967864990e-01 -5.3494218736886978e-02</leafValues></_>
        <_>
          <internalNodes>
            0 -1 507 -9.0551510453224182e-02</internalNodes>
          <leafValues>
            5.2341920137405396e-01 -3.8280516862869263e-02</leafValues></_>
        <_>
          <internalNodes>
            0 -1 94 5.0717756152153015e-02</internalNodes>
          <leafValues>
            -5.4051671177148819e-02 3.9175140857696533e-01</leafValues></_>
        <_>
          <internalNodes>
            0 -1 136 -2.0768420770764351e-02</internalNodes>
          <leafValues>
            2.2693412005901337e-01 -1.0185451060533524e-01</leafValues></_>
        <_>
          <internalNodes>
            0 -1 493 -9.1826990246772766e-03</internalNodes>
          <leafValues>
            4.3565571308135986e-01 -5.2628930658102036e-02</leafValues></_>
        <_>
          <internalNodes>
            0 -1 532 7.5927225407212973e-04</internalNodes>
          <leafValues>
