<?xml version="1.0"?>
<opencv_storage>
<stage0>
  <maxWeakCount>17</maxWeakCount>
  <stageThreshold>-3.5854852199554443e-01</stageThreshold>
  <weakClassifiers>
    <_>
      <internalNodes>
        0 -1 50359 -2.6154488325119019e-01</internalNodes>
      <leafValues>
        1.0306406766176224e-01 8.0717372894287109e-01</leafValues></_>
    <_>
      <internalNodes>
        0 -1 85914 -2.3866284638643265e-02</internalNodes>
      <leafValues>
        7.3891460895538330e-01 -5.6636791676282883e-02</leafValues></_>
    <_>
      <internalNodes>
        0 -1 141471 2.7627579867839813e-02</internalNodes>
      <leafValues>
        -1.1270704120397568e-01 7.6009654998779297e-01</leafValues></_>
    <_>
      <internalNodes>
        0 -1 153103 5.4019175469875336e-02</internalNodes>
      <leafValues>
        -1.2514419853687286e-01 8.1978833675384521e-01</leafValues></_>
    <_>
      <internalNodes>
        0 -1 19904 4.9357980489730835e-02</internalNodes>
      <leafValues>
        -8.5190616548061371e-02 7.2480458021163940e-01</leafValues></_>
    <_>
      <internalNodes>
        0 -1 5477 -2.0544224977493286e-01</internalNodes>
      <leafValues>
        5.4788470268249512e-01 -1.7416033148765564e-01</leafValues></_>
    <_>
      <internalNodes>
        0 -1 147041 8.7448477745056152e-02</internalNodes>
      <leafValues>
        -1.6662697494029999e-01 5.5928689241409302e-01</leafValues></_>
    <_>
      <internalNodes>
        0 -1 104153 -4.7462787479162216e-03</internalNodes>
      <leafValues>
        -6.5612918138504028e-01 1.2810507416725159e-01</leafValues></_>
    <_>
      <internalNodes>
        0 -1 163 3.0714997556060553e-03</internalNodes>
      <leafValues>
        8.1922657787799835e-02 -6.4949876070022583e-01</leafValues></_>
    <_>
      <internalNodes>
        0 -1 403 -5.0227707251906395e-03</internalNodes>
      <leafValues>
        -6.9306010007858276e-01 9.0094953775405884e-02</leafValues></_>
    <_>
      <internalNodes>
        0 -1 135898 -8.0581801012158394e-03</internalNodes>
      <leafValues>
        3.3624321222305298e-01 -2.0779392123222351e-01</leafValues></_>
    <_>
      <internalNodes>
        0 -1 26609 9.0453214943408966e-03</internalNodes>
      <leafValues>
        9.2163786292076111e-02 -7.0459085702896118e-01</leafValues></_>
    <_>
      <internalNodes>
        0 -1 110709 -4.6356581151485443e-03</internalNodes>
      <leafValues>
        3.0280956625938416e-01 -2.0419116318225861e-01</leafValues></_>
    <_>
      <internalNodes>
        0 -1 85521 1.0728479921817780e-01</internalNodes>
      <leafValues>
        -6.9788493216037750e-02 8.6401236057281494e-01</leafValues></_>
    <_>
      <internalNodes>
        0 -1 6777 -1.8808631226420403e-02</internalNodes>
      <leafValues>
        6.1214113235473633e-01 -8.8717885315418243e-02</leafValues></_>
    <_>
      <internalNodes>
        0 -1 109432 -4.3894969858229160e-03</internalNodes>
      <leafValues>
        -5.8167105913162231e-01 1.0506588965654373e-01</leafValues></_>
    <_>
      <internalNodes>
        0 -1 123519 2.7786563150584698e-03</internalNodes>
      <leafValues>
        1.0502093285322189e-01 -5.5455052852630615e-01</leafValues></_></weakClassifiers></stage0>
</opencv_storage>
