<?xml version="1.0"?>
<opencv_storage>
<cascade>
  <stageType>BOOST</stageType>
  <featureType>HAAR</featureType>
  <height>24</height>
  <width>24</width>
  <stageParams>
    <boostType>GAB</boostType>
    <minHitRate>9.9500000476837158e-01</minHitRate>
    <maxFalseAlarm>5.0000000000000000e-01</maxFalseAlarm>
    <weightTrimRate>9.4999999999999996e-01</weightTrimRate>
    <maxDepth>1</maxDepth>
    <maxWeakCount>100</maxWeakCount></stageParams>
  <featureParams>
    <maxCatCount>0</maxCatCount>
    <featSize>1</featSize>
    <mode>BASIC</mode></featureParams>
  <stageNum>12</stageNum>
  <stages>
    <!-- stage 0 -->
    <_>
      <maxWeakCount>8</maxWeakCount>
      <stageThreshold>-5.7767421007156372e-01</stageThreshold>
      <weakClassifiers>
        <_>
          <internalNodes>
            0 -1 108 -7.0296518970280886e-05</internalNodes>
          <leafValues>
            5.1681959629058838e-01 -3.0103805661201477e-01</leafValues></_>
        <_>
          <internalNodes>
            0 -1 149 -1.2818415416404605e-04</internalNodes>
          <leafValues>
            5.5971938371658325e-01 -2.2903192043304443e-01</leafValues></_>
        <_>
          <internalNodes>
            0 -1 149 4.9333779315929860e-05</internalNodes>
          <leafValues>
            -4.1121006011962891e-01 4.9250015616416931e-01</leafValues></_>
        <_>
          <internalNodes>
            0 -1 104 2.5596207706257701e-04</internalNodes>
          <leafValues>
            -2.0159530639648438e-01 5.4150515794754028e-01</leafValues></_>
        <_>
          <internalNodes>
            0 -1 65 3.9411079342244193e-05</internalNodes>
          <leafValues>
            -3.4384754300117493e-01 4.6455290913581848e-01</leafValues></_>
        <_>
          <internalNodes>
            0 -1 100 2.7440628036856651e-04</internalNodes>
          <leafValues>
            -1.9336855411529541e-01 5.9823220968246460e-01</leafValues></_>
        <_>
          <internalNodes>
            0 -1 126 -1.9123959646094590e-04</internalNodes>
          <leafValues>
            5.7788288593292236e-01 -1.6474092006683350e-01</leafValues></_>
        <_>
          <internalNodes>
            0 -1 148 2.4432962527498603e-04</internalNodes>
          <leafValues>
            -2.6269796490669250e-01 4.7840684652328491e-01</leafValues></_></weakClassifiers></_>
    <!-- stage 1 -->
    <_>
      <maxWeakCount>9</maxWeakCount>
      <stageThreshold>-7.8718376159667969e-01</stageThreshold>
      <weakClassifiers>
        <_>
          <internalNodes>
            0 -1 77 -2.3028193390928209e-04</internalNodes>
          <leafValues>
            5.2866244316101074e-01 -2.8934010863304138e-01</leafValues></_>
        <_>
          <internalNodes>
            0 -1 118 -2.7343136025592685e-04</internalNodes>
          <leafValues>
            5.4662179946899414e-01 -2.6831090450286865e-01</leafValues></_>
        <_>
          <internalNodes>
            0 -1 111 -1.1870209709741175e-04</internalNodes>
          <leafValues>
            5.8572328090667725e-01 -2.7007395029067993e-01</leafValues></_>
        <_>
          <internalNodes>
            0 -1 110 1.5150284161791205e-04</internalNodes>
          <leafValues>
            -3.2800915837287903e-01 5.4569661617279053e-01</leafValues></_>
        <_>
          <internalNodes>
            0 -1 122 2.5901274057105184e-04</internalNodes>
          <leafValues>
            -2.2202211618423462e-01 6.2674432992935181e-01</leafValues></_>
        <_>
          <internalNodes>
            0 -1 121 3.8168486207723618e-04</internalNodes>
          <leafValues>
            -2.0086011290550232e-01 6.0082298517227173e-01</leafValues></_>
        <_>
          <internalNodes>
            0 -1 40 -3.0804969719611108e-04</internalNodes>
          <leafValues>
            5.0661438703536987e-01 -3.0488035082817078e-01</leafValues></_>
        <_>
          <internalNodes>
            0 -1 42 -8.9825138275045902e-05</internalNodes>
          <leafValues>
            5.6186187267303467e-01 -2.3206944763660431e-01</leafValues></_>
        <_>
          <internalNodes>
            0 -1 42 1.3868903624825180e-04</internalNodes>
          <leafValues>
            -2.7704370021820068e-01 6.2625414133071899e-01</leafValues></_></weakClassifiers></_>
    <!-- stage 2 -->
    <_>
      <maxWeakCount>10</maxWeakCount>
      <stageThreshold>-7.9031723737716675e-01</stageThreshold>
      <weakClassifiers>
        <_>
          <internalNodes>
            0 -1 93 -3.9828056469559669e-04</internalNodes>
          <leafValues>
            3.9548021554946899e-01 -2.6315790414810181e-01</leafValues></_>
        <_>
          <internalNodes>
            0 -1 90 1.6666384181007743e-04</internalNodes>
          <leafValues>
            -2.3025164008140564e-01 4.0092733502388000e-01</leafValues></_>
        <_>
          <internalNodes>
            0 -1 90 -2.0667188800871372e-04</internalNodes>
          <leafValues>
            4.6851667761802673e-01 -2.2325077652931213e-01</leafValues></_>
        <_>
          <internalNodes>
            0 -1 4 4.6532314270734787e-02</internalNodes>
          <leafValues>
            -1.8636880815029144e-01 4.6909618377685547e-01</leafValues></_>
        <_>
          <internalNodes>
            0 -1 64 -5.3009882569313049e-02</internalNodes>
          <leafValues>
            5.5402523279190063e-01 -1.9156394898891449e-01</leafValues></_>
        <_>
          <internalNodes>
            0 -1 141 1.9707114552147686e-04</internalNodes>
          <leafValues>
            -1.8692563474178314e-01 4.2582717537879944e-01</leafValues></_>
        <_>
          <internalNodes>
            0 -1 127 -3.9261498022824526e-04</internalNodes>
          <leafValues>
            3.9498052000999451e-01 -2.2355683147907257e-01</leafValues></_>
        <_>
          <internalNodes>
            0 -1 135 2.0339948241598904e-04</internalNodes>
          <leafValues>
            -2.0903614163398743e-01 3.9437475800514221e-01</leafValues></_>
        <_>
          <internalNodes>
            0 -1 26 1.9078218610957265e-04</internalNodes>
          <leafValues>
            -2.1958588063716888e-01 4.0015512704849243e-01</leafValues></_>
        <_>
          <internalNodes>
            0 -1 161 1.0715462267398834e-02</internalNodes>
          <leafValues>
            -1.2801058590412140e-01 6.2463462352752686e-01</leafValues></_></weakClassifiers></_>
    <!-- stage 3 -->
    <_>
      <maxWeakCount>7</maxWeakCount>
      <stageThreshold>-8.1068563461303711e-01</stageThreshold>
      <weakClassifiers>
        <_>
          <internalNodes>
            0 -1 22 2.3053852841258049e-02</internalNodes>
          <leafValues>
            1.3527180254459381e-01 -9.8245614767074585e-01</leafValues></_>
        <_>
          <internalNodes>
            0 -1 35 -1.2262522242963314e-02</internalNodes>
          <leafValues>
            -9.0765357017517090e-01 1.1663622409105301e-01</leafValues></_>
        <_>
          <internalNodes>
            0 -1 27 -9.5369681715965271e-02</internalNodes>
          <leafValues>
            5.6723994016647339e-01 -2.4272824823856354e-01</leafValues></_>
        <_>
          <internalNodes>
            0 -1 153 4.5528258197009563e-03</internalNodes>
          <leafValues>
            1.3325464725494385e-01 -7.9867142438888550e-01</leafValues></_>
        <_>
          <internalNodes>
            0 -1 119 -8.9910514652729034e-03</internalNodes>
          <leafValues>
            -8.2492440938949585e-01 1.0664127767086029e-01</leafValues></_>
        <_>
          <internalNodes>
            0 -1 46 -2.2640682756900787e-02</internalNodes>
          <leafValues>
            -8.8465577363967896e-01 9.1928891837596893e-02</leafValues></_>
        <_>
          <internalNodes>
            0 -1 24 4.9208058044314384e-03</internalNodes>
          <leafValues>
            -1.7510558664798737e-01 5.3679895401000977e-01</leafValues></_></weakClassifiers></_>
    <!-- stage 4 -->
    <_>
      <maxWeakCount>6</maxWeakCount>
      <stageThreshold>-5.2088671922683716e-01</stageThreshold>
      <weakClassifiers>
        <_>
          <internalNodes>
            0 -1 76 -3.8913816213607788e-02</internalNodes>
          <leafValues>
            8.1730771064758301e-01 -2.5107604265213013e-01</leafValues></_>
        <_>
          <internalNodes>
            0 -1 32 6.1790939420461655e-02</internalNodes>
          <leafValues>
            2.5574100017547607e-01 -8.8255488872528076e-01</leafValues></_>
        <_>
          <internalNodes>
            0 -1 96 -5.3129553794860840e-02</internalNodes>
          <leafValues>
            8.0207508802413940e-01 -2.6392909884452820e-01</leafValues></_>
        <_>
          <internalNodes>
            0 -1 8 -2.0011791586875916e-01</internalNodes>
          <leafValues>
            8.5878396034240723e-01 -2.2838772833347321e-01</leafValues></_>
        <_>
          <internalNodes>
            0 -1 30 8.2212284207344055e-02</internalNodes>
          <leafValues>
            -2.0881244540214539e-01 8.1449079513549805e-01</leafValues></_>
        <_>
          <internalNodes>
            0 -1 107 1.6759186983108521e-02</internalNodes>
          <leafValues>
            3.0458158254623413e-01 -7.7781349420547485e-01</leafValues></_></weakClassifiers></_>
    <!-- stage 5 -->
    <_>
      <maxWeakCount>15</maxWeakCount>
      <stageThreshold>-9.1166359186172485e-01</stageThreshold>
      <weakClassifiers>
        <_>
          <internalNodes>
            0 -1 83 -2.8458254411816597e-02</internalNodes>
          <leafValues>
            5.0607287883758545e-01 -1.9756838679313660e-01</leafValues></_>
        <_>
          <internalNodes>
            0 -1 33 -1.3459593057632446e-01</internalNodes>
          <leafValues>
            -8.5690814256668091e-01 1.0611002892255783e-01</leafValues></_>
        <_>
          <internalNodes>
            0 -1 82 9.8427291959524155e-04</internalNodes>
          <leafValues>
            -1.9950518012046814e-01 4.1499137878417969e-01</leafValues></_>
        <_>
          <internalNodes>
            0 -1 151 -6.8512018769979477e-03</internalNodes>
          <leafValues>
            -9.6628129482269287e-01 4.8080526292324066e-02</leafValues></_>
        <_>
          <internalNodes>
            0 -1 133 -5.7389889843761921e-04</internalNodes>
          <leafValues>
            3.2934099435806274e-01 -2.4471160769462585e-01</leafValues></_>
        <_>
          <internalNodes>
            0 -1 0 -1.5121946111321449e-02</internalNodes>
          <leafValues>
            -9.6476751565933228e-01 6.7427121102809906e-02</leafValues></_>
        <_>
          <internalNodes>
            0 -1 69 6.5129040740430355e-04</internalNodes>
          <leafValues>
            -2.0205298066139221e-01 4.6699559688568115e-01</leafValues></_>
        <_>
          <internalNodes>
            0 -1 59 2.8684369754046202e-03</internalNodes>
          <leafValues>
            -2.6753368973731995e-01 3.5402324795722961e-01</leafValues></_>
        <_>
          <internalNodes>
            0 -1 94 1.5228394418954849e-02</internalNodes>
          <leafValues>
            1.3098017871379852e-01 -8.5987269878387451e-01</leafValues></_>
        <_>
          <internalNodes>
            0 -1 97 8.4691662341356277e-03</internalNodes>
          <leafValues>
            -1.7898374795913696e-01 5.3280627727508545e-01</leafValues></_>
        <_>
          <internalNodes>
            0 -1 9 -6.5786885097622871e-03</internalNodes>
          <leafValues>
            4.8645865917205811e-01 -1.6604508459568024e-01</leafValues></_>
        <_>
          <internalNodes>
            0 -1 84 -1.1311051435768604e-02</internalNodes>
          <leafValues>
            -8.2166492938995361e-01 1.1087580770254135e-01</leafValues></_>
        <_>
          <internalNodes>
            0 -1 124 -3.5058083012700081e-03</internalNodes>
          <leafValues>
            4.1519811749458313e-01 -2.2434754669666290e-01</leafValues></_>
        <_>
          <internalNodes>
            0 -1 7 -1.1140223592519760e-02</internalNodes>
          <leafValues>
            5.6434983015060425e-01 -1.3214436173439026e-01</leafValues></_>
        <_>
          <internalNodes>
            0 -1 75 -1.5971292741596699e-03</internalNodes>
          <leafValues>
            3.9954304695129395e-01 -2.0179034769535065e-01</leafValues></_></weakClassifiers></_>
    <!-- stage 6 -->
    <_>
      <maxWeakCount>15</maxWeakCount>
      <stageThreshold>-7.1609294414520264e-01</stageThreshold>
      <weakClassifiers>
        <_>
          <internalNodes>
            0 -1 51 -2.1016489714384079e-02</internalNodes>
          <leafValues>
            5.9090906381607056e-01 -1.4951989054679871e-01</leafValues></_>
        <_>
          <internalNodes>
            0 -1 63 1.3971460983157158e-02</internalNodes>
          <leafValues>
            -1.6944277286529541e-01 5.2840220928192139e-01</leafValues></_>
        <_>
          <internalNodes>
            0 -1 71 -3.0686624348163605e-02</internalNodes>
          <leafValues>
            3.9522573351860046e-01 -2.2186149656772614e-01</leafValues></_>
        <_>
          <internalNodes>
            0 -1 130 3.0851168558001518e-03</internalNodes>
          <leafValues>
            -2.1946640312671661e-01 4.0430918335914612e-01</leafValues></_>
        <_>
          <internalNodes>
            0 -1 95 -2.5177676230669022e-02</internalNodes>
          <leafValues>
            4.2918246984481812e-01 -1.3169549405574799e-01</leafValues></_>
        <_>
          <internalNodes>
            0 -1 139 9.7341276705265045e-03</internalNodes>
          <leafValues>
            -1.9057446718215942e-01 4.2846781015396118e-01</leafValues></_>
        <_>
          <internalNodes>
            0 -1 41 -1.8176332116127014e-02</internalNodes>
          <leafValues>
            4.6394759416580200e-01 -9.4746515154838562e-02</leafValues></_>
        <_>
          <internalNodes>
            0 -1 67 -4.0775015950202942e-03</internalNodes>
          <leafValues>
            4.7926515340805054e-01 -1.5483510494232178e-01</leafValues></_>
        <_>
          <internalNodes>
            0 -1 105 6.9961156696081161e-03</internalNodes>
          <leafValues>
            -7.9313859343528748e-02 5.2549946308135986e-01</leafValues></_>
        <_>
          <internalNodes>
            0 -1 114 3.9543490856885910e-03</internalNodes>
          <leafValues>
            -1.8409320712089539e-01 4.0717440843582153e-01</leafValues></_>
        <_>
          <internalNodes>
            0 -1 116 -3.7289818283170462e-04</internalNodes>
          <leafValues>
            2.8842759132385254e-01 -2.3970128595829010e-01</leafValues></_>
        <_>
          <internalNodes>
            0 -1 128 -9.0774353593587875e-03</internalNodes>
          <leafValues>
            4.4927063584327698e-01 -1.2492896616458893e-01</leafValues></_>
        <_>
          <internalNodes>
            0 -1 11 -1.8198525905609131e-01</internalNodes>
          <leafValues>
            6.4264315366744995e-01 -8.6686134338378906e-02</leafValues></_>
        <_>
          <internalNodes>
            0 -1 68 1.7043348401784897e-02</internalNodes>
          <leafValues>
            -1.6285924613475800e-01 5.0145816802978516e-01</leafValues></_>
        <_>
          <internalNodes>
            0 -1 37 8.2163400948047638e-03</internalNodes>
          <leafValues>
            -1.6739067435264587e-01 4.2195317149162292e-01</leafValues></_></weakClassifiers></_>
    <!-- stage 7 -->
    <_>
      <maxWeakCount>17</maxWeakCount>
      <stageThreshold>-7.1413940191268921e-01</stageThreshold>
      <weakClassifiers>
        <_>
          <internalNodes>
            0 -1 103 1.0207319865003228e-03</internalNodes>
          <leafValues>
            -1.8018017709255219e-01 4.8117154836654663e-01</leafValues></_>
        <_>
          <internalNodes>
            0 -1 18 -1.4236753806471825e-02</internalNodes>
          <leafValues>
            6.9939166307449341e-01 -9.8309151828289032e-02</leafValues></_>
        <_>
          <internalNodes>
            0 -1 102 -2.8116302564740181e-04</internalNodes>
          <leafValues>
            3.4862631559371948e-01 -2.0056049525737762e-01</leafValues></_>
        <_>
          <internalNodes>
            0 -1 79 -8.4147229790687561e-04</internalNodes>
          <leafValues>
            3.3678621053695679e-01 -2.3066905140876770e-01</leafValues></_>
        <_>
          <internalNodes>
            0 -1 142 3.2286960631608963e-03</internalNodes>
          <leafValues>
            -1.5233498811721802e-01 4.0547209978103638e-01</leafValues></_>
        <_>
          <internalNodes>
            0 -1 57 1.2585965450853109e-03</internalNodes>
          <leafValues>
            -1.7861773073673248e-01 3.9628472924232483e-01</leafValues></_>
        <_>
          <internalNodes>
            0 -1 55 7.1528553962707520e-04</internalNodes>
          <leafValues>
            -1.2844018638134003e-01 4.2420756816864014e-01</leafValues></_>
        <_>
          <internalNodes>
            0 -1 101 -1.2791242916136980e-03</internalNodes>
          <leafValues>
            3.4157055616378784e-01 -1.7616535723209381e-01</leafValues></_>
        <_>
          <internalNodes>
            0 -1 3 -1.2115800380706787e-01</internalNodes>
          <leafValues>
            8.9821869134902954e-01 -5.2707299590110779e-02</leafValues></_>
        <_>
          <internalNodes>
            0 -1 38 2.8736205771565437e-02</internalNodes>
          <leafValues>
            -1.1851086467504501e-01 4.6848914027214050e-01</leafValues></_>
        <_>
          <internalNodes>
            0 -1 109 1.2564132921397686e-03</internalNodes>
          <leafValues>
            -1.3118910789489746e-01 4.2086690664291382e-01</leafValues></_>
        <_>
          <internalNodes>
            0 -1 16 7.3256692849099636e-04</internalNodes>
          <leafValues>
            -2.1104538440704346e-01 2.9032242298126221e-01</leafValues></_>
        <_>
          <internalNodes>
            0 -1 140 8.4056109189987183e-03</internalNodes>
          <leafValues>
            -8.6017228662967682e-02 6.9664168357849121e-01</leafValues></_>
        <_>
          <internalNodes>
            0 -1 147 6.5972246229648590e-03</internalNodes>
          <leafValues>
            8.7802208960056305e-02 -8.3826971054077148e-01</leafValues></_>
        <_>
          <internalNodes>
            0 -1 137 -2.3811962455511093e-02</internalNodes>
          <leafValues>
            3.9676594734191895e-01 -1.8552698194980621e-01</leafValues></_>
        <_>
          <internalNodes>
            0 -1 144 1.2732339091598988e-03</internalNodes>
          <leafValues>
            -1.5721784532070160e-01 4.1071197390556335e-01</leafValues></_>
        <_>
          <internalNodes>
            0 -1 58 5.2607683464884758e-03</internalNodes>
          <leafValues>
            -1.4930228888988495e-01 4.0999218821525574e-01</leafValues></_></weakClassifiers></_>
    <!-- stage 8 -->
    <_>
      <maxWeakCount>18</maxWeakCount>
      <stageThreshold>-7.5876909494400024e-01</stageThreshold>
      <weakClassifiers>
        <_>
          <internalNodes>
            0 -1 19 -1.9314071536064148e-01</internalNodes>
          <leafValues>
            7.5409835577011108e-01 -1.2388250231742859e-01</leafValues></_>
        <_>
          <internalNodes>
            0 -1 154 3.7771507631987333e-03</internalNodes>
          <leafValues>
            1.3550800085067749e-01 -7.0529437065124512e-01</leafValues></_>
        <_>
          <internalNodes>
            0 -1 50 9.9012881517410278e-02</internalNodes>
          <leafValues>
            -1.8156503140926361e-01 4.6876606345176697e-01</leafValues></_>
        <_>
          <internalNodes>
            0 -1 113 5.7023957371711731e-02</internalNodes>
          <leafValues>
            -1.4383026957511902e-01 5.7741814851760864e-01</leafValues></_>
        <_>
          <internalNodes>
            0 -1 17 5.6355092674493790e-03</internalNodes>
          <leafValues>
            1.0273916274309158e-01 -8.1503140926361084e-01</leafValues></_>
        <_>
          <internalNodes>
            0 -1 159 1.1718441965058446e-03</internalNodes>
          <leafValues>
            1.5900397300720215e-01 -5.0235873460769653e-01</leafValues></_>
        <_>
          <internalNodes>
            0 -1 1 -1.6081850975751877e-02</internalNodes>
          <leafValues>
            2.8548273444175720e-01 -2.5162273645401001e-01</leafValues></_>
        <_>
          <internalNodes>
            0 -1 56 -5.0453487783670425e-02</internalNodes>
          <leafValues>
            6.4733177423477173e-01 -1.0428336262702942e-01</leafValues></_>
        <_>
          <internalNodes>
            0 -1 78 8.7290950119495392e-02</internalNodes>
          <leafValues>
            -1.4541646838188171e-01 5.3465735912322998e-01</leafValues></_>
        <_>
          <internalNodes>
            0 -1 98 -3.3569332212209702e-02</internalNodes>
          <leafValues>
            4.4651845097541809e-01 -1.5453046560287476e-01</leafValues></_>
        <_>
          <internalNodes>
            0 -1 53 4.3363165110349655e-02</internalNodes>
          <leafValues>
            -1.4873892068862915e-01 4.8621907830238342e-01</leafValues></_>
        <_>
          <internalNodes>
            0 -1 13 -6.2939018011093140e-02</internalNodes>
          <leafValues>
            6.5941095352172852e-01 -1.0072602331638336e-01</leafValues></_>
        <_>
          <internalNodes>
            0 -1 43 1.1596230790019035e-02</internalNodes>
          <leafValues>
            -2.1198673546314240e-01 3.4668451547622681e-01</leafValues></_>
        <_>
          <internalNodes>
            0 -1 29 4.9954861402511597e-02</internalNodes>
          <leafValues>
            -1.4905861020088196e-01 6.1598575115203857e-01</leafValues></_>
        <_>
          <internalNodes>
            0 -1 25 -1.6426489455625415e-03</internalNodes>
          <leafValues>
            -5.5083197355270386e-01 1.5211260318756104e-01</leafValues></_>
        <_>
          <internalNodes>
            0 -1 47 -5.6209526956081390e-03</internalNodes>
          <leafValues>
            -4.7066739201545715e-01 1.3967995345592499e-01</leafValues></_>
        <_>
          <internalNodes>
            0 -1 70 -4.6452179551124573e-02</internalNodes>
          <leafValues>
            5.8932453393936157e-01 -1.1722739040851593e-01</leafValues></_>
        <_>
          <internalNodes>
            0 -1 117 -1.0581717826426029e-02</internalNodes>
          <leafValues>
            4.7880944609642029e-01 -1.5204976499080658e-01</leafValues></_></weakClassifiers></_>
    <!-- stage 9 -->
    <_>
      <maxWeakCount>19</maxWeakCount>
      <stageThreshold>-7.5928241014480591e-01</stageThreshold>
      <weakClassifiers>
        <_>
          <internalNodes>
            0 -1 145 4.0272525511682034e-03</internalNodes>
          <leafValues>
            8.7674714624881744e-02 -6.2711864709854126e-01</leafValues></_>
        <_>
          <internalNodes>
            0 -1 5 1.2494883686304092e-01</internalNodes>
          <leafValues>
            -1.0407922416925430e-01 6.2152534723281860e-01</leafValues></_>
        <_>
          <internalNodes>
            0 -1 52 -5.6483283638954163e-02</internalNodes>
          <leafValues>
            5.6049990653991699e-01 -6.0002095997333527e-02</leafValues></_>
        <_>
          <internalNodes>
            0 -1 2 2.4314235895872116e-02</internalNodes>
          <leafValues>
            -1.1237467825412750e-01 6.0682630538940430e-01</leafValues></_>
        <_>
          <internalNodes>
            0 -1 60 -1.3939264230430126e-02</internalNodes>
          <leafValues>
            2.4337640404701233e-01 -2.1941174566745758e-01</leafValues></_>
        <_>
          <internalNodes>
            0 -1 125 -1.7965652514249086e-03</internalNodes>
          <leafValues>
            2.5562912225723267e-01 -2.3462200164794922e-01</leafValues></_>
        <_>
          <internalNodes>
            0 -1 61 6.0975521802902222e-02</internalNodes>
          <leafValues>
            -1.1616605520248413e-01 5.6324034929275513e-01</leafValues></_>
        <_>
          <internalNodes>
            0 -1 160 1.7320342594757676e-03</internalNodes>
          <leafValues>
            1.4300903677940369e-01 -4.6860268712043762e-01</leafValues></_>
        <_>
          <internalNodes>
            0 -1 162 1.7971056513488293e-03</internalNodes>
          <leafValues>
            6.7537702620029449e-02 -6.4129108190536499e-01</leafValues></_>
        <_>
          <internalNodes>
            0 -1 73 -7.5024208053946495e-03</internalNodes>
          <leafValues>
            2.8850632905960083e-01 -1.6832034289836884e-01</leafValues></_>
        <_>
          <internalNodes>
            0 -1 134 7.3769805021584034e-04</internalNodes>
          <leafValues>
            -1.4782226085662842e-01 3.6602908372879028e-01</leafValues></_>
        <_>
          <internalNodes>
            0 -1 163 -2.0089985337108374e-03</internalNodes>
          <leafValues>
            -7.8423994779586792e-01 7.0856742560863495e-02</leafValues></_>
        <_>
          <internalNodes>
            0 -1 143 -1.2863181531429291e-02</internalNodes>
          <leafValues>
            5.0093615055084229e-01 -1.1797053366899490e-01</leafValues></_>
        <_>
          <internalNodes>
            0 -1 120 -1.6306899487972260e-02</internalNodes>
          <leafValues>
            3.9280128479003906e-01 -1.5508486330509186e-01</leafValues></_>
        <_>
          <internalNodes>
            0 -1 157 -3.2441783696413040e-03</internalNodes>
          <leafValues>
            -7.1213746070861816e-01 8.6102724075317383e-02</leafValues></_>
        <_>
          <internalNodes>
            0 -1 88 -9.0246144682168961e-03</internalNodes>
          <leafValues>
            6.5383994579315186e-01 -9.5221489667892456e-02</leafValues></_>
        <_>
          <internalNodes>
            0 -1 81 1.5754406922496855e-04</internalNodes>
          <leafValues>
            -1.8967756628990173e-01 2.8952413797378540e-01</leafValues></_>
        <_>
          <internalNodes>
            0 -1 160 -2.2849407978355885e-03</internalNodes>
          <leafValues>
            -5.8023595809936523e-01 9.5494672656059265e-02</leafValues></_>
        <_>
          <internalNodes>
            0 -1 39 -1.1171028949320316e-02</internalNodes>
          <leafValues>
            3.2733401656150818e-01 -1.8827070295810699e-01</leafValues></_></weakClassifiers></_>
    <!-- stage 10 -->
    <_>
      <maxWeakCount>21</maxWeakCount>
      <stageThreshold>-6.2126255035400391e-01</stageThreshold>
      <weakClassifiers>
        <_>
          <internalNodes>
            0 -1 45 -1.2566572427749634e-01</internalNodes>
          <leafValues>
            5.9677422046661377e-01 -1.0115236788988113e-01</leafValues></_>
        <_>
          <internalNodes>
            0 -1 34 -9.5056872814893723e-03</internalNodes>
          <leafValues>
            3.4767183661460876e-01 -1.4145906269550323e-01</leafValues></_>
        <_>
          <internalNodes>
            0 -1 86 -2.0705848932266235e-02</internalNodes>
          <leafValues>
            4.1782864928245544e-01 -1.6641798615455627e-01</leafValues></_>
        <_>
          <internalNodes>
            0 -1 89 1.2905541807413101e-03</internalNodes>
          <leafValues>
            -1.7929962277412415e-01 3.4762996435165405e-01</leafValues></_>
        <_>
          <internalNodes>
            0 -1 92 2.6454017497599125e-03</internalNodes>
          <leafValues>
            8.0246098339557648e-02 -6.3463449478149414e-01</leafValues></_>
        <_>
          <internalNodes>
            0 -1 91 -1.2724339030683041e-03</internalNodes>
          <leafValues>
            -6.6223496198654175e-01 1.1613565683364868e-01</leafValues></_>
        <_>
          <internalNodes>
            0 -1 87 -5.6118494831025600e-04</internalNodes>
          <leafValues>
            3.2358673214912415e-01 -1.7294198274612427e-01</leafValues></_>
        <_>
          <internalNodes>
            0 -1 123 -6.9508152082562447e-03</internalNodes>
          <leafValues>
            5.2198171615600586e-01 -1.4251250028610229e-01</leafValues></_>
        <_>
          <internalNodes>
            0 -1 85 -1.5022410079836845e-02</internalNodes>
          <leafValues>
            -8.8508892059326172e-01 6.7038349807262421e-02</leafValues></_>
        <_>
          <internalNodes>
            0 -1 129 9.5097441226243973e-04</internalNodes>
          <leafValues>
            -2.1913188695907593e-01 2.7432405948638916e-01</leafValues></_>
        <_>
          <internalNodes>
            0 -1 136 3.5967656003776938e-05</internalNodes>
          <leafValues>
            -1.9242677092552185e-01 3.0035954713821411e-01</leafValues></_>
        <_>
          <internalNodes>
            0 -1 150 -2.5413408875465393e-03</internalNodes>
          <leafValues>
            3.7075403332710266e-01 -1.6014932096004486e-01</leafValues></_>
        <_>
          <internalNodes>
            0 -1 44 3.5068625584244728e-03</internalNodes>
          <leafValues>
            -1.7150937020778656e-01 3.3275917172431946e-01</leafValues></_>
        <_>
          <internalNodes>
            0 -1 54 -2.1371976472437382e-03</internalNodes>
          <leafValues>
            2.9442527890205383e-01 -2.3898346722126007e-01</leafValues></_>
        <_>
          <internalNodes>
            0 -1 115 -2.7125678956508636e-02</internalNodes>
          <leafValues>
            4.1580566763877869e-01 -1.2385094165802002e-01</leafValues></_>
        <_>
          <internalNodes>
            0 -1 66 -5.0654135644435883e-02</internalNodes>
          <leafValues>
            4.4244867563247681e-01 -1.4444164931774139e-01</leafValues></_>
        <_>
          <internalNodes>
            0 -1 20 -2.5806922465562820e-02</internalNodes>
          <leafValues>
            -8.1663244962692261e-01 9.8366096615791321e-02</leafValues></_>
        <_>
          <internalNodes>
            0 -1 72 1.1638322612270713e-03</internalNodes>
          <leafValues>
            -2.0676265656948090e-01 2.9679897427558899e-01</leafValues></_>
        <_>
          <internalNodes>
            0 -1 152 3.0212453566491604e-03</internalNodes>
          <leafValues>
            -1.7286321520805359e-01 3.4403729438781738e-01</leafValues></_>
        <_>
          <internalNodes>
            0 -1 74 4.5480923727154732e-03</internalNodes>
          <leafValues>
            -1.8559348583221436e-01 3.0108097195625305e-01</leafValues></_>
        <_>
          <internalNodes>
            0 -1 62 -2.4377003312110901e-02</internalNodes>
          <leafValues>
            3.4743043780326843e-01 -1.6094994544982910e-01</leafValues></_></weakClassifiers></_>
    <!-- stage 11 -->
    <_>
      <maxWeakCount>24</maxWeakCount>
      <stageThreshold>-9.4863587617874146e-01</stageThreshold>
      <weakClassifiers>
        <_>
          <internalNodes>
            0 -1 10 2.4622413329780102e-03</internalNodes>
          <leafValues>
            -9.7938142716884613e-02 5.5038762092590332e-01</leafValues></_>
        <_>
          <internalNodes>
            0 -1 28 1.5702996402978897e-02</internalNodes>
          <leafValues>
            -8.7316080927848816e-02 5.7261532545089722e-01</leafValues></_>
        <_>
          <internalNodes>
            0 -1 48 6.1640073545277119e-03</internalNodes>
          <leafValues>
            -8.0178245902061462e-02 6.1834818124771118e-01</leafValues></_>
        <_>
          <internalNodes>
            0 -1 31 -1.9725397229194641e-01</internalNodes>
          <leafValues>
            -5.9676939249038696e-01 7.6995961368083954e-02</leafValues></_>
        <_>
          <internalNodes>
            0 -1 138 -4.2345672845840454e-03</internalNodes>
          <leafValues>
            5.9718215465545654e-01 -7.0423133671283722e-02</leafValues></_>
        <_>
          <internalNodes>
            0 -1 155 -2.4614203721284866e-04</internalNodes>
          <leafValues>
            -3.8310056924819946e-01 1.0720897465944290e-01</leafValues></_>
        <_>
          <internalNodes>
            0 -1 106 2.4259958416223526e-02</internalNodes>
          <leafValues>
            -8.7931565940380096e-02 4.5562589168548584e-01</leafValues></_>
        <_>
          <internalNodes>
            0 -1 132 1.9998662173748016e-03</internalNodes>
          <leafValues>
            -1.3595832884311676e-01 4.5823365449905396e-01</leafValues></_>
        <_>
          <internalNodes>
            0 -1 23 -2.1245302632451057e-03</internalNodes>
          <leafValues>
            -6.4068245887756348e-01 1.2505300343036652e-01</leafValues></_>
        <_>
          <internalNodes>
            0 -1 12 4.0289744734764099e-02</internalNodes>
          <leafValues>
            4.0417507290840149e-02 -8.7359148263931274e-01</leafValues></_>
        <_>
          <internalNodes>
            0 -1 80 -6.9148116745054722e-04</internalNodes>
          <leafValues>
            2.7442502975463867e-01 -1.9455033540725708e-01</leafValues></_>
        <_>
          <internalNodes>
            0 -1 131 -3.9412444457411766e-03</internalNodes>
          <leafValues>
            7.2109591960906982e-01 -5.7610537856817245e-02</leafValues></_>
        <_>
          <internalNodes>
            0 -1 49 -1.7861604690551758e-02</internalNodes>
          <leafValues>
            4.8556256294250488e-01 -1.0437332838773727e-01</leafValues></_>
        <_>
          <internalNodes>
            0 -1 112 3.9547361666336656e-04</internalNodes>
          <leafValues>
            -1.3748957216739655e-01 3.3975327014923096e-01</leafValues></_>
        <_>
          <internalNodes>
            0 -1 36 -7.6896708924323320e-04</internalNodes>
          <leafValues>
            -5.7414996623992920e-01 7.6646812260150909e-02</leafValues></_>
        <_>
          <internalNodes>
            0 -1 146 -3.7991051794961095e-04</internalNodes>
          <leafValues>
            3.5704556107521057e-01 -1.4869405329227448e-01</leafValues></_>
        <_>
          <internalNodes>
            0 -1 158 -7.8757794108241796e-04</internalNodes>
          <leafValues>
            -5.5540788173675537e-01 9.8476454615592957e-02</leafValues></_>
        <_>
          <internalNodes>
            0 -1 21 -5.3898233454674482e-04</internalNodes>
          <leafValues>
            -2.8251892328262329e-01 1.9373616576194763e-01</leafValues></_>
        <_>
          <internalNodes>
            0 -1 99 -1.0287624318152666e-03</internalNodes>
          <leafValues>
            4.1608840227127075e-01 -1.3506999611854553e-01</leafValues></_>
        <_>
          <internalNodes>
            0 -1 6 -2.2370386868715286e-03</internalNodes>
          <leafValues>
            3.9718988537788391e-01 -1.3965165615081787e-01</leafValues></_>
        <_>
          <internalNodes>
            0 -1 15 1.4936737716197968e-02</internalNodes>
          <leafValues>
            -1.2504845857620239e-01 4.2780876159667969e-01</leafValues></_>
        <_>
          <internalNodes>
            0 -1 164 -4.8260958283208311e-04</internalNodes>
          <leafValues>
            -4.4941428303718567e-01 1.5573683381080627e-01</leafValues></_>
        <_>
          <internalNodes>
            0 -1 14 -1.2959999963641167e-02</internalNodes>
          <leafValues>
            3.7193471193313599e-01 -1.7000593245029449e-01</leafValues></_>
        <_>
          <internalNodes>
            0 -1 156 1.2588804587721825e-02</internalNodes>
          <leafValues>
            -1.1312235891819000e-01 4.4277945160865784e-01</leafValues></_></weakClassifiers></_></stages>
  <features>
    <_>
      <rects>
        <_>
          0 0 7 3 -1.</_>
        <_>
          0 1 7 1 3.</_></rects>
      <tilted>0</tilted></_>
    <_>
      <rects>
        <_>
          0 0 14 8 -1.</_>
        <_>
          0 4 14 4 2.</_></rects>
      <tilted>0</tilted></_>
    <_>
      <rects>
        <_>
          0 0 16 4 -1.</_>
        <_>
          0 2 16 2 2.</_></rects>
      <tilted>0</tilted></_>
    <_>
      <rects>
        <_>
          0 0 22 6 -1.</_>
        <_>
          0 3 22 3 2.</_></rects>
      <tilted>0</tilted></_>
    <_>
      <rects>
        <_>
          0 1 14 9 -1.</_>
        <_>
          7 1 7 9 2.</_></rects>
      <tilted>0</tilted></_>
    <_>
      <rects>
        <_>
          0 1 24 4 -1.</_>
        <_>
          8 1 8 4 3.</_></rects>
      <tilted>0</tilted></_>
    <_>
      <rects>
        <_>
          0 2 2 8 -1.</_>
        <_>
          0 2 1 4 2.</_>
        <_>
          1 6 1 4 2.</_></rects>
      <tilted>0</tilted></_>
    <_>
      <rects>
        <_>
          0 2 4 12 -1.</_>
        <_>
          0 2 2 6 2.</_>
        <_>
          2 8 2 6 2.</_></rects>
      <tilted>0</tilted></_>
    <_>
      <rects>
        <_>
          0 2 24 21 -1.</_>
        <_>
          8 2 8 21 3.</_></rects>
      <tilted>0</tilted></_>
    <_>
      <rects>
        <_>
          0 4 4 5 -1.</_>
        <_>
          2 4 2 5 2.</_></rects>
      <tilted>0</tilted></_>
    <_>
      <rects>
        <_>
          0 5 3 2 -1.</_>
        <_>
          1 5 1 2 3.</_></rects>
      <tilted>0</tilted></_>
    <_>
      <rects>
        <_>
          0 6 12 17 -1.</_>
        <_>
          6 6 6 17 2.</_></rects>
      <tilted>0</tilted></_>
    <_>
      <rects>
        <_>
          0 6 24 4 -1.</_>
        <_>
          0 6 12 2 2.</_>
        <_>
          12 8 12 2 2.</_></rects>
      <tilted>0</tilted></_>
    <_>
      <rects>
        <_>
          0 7 8 10 -1.</_>
        <_>
          4 7 4 10 2.</_></rects>
      <tilted>0</tilted></_>
    <_>
      <rects>
        <_>
          0 8 6 9 -1.</_>
        <_>
          2 8 2 9 3.</_></rects>
      <tilted>0</tilted></_>
    <_>
      <rects>
        <_>
          0 8 6 10 -1.</_>
        <_>
          2 8 2 10 3.</_></rects>
      <tilted>0</tilted></_>
    <_>
      <rects>
        <_>
          0 13 6 2 -1.</_>
        <_>
          2 13 2 2 3.</_></rects>
      <tilted>0</tilted></_>
    <_>
      <rects>
        <_>
          0 13 6 3 -1.</_>
        <_>
          0 14 6 1 3.</_></rects>
      <tilted>0</tilted></_>
    <_>
      <rects>
        <_>
          0 14 4 6 -1.</_>
        <_>
          2 14 2 6 2.</_></rects>
      <tilted>0</tilted></_>
    <_>
      <rects>
        <_>
          0 16 24 8 -1.</_>
        <_>
          8 16 8 8 3.</_></rects>
      <tilted>0</tilted></_>
    <_>
      <rects>
        <_>
          0 17 7 6 -1.</_>
        <_>
          0 19 7 2 3.</_></rects>
      <tilted>0</tilted></_>
    <_>
      <rects>
        <_>
          0 18 3 6 -1.</_>
        <_>
          1 18 1 6 3.</_></rects>
      <tilted>0</tilted></_>
    <_>
      <rects>
        <_>
          0 18 24 3 -1.</_>
        <_>
          0 19 24 1 3.</_></rects>
      <tilted>0</tilted></_>
    <_>
      <rects>
        <_>
          0 19 3 2 -1.</_>
        <_>
          0 20 3 1 2.</_></rects>
      <tilted>0</tilted></_>
    <_>
      <rects>
        <_>
          0 20 12 1 -1.</_>
        <_>
          6 20 6 1 2.</_></rects>
      <tilted>0</tilted></_>
    <_>
      <rects>
        <_>
          0 22 3 2 -1.</_>
        <_>
          0 23 3 1 2.</_></rects>
      <tilted>0</tilted></_>
    <_>
      <rects>
        <_>
          0 23 4 1 -1.</_>
        <_>
          2 23 2 1 2.</_></rects>
      <tilted>0</tilted></_>
    <_>
      <rects>
        <_>
          1 0 14 24 -1.</_>
        <_>
          1 0 7 12 2.</_>
        <_>
          8 12 7 12 2.</_></rects>
      <tilted>0</tilted></_>
    <_>
      <rects>
        <_>
          1 2 6 7 -1.</_>
        <_>
          3 2 2 7 3.</_></rects>
      <tilted>0</tilted></_>
    <_>
      <rects>
        <_>
          1 2 12 12 -1.</_>
        <_>
          1 2 6 6 2.</_>
        <_>
          7 8 6 6 2.</_></rects>
      <tilted>0</tilted></_>
    <_>
      <rects>
        <_>
          1 2 14 17 -1.</_>
        <_>
          8 2 7 17 2.</_></rects>
      <tilted>0</tilted></_>
    <_>
      <rects>
        <_>
          1 5 23 12 -1.</_>
        <_>
          1 11 23 6 2.</_></rects>
      <tilted>0</tilted></_>
    <_>
      <rects>
        <_>
          1 7 23 6 -1.</_>
        <_>
          1 9 23 2 3.</_></rects>
      <tilted>0</tilted></_>
    <_>
      <rects>
        <_>
          1 15 23 9 -1.</_>
        <_>
          1 18 23 3 3.</_></rects>
      <tilted>0</tilted></_>
    <_>
      <rects>
        <_>
          1 18 14 6 -1.</_>
        <_>
          1 18 7 3 2.</_>
        <_>
          8 21 7 3 2.</_></rects>
      <tilted>0</tilted></_>
    <_>
      <rects>
        <_>
          1 18 12 3 -1.</_>
        <_>
          1 19 12 1 3.</_></rects>
      <tilted>0</tilted></_>
    <_>
      <rects>
        <_>
          1 21 1 2 -1.</_>
        <_>
          1 22 1 1 2.</_></rects>
      <tilted>0</tilted></_>
    <_>
      <rects>
        <_>
          2 1 8 8 -1.</_>
        <_>
          2 1 4 4 2.</_>
        <_>
          6 5 4 4 2.</_></rects>
      <tilted>0</tilted></_>
    <_>
      <rects>
        <_>
          2 1 9 9 -1.</_>
        <_>
          2 4 9 3 3.</_></rects>
      <tilted>0</tilted></_>
    <_>
      <rects>
        <_>
          2 2 6 14 -1.</_>
        <_>
          4 2 2 14 3.</_></rects>
      <tilted>0</tilted></_>
    <_>
      <rects>
        <_>
          2 5 4 2 -1.</_>
        <_>
          2 6 4 1 2.</_></rects>
      <tilted>0</tilted></_>
    <_>
      <rects>
        <_>
          2 6 17 6 -1.</_>
        <_>
          2 8 17 2 3.</_></rects>
      <tilted>0</tilted></_>
    <_>
      <rects>
        <_>
          2 14 2 1 -1.</_>
        <_>
          3 14 1 1 2.</_></rects>
      <tilted>0</tilted></_>
    <_>
      <rects>
        <_>
          3 0 8 8 -1.</_>
        <_>
          7 0 4 8 2.</_></rects>
      <tilted>0</tilted></_>
    <_>
      <rects>
        <_>
          3 8 4 6 -1.</_>
        <_>
          5 8 2 6 2.</_></rects>
      <tilted>0</tilted></_>
    <_>
      <rects>
        <_>
          3 10 21 8 -1.</_>
        <_>
          10 10 7 8 3.</_></rects>
      <tilted>0</tilted></_>
    <_>
      <rects>
        <_>
          3 13 21 3 -1.</_>
        <_>
          3 14 21 1 3.</_></rects>
      <tilted>0</tilted></_>
    <_>
      <rects>
        <_>
          4 0 3 15 -1.</_>
        <_>
          5 0 1 15 3.</_></rects>
      <tilted>0</tilted></_>
    <_>
      <rects>
        <_>
          4 0 4 4 -1.</_>
        <_>
          4 0 2 2 2.</_>
        <_>
          6 2 2 2 2.</_></rects>
      <tilted>0</tilted></_>
    <_>
      <rects>
        <_>
          4 0 6 8 -1.</_>
        <_>
          4 0 3 4 2.</_>
        <_>
          7 4 3 4 2.</_></rects>
      <tilted>0</tilted></_>
    <_>
      <rects>
        <_>
          4 0 18 13 -1.</_>
        <_>
          10 0 6 13 3.</_></rects>
      <tilted>0</tilted></_>
    <_>
      <rects>
        <_>
          4 0 12 4 -1.</_>
        <_>
          4 2 12 2 2.</_></rects>
      <tilted>0</tilted></_>
    <_>
      <rects>
        <_>
          4 0 14 6 -1.</_>
        <_>
          4 3 14 3 2.</_></rects>
      <tilted>0</tilted></_>
    <_>
      <rects>
        <_>
          4 0 14 8 -1.</_>
        <_>
          4 4 14 4 2.</_></rects>
      <tilted>0</tilted></_>
    <_>
      <rects>
        <_>
          4 6 6 5 -1.</_>
        <_>
          6 6 2 5 3.</_></rects>
      <tilted>0</tilted></_>
    <_>
      <rects>
        <_>
          4 10 4 2 -1.</_>
        <_>
          4 10 2 1 2.</_>
        <_>
          6 11 2 1 2.</_></rects>
      <tilted>0</tilted></_>
    <_>
      <rects>
        <_>
          4 15 14 5 -1.</_>
        <_>
          11 15 7 5 2.</_></rects>
      <tilted>0</tilted></_>
    <_>
      <rects>
        <_>
          5 1 6 2 -1.</_>
        <_>
          5 1 3 1 2.</_>
        <_>
          8 2 3 1 2.</_></rects>
      <tilted>0</tilted></_>
    <_>
      <rects>
        <_>
          5 7 5 6 -1.</_>
        <_>
          5 9 5 2 3.</_></rects>
      <tilted>0</tilted></_>
    <_>
      <rects>
        <_>
          5 10 4 6 -1.</_>
        <_>
          5 12 4 2 3.</_></rects>
      <tilted>0</tilted></_>
    <_>
      <rects>
        <_>
          5 15 12 9 -1.</_>
        <_>
          5 18 12 3 3.</_></rects>
      <tilted>0</tilted></_>
    <_>
      <rects>
        <_>
          5 15 18 9 -1.</_>
        <_>
          5 18 18 3 3.</_></rects>
      <tilted>0</tilted></_>
    <_>
      <rects>
        <_>
          5 18 18 4 -1.</_>
        <_>
          14 18 9 4 2.</_></rects>
      <tilted>0</tilted></_>
    <_>
      <rects>
        <_>
          6 0 14 4 -1.</_>
        <_>
          6 2 14 2 2.</_></rects>
      <tilted>0</tilted></_>
    <_>
      <rects>
        <_>
          6 0 16 6 -1.</_>
        <_>
          6 3 16 3 2.</_></rects>
      <tilted>0</tilted></_>
    <_>
      <rects>
        <_>
          6 14 2 1 -1.</_>
        <_>
          7 14 1 1 2.</_></rects>
      <tilted>0</tilted></_>
    <_>
      <rects>
        <_>
          7 6 11 12 -1.</_>
        <_>
          7 10 11 4 3.</_></rects>
      <tilted>0</tilted></_>
    <_>
      <rects>
        <_>
          7 10 10 2 -1.</_>
        <_>
          7 11 10 1 2.</_></rects>
      <tilted>0</tilted></_>
    <_>
      <rects>
        <_>
          7 10 11 6 -1.</_>
        <_>
          7 12 11 2 3.</_></rects>
      <tilted>0</tilted></_>
    <_>
      <rects>
        <_>
          7 14 2 2 -1.</_>
        <_>
          7 15 2 1 2.</_></rects>
      <tilted>0</tilted></_>
    <_>
      <rects>
        <_>
          7 15 12 8 -1.</_>
        <_>
          7 19 12 4 2.</_></rects>
      <tilted>0</tilted></_>
    <_>
      <rects>
        <_>
          8 3 15 12 -1.</_>
        <_>
          8 7 15 4 3.</_></rects>
      <tilted>0</tilted></_>
    <_>
      <rects>
        <_>
          8 11 1 6 -1.</_>
        <_>
          8 13 1 2 3.</_></rects>
      <tilted>0</tilted></_>
    <_>
      <rects>
        <_>
          8 15 15 6 -1.</_>
        <_>
          8 17 15 2 3.</_></rects>
      <tilted>0</tilted></_>
    <_>
      <rects>
        <_>
          8 18 14 1 -1.</_>
        <_>
          15 18 7 1 2.</_></rects>
      <tilted>0</tilted></_>
    <_>
      <rects>
        <_>
          8 21 7 3 -1.</_>
        <_>
          8 22 7 1 3.</_></rects>
      <tilted>0</tilted></_>
    <_>
      <rects>
        <_>
          9 0 3 22 -1.</_>
        <_>
          9 11 3 11 2.</_></rects>
      <tilted>0</tilted></_>
    <_>
      <rects>
        <_>
          9 5 2 2 -1.</_>
        <_>
          9 6 2 1 2.</_></rects>
      <tilted>0</tilted></_>
    <_>
      <rects>
        <_>
          9 8 15 15 -1.</_>
        <_>
          14 8 5 15 3.</_></rects>
      <tilted>0</tilted></_>
    <_>
      <rects>
        <_>
          9 9 5 3 -1.</_>
        <_>
          9 10 5 1 3.</_></rects>
      <tilted>0</tilted></_>
    <_>
      <rects>
        <_>
          9 13 3 5 -1.</_>
        <_>
          10 13 1 5 3.</_></rects>
      <tilted>0</tilted></_>
    <_>
      <rects>
        <_>
          9 20 2 2 -1.</_>
        <_>
          9 20 1 1 2.</_>
        <_>
          10 21 1 1 2.</_></rects>
      <tilted>0</tilted></_>
    <_>
      <rects>
        <_>
          9 20 2 4 -1.</_>
        <_>
          9 22 2 2 2.</_></rects>
      <tilted>0</tilted></_>
    <_>
      <rects>
        <_>
          10 0 2 20 -1.</_>
        <_>
          10 10 2 10 2.</_></rects>
      <tilted>0</tilted></_>
    <_>
      <rects>
        <_>
          10 4 12 3 -1.</_>
        <_>
          10 5 12 1 3.</_></rects>
      <tilted>0</tilted></_>
    <_>
      <rects>
        <_>
          10 6 3 13 -1.</_>
        <_>
          11 6 1 13 3.</_></rects>
      <tilted>0</tilted></_>
    <_>
      <rects>
        <_>
          10 14 5 9 -1.</_>
        <_>
          10 17 5 3 3.</_></rects>
      <tilted>0</tilted></_>
    <_>
      <rects>
        <_>
          10 17 3 3 -1.</_>
        <_>
          11 17 1 3 3.</_></rects>
      <tilted>0</tilted></_>
    <_>
      <rects>
        <_>
          11 13 13 2 -1.</_>
        <_>
          11 14 13 1 2.</_></rects>
      <tilted>0</tilted></_>
    <_>
      <rects>
        <_>
          11 16 1 6 -1.</_>
        <_>
          11 18 1 2 3.</_></rects>
      <tilted>0</tilted></_>
    <_>
      <rects>
        <_>
          11 21 1 2 -1.</_>
        <_>
          11 22 1 1 2.</_></rects>
      <tilted>0</tilted></_>
    <_>
      <rects>
        <_>
          12 0 3 1 -1.</_>
        <_>
          13 0 1 1 3.</_></rects>
      <tilted>0</tilted></_>
    <_>
      <rects>
        <_>
          12 0 3 2 -1.</_>
        <_>
          13 0 1 2 3.</_></rects>
      <tilted>0</tilted></_>
    <_>
      <rects>
        <_>
          12 3 1 4 -1.</_>
        <_>
          12 5 1 2 2.</_></rects>
      <tilted>0</tilted></_>
    <_>
      <rects>
        <_>
          12 4 3 19 -1.</_>
        <_>
          13 4 1 19 3.</_></rects>
      <tilted>0</tilted></_>
    <_>
      <rects>
        <_>
          12 5 12 6 -1.</_>
        <_>
          16 5 4 6 3.</_></rects>
      <tilted>0</tilted></_>
    <_>
      <rects>
        <_>
          12 8 12 14 -1.</_>
        <_>
          18 8 6 14 2.</_></rects>
      <tilted>0</tilted></_>
    <_>
      <rects>
        <_>
          12 10 6 6 -1.</_>
        <_>
          12 10 3 3 2.</_>
        <_>
          15 13 3 3 2.</_></rects>
      <tilted>0</tilted></_>
    <_>
      <rects>
        <_>
          12 12 12 8 -1.</_>
        <_>
          16 12 4 8 3.</_></rects>
      <tilted>0</tilted></_>
    <_>
      <rects>
        <_>
          12 18 4 2 -1.</_>
        <_>
          12 18 2 1 2.</_>
        <_>
          14 19 2 1 2.</_></rects>
      <tilted>0</tilted></_>
    <_>
      <rects>
        <_>
          12 19 1 2 -1.</_>
        <_>
          12 20 1 1 2.</_></rects>
      <tilted>0</tilted></_>
    <_>
      <rects>
        <_>
          12 19 4 4 -1.</_>
        <_>
          12 19 2 2 2.</_>
        <_>
          14 21 2 2 2.</_></rects>
      <tilted>0</tilted></_>
    <_>
      <rects>
        <_>
          12 21 1 3 -1.</_>
        <_>
          12 22 1 1 3.</_></rects>
      <tilted>0</tilted></_>
    <_>
      <rects>
        <_>
          12 21 3 3 -1.</_>
        <_>
          12 22 3 1 3.</_></rects>
      <tilted>0</tilted></_>
    <_>
      <rects>
        <_>
          12 22 3 2 -1.</_>
        <_>
          12 23 3 1 2.</_></rects>
      <tilted>0</tilted></_>
    <_>
      <rects>
        <_>
          13 1 8 4 -1.</_>
        <_>
          13 1 4 2 2.</_>
        <_>
          17 3 4 2 2.</_></rects>
      <tilted>0</tilted></_>
    <_>
      <rects>
        <_>
          13 1 8 8 -1.</_>
        <_>
          13 1 4 4 2.</_>
        <_>
          17 5 4 4 2.</_></rects>
      <tilted>0</tilted></_>
    <_>
      <rects>
        <_>
          13 4 3 20 -1.</_>
        <_>
          14 4 1 20 3.</_></rects>
      <tilted>0</tilted></_>
    <_>
      <rects>
        <_>
          13 6 1 2 -1.</_>
        <_>
          13 7 1 1 2.</_></rects>
      <tilted>0</tilted></_>
    <_>
      <rects>
        <_>
          13 6 3 5 -1.</_>
        <_>
          14 6 1 5 3.</_></rects>
      <tilted>0</tilted></_>
    <_>
      <rects>
        <_>
          13 16 2 1 -1.</_>
        <_>
          14 16 1 1 2.</_></rects>
      <tilted>0</tilted></_>
    <_>
      <rects>
        <_>
          13 17 1 2 -1.</_>
        <_>
          13 18 1 1 2.</_></rects>
      <tilted>0</tilted></_>
    <_>
      <rects>
        <_>
          13 21 1 3 -1.</_>
        <_>
          13 22 1 1 3.</_></rects>
      <tilted>0</tilted></_>
    <_>
      <rects>
        <_>
          14 1 10 10 -1.</_>
        <_>
          19 1 5 10 2.</_></rects>
      <tilted>0</tilted></_>
    <_>
      <rects>
        <_>
          14 2 3 19 -1.</_>
        <_>
          15 2 1 19 3.</_></rects>
      <tilted>0</tilted></_>
    <_>
      <rects>
        <_>
          14 10 7 12 -1.</_>
        <_>
          14 14 7 4 3.</_></rects>
      <tilted>0</tilted></_>
    <_>
      <rects>
        <_>
          14 11 3 3 -1.</_>
        <_>
          15 11 1 3 3.</_></rects>
      <tilted>0</tilted></_>
    <_>
      <rects>
        <_>
          14 14 6 8 -1.</_>
        <_>
          14 14 3 4 2.</_>
        <_>
          17 18 3 4 2.</_></rects>
      <tilted>0</tilted></_>
    <_>
      <rects>
        <_>
          15 1 1 4 -1.</_>
        <_>
          15 3 1 2 2.</_></rects>
      <tilted>0</tilted></_>
    <_>
      <rects>
        <_>
          15 4 9 3 -1.</_>
        <_>
          15 5 9 1 3.</_></rects>
      <tilted>0</tilted></_>
    <_>
      <rects>
        <_>
          15 10 9 5 -1.</_>
        <_>
          18 10 3 5 3.</_></rects>
      <tilted>0</tilted></_>
    <_>
      <rects>
        <_>
          15 11 2 2 -1.</_>
        <_>
          15 12 2 1 2.</_></rects>
      <tilted>0</tilted></_>
    <_>
      <rects>
        <_>
          15 21 1 2 -1.</_>
        <_>
          15 22 1 1 2.</_></rects>
      <tilted>0</tilted></_>
    <_>
      <rects>
        <_>
          16 1 6 4 -1.</_>
        <_>
          16 1 3 2 2.</_>
        <_>
          19 3 3 2 2.</_></rects>
      <tilted>0</tilted></_>
    <_>
      <rects>
        <_>
          16 1 6 3 -1.</_>
        <_>
          19 1 3 3 2.</_></rects>
      <tilted>0</tilted></_>
    <_>
      <rects>
        <_>
          16 4 6 4 -1.</_>
        <_>
          18 4 2 4 3.</_></rects>
      <tilted>0</tilted></_>
    <_>
      <rects>
        <_>
          16 7 2 1 -1.</_>
        <_>
          17 7 1 1 2.</_></rects>
      <tilted>0</tilted></_>
    <_>
      <rects>
        <_>
          16 16 1 4 -1.</_>
        <_>
          16 18 1 2 2.</_></rects>
      <tilted>0</tilted></_>
    <_>
      <rects>
        <_>
          16 16 8 2 -1.</_>
        <_>
          20 16 4 2 2.</_></rects>
      <tilted>0</tilted></_>
    <_>
      <rects>
        <_>
          17 1 4 4 -1.</_>
        <_>
          17 1 2 2 2.</_>
        <_>
          19 3 2 2 2.</_></rects>
      <tilted>0</tilted></_>
    <_>
      <rects>
        <_>
          17 4 1 9 -1.</_>
        <_>
          17 7 1 3 3.</_></rects>
      <tilted>0</tilted></_>
    <_>
      <rects>
        <_>
          17 6 2 6 -1.</_>
        <_>
          17 6 1 3 2.</_>
        <_>
          18 9 1 3 2.</_></rects>
      <tilted>0</tilted></_>
    <_>
      <rects>
        <_>
          17 8 2 4 -1.</_>
        <_>
          17 8 1 2 2.</_>
        <_>
          18 10 1 2 2.</_></rects>
      <tilted>0</tilted></_>
    <_>
      <rects>
        <_>
          17 9 6 1 -1.</_>
        <_>
          19 9 2 1 3.</_></rects>
      <tilted>0</tilted></_>
    <_>
      <rects>
        <_>
          17 16 2 2 -1.</_>
        <_>
          17 17 2 1 2.</_></rects>
      <tilted>0</tilted></_>
    <_>
      <rects>
        <_>
          17 18 4 2 -1.</_>
        <_>
          17 19 4 1 2.</_></rects>
      <tilted>0</tilted></_>
    <_>
      <rects>
        <_>
          17 19 2 2 -1.</_>
        <_>
          17 19 1 1 2.</_>
        <_>
          18 20 1 1 2.</_></rects>
      <tilted>0</tilted></_>
    <_>
      <rects>
        <_>
          18 0 6 24 -1.</_>
        <_>
          20 0 2 24 3.</_></rects>
      <tilted>0</tilted></_>
    <_>
      <rects>
        <_>
          18 5 4 4 -1.</_>
        <_>
          18 5 2 2 2.</_>
        <_>
          20 7 2 2 2.</_></rects>
      <tilted>0</tilted></_>
    <_>
      <rects>
        <_>
          18 9 4 14 -1.</_>
        <_>
          18 9 2 7 2.</_>
        <_>
          20 16 2 7 2.</_></rects>
      <tilted>0</tilted></_>
    <_>
      <rects>
        <_>
          18 16 1 8 -1.</_>
        <_>
          18 20 1 4 2.</_></rects>
      <tilted>0</tilted></_>
    <_>
      <rects>
        <_>
          19 0 1 4 -1.</_>
        <_>
          19 2 1 2 2.</_></rects>
      <tilted>0</tilted></_>
    <_>
      <rects>
        <_>
          19 3 4 6 -1.</_>
        <_>
          19 3 2 3 2.</_>
        <_>
          21 6 2 3 2.</_></rects>
      <tilted>0</tilted></_>
    <_>
      <rects>
        <_>
          19 4 4 7 -1.</_>
        <_>
          21 4 2 7 2.</_></rects>
      <tilted>0</tilted></_>
    <_>
      <rects>
        <_>
          19 10 3 4 -1.</_>
        <_>
          20 10 1 4 3.</_></rects>
      <tilted>0</tilted></_>
    <_>
      <rects>
        <_>
          19 11 4 3 -1.</_>
        <_>
          19 12 4 1 3.</_></rects>
      <tilted>0</tilted></_>
    <_>
      <rects>
        <_>
          19 12 2 2 -1.</_>
        <_>
          19 12 1 1 2.</_>
        <_>
          20 13 1 1 2.</_></rects>
      <tilted>0</tilted></_>
    <_>
      <rects>
        <_>
          19 20 5 3 -1.</_>
        <_>
          19 21 5 1 3.</_></rects>
      <tilted>0</tilted></_>
    <_>
      <rects>
        <_>
          20 3 3 2 -1.</_>
        <_>
          20 4 3 1 2.</_></rects>
      <tilted>0</tilted></_>
    <_>
      <rects>
        <_>
          20 6 2 1 -1.</_>
        <_>
          21 6 1 1 2.</_></rects>
      <tilted>0</tilted></_>
    <_>
      <rects>
        <_>
          20 6 2 14 -1.</_>
        <_>
          20 6 1 7 2.</_>
        <_>
          21 13 1 7 2.</_></rects>
      <tilted>0</tilted></_>
    <_>
      <rects>
        <_>
          20 8 4 3 -1.</_>
        <_>
          20 9 4 1 3.</_></rects>
      <tilted>0</tilted></_>
    <_>
      <rects>
        <_>
          20 13 4 4 -1.</_>
        <_>
          22 13 2 4 2.</_></rects>
      <tilted>0</tilted></_>
    <_>
      <rects>
        <_>
          20 13 4 3 -1.</_>
        <_>
          20 14 4 1 3.</_></rects>
      <tilted>0</tilted></_>
    <_>
      <rects>
        <_>
          20 15 4 3 -1.</_>
        <_>
          20 16 4 1 3.</_></rects>
      <tilted>0</tilted></_>
    <_>
      <rects>
        <_>
          21 0 3 1 -1.</_>
        <_>
          22 0 1 1 3.</_></rects>
      <tilted>0</tilted></_>
    <_>
      <rects>
        <_>
          21 1 1 22 -1.</_>
        <_>
          21 12 1 11 2.</_></rects>
      <tilted>0</tilted></_>
    <_>
      <rects>
        <_>
          21 8 3 3 -1.</_>
        <_>
          21 9 3 1 3.</_></rects>
      <tilted>0</tilted></_>
    <_>
      <rects>
        <_>
          21 14 1 2 -1.</_>
        <_>
          21 15 1 1 2.</_></rects>
      <tilted>0</tilted></_>
    <_>
      <rects>
        <_>
          21 17 2 3 -1.</_>
        <_>
          21 18 2 1 3.</_></rects>
      <tilted>0</tilted></_>
    <_>
      <rects>
        <_>
          21 20 3 3 -1.</_>
        <_>
          21 21 3 1 3.</_></rects>
      <tilted>0</tilted></_>
    <_>
      <rects>
        <_>
          22 1 2 23 -1.</_>
        <_>
          23 1 1 23 2.</_></rects>
      <tilted>0</tilted></_>
    <_>
      <rects>
        <_>
          22 12 2 3 -1.</_>
        <_>
          22 13 2 1 3.</_></rects>
      <tilted>0</tilted></_>
    <_>
      <rects>
        <_>
          22 17 1 3 -1.</_>
        <_>
          22 18 1 1 3.</_></rects>
      <tilted>0</tilted></_>
    <_>
      <rects>
        <_>
          23 11 1 3 -1.</_>
        <_>
          23 12 1 1 3.</_></rects>
      <tilted>0</tilted></_></features></cascade>
</opencv_storage>
