<?xml version="1.0"?>
<opencv_storage>
<cascade>
  <stageType>BOOST</stageType>
  <featureType>LBP</featureType>
  <height>24</height>
  <width>24</width>
  <stageParams>
    <boostType>GAB</boostType>
    <minHitRate>9.9500000476837158e-01</minHitRate>
    <maxFalseAlarm>5.0000000000000000e-01</maxFalseAlarm>
    <weightTrimRate>9.4999999999999996e-01</weightTrimRate>
    <maxDepth>1</maxDepth>
    <maxWeakCount>100</maxWeakCount></stageParams>
  <featureParams>
    <maxCatCount>256</maxCatCount>
    <featSize>1</featSize></featureParams>
  <stageNum>12</stageNum>
  <stages>
    <!-- stage 0 -->
    <_>
      <maxWeakCount>4</maxWeakCount>
      <stageThreshold>-1.6407829523086548e-01</stageThreshold>
      <weakClassifiers>
        <_>
          <internalNodes>
            0 -1 8 -2146778879 67695810 -2080341984 -1610379264 69667
            672206848 -2122134784 -1608292096</internalNodes>
          <leafValues>
            -6.9082123041152954e-01 5.7230144739151001e-01</leafValues></_>
        <_>
          <internalNodes>
            0 -1 45 19808273 -653983720 -1979711229 1880859016
            -1736177571 -1744699383 -1530363904 -261875696</internalNodes>
          <leafValues>
            -6.4299440383911133e-01 6.3726860284805298e-01</leafValues></_>
        <_>
          <internalNodes>
            0 -1 59 -2126511602 34230400 -2147192831 537921538 142848003
            138518656 -1878474624 -1430544250</internalNodes>
          <leafValues>
            -6.9663667678833008e-01 5.7655501365661621e-01</leafValues></_>
        <_>
          <internalNodes>
            0 -1 47 -2146495728 83886081 -2147417707 -503316475
            -1207926680 -929037245 -1610481528 -1910078904</internalNodes>
          <leafValues>
            -6.6994029283523560e-01 6.5277326107025146e-01</leafValues></_></weakClassifiers></_>
    <!-- stage 1 -->
    <_>
      <maxWeakCount>4</maxWeakCount>
      <stageThreshold>-8.0227188766002655e-02</stageThreshold>
      <weakClassifiers>
        <_>
          <internalNodes>
            0 -1 15 -2108685532 442629 268587026 404130048 104861697
            1367427228 -1432343552 -291355118</internalNodes>
          <leafValues>
            -7.0163172483444214e-01 6.2184876203536987e-01</leafValues></_>
        <_>
          <internalNodes>
            0 -1 57 -2130573807 714164249 42260510 771793216 101875973
            144214281 2081763489 -2139750400</internalNodes>
          <leafValues>
            -6.8737626075744629e-01 6.2683773040771484e-01</leafValues></_>
        <_>
          <internalNodes>
            0 -1 29 -2080750047 1849147367 -1098977538 -286490668
            2013095285 -1090715785 -60850700 -1135594284</internalNodes>
          <leafValues>
            -6.4377963542938232e-01 7.0801264047622681e-01</leafValues></_>
        <_>
          <internalNodes>
            0 -1 26 543297031 138674436 -1727954864 -1197067494 591904
            -1359704063 -2071940504 -897409023</internalNodes>
          <leafValues>
            -6.8513405323028564e-01 6.7739534378051758e-01</leafValues></_></weakClassifiers></_>
    <!-- stage 2 -->
    <_>
      <maxWeakCount>5</maxWeakCount>
      <stageThreshold>-7.9568904638290405e-01</stageThreshold>
      <weakClassifiers>
        <_>
          <internalNodes>
            0 -1 34 26871057 1372857090 -383777507 983990404 -532625896
            -630194036 -1395881856 -1598029232</internalNodes>
          <leafValues>
            -6.2110310792922974e-01 5.2049177885055542e-01</leafValues></_>
        <_>
          <internalNodes>
            0 -1 58 -1039072699 10561408 -1805561712 1544958464
            -465415098 212926482 -482072028 -468228977</internalNodes>
          <leafValues>
            -6.1936491727828979e-01 5.6586533784866333e-01</leafValues></_>
        <_>
          <internalNodes>
            0 -1 32 550772769 -1792006781 -2145917576 -1313859008
            -1720700924 395523077 763404496 -1158642720</internalNodes>
          <leafValues>
            -6.8859350681304932e-01 5.1827156543731689e-01</leafValues></_>
        <_>
          <internalNodes>
            0 -1 53 -2017468655 129675119 -16877520 764395324 1836801109
            75462519 -824091248 -353601682</internalNodes>
          <leafValues>
            -5.6359398365020752e-01 6.9034403562545776e-01</leafValues></_>
        <_>
          <internalNodes>
            0 -1 41 -1059349067 137397559 -1578607272 -2142727826
            210567588 538968064 -1534033280 -1934988800</internalNodes>
          <leafValues>
            -6.2985873222351074e-01 6.2044727802276611e-01</leafValues></_></weakClassifiers></_>
    <!-- stage 3 -->
    <_>
      <maxWeakCount>5</maxWeakCount>
      <stageThreshold>-6.4975571632385254e-01</stageThreshold>
      <weakClassifiers>
        <_>
          <internalNodes>
            0 -1 18 -258223602 -1055268861 -2147270460 1477607442
            8423434 32778 -2121037822 -240664433</internalNodes>
          <leafValues>
            -6.5151512622833252e-01 4.9705305695533752e-01</leafValues></_>
        <_>
          <internalNodes>
            0 -1 55 -802164661 -914145280 -2137962926 -2113777590
            570560592 147541 34281730 -937770473</internalNodes>
          <leafValues>
            -5.8388733863830566e-01 5.2609139680862427e-01</leafValues></_>
        <_>
          <internalNodes>
            0 -1 5 -491830513 720898 570540098 -1476344816 276826153
            92276224 -2147401088 -73940873</internalNodes>
          <leafValues>
            -5.4154205322265625e-01 6.3583296537399292e-01</leafValues></_>
        <_>
          <internalNodes>
            0 -1 20 -1019554770 -511492095 -1040183122 1342231052
            856031241 1510604808 16909316 -225195653</internalNodes>
          <leafValues>
            -6.7928045988082886e-01 4.9400234222412109e-01</leafValues></_>
        <_>
          <internalNodes>
            0 -1 36 -1887736399 -1480654939 788403526 32468610
            -285332363 -1762722308 -302236043 -1043075737</internalNodes>
          <leafValues>
            -4.7679224610328674e-01 6.9974625110626221e-01</leafValues></_></weakClassifiers></_>
    <!-- stage 4 -->
    <_>
      <maxWeakCount>4</maxWeakCount>
      <stageThreshold>-1.2154743671417236e+00</stageThreshold>
      <weakClassifiers>
        <_>
          <internalNodes>
            0 -1 4 -89407222 1196034 -2147336192 1107427330 268618242
            1073856512 17321986 1359736859</internalNodes>
          <leafValues>
            -8.0624997615814209e-01 4.3247863650321960e-01</leafValues></_>
        <_>
          <internalNodes>
            0 -1 19 -896810042 269619200 285261824 1074479176 1074446465
            -2004778495 65545 -985411243</internalNodes>
          <leafValues>
            -5.9539693593978882e-01 5.3703886270523071e-01</leafValues></_>
        <_>
          <internalNodes>
            0 -1 37 -272632317 582463463 -285217218 -2136735890
            -437265407 1316995061 2113789272 -276899905</internalNodes>
          <leafValues>
            -4.6003630757331848e-01 7.1455091238021851e-01</leafValues></_>
        <_>
          <internalNodes>
            0 -1 13 -961886669 -670023670 1361231872 33734656 17465738
            -2012577792 1082147256 1736622354</internalNodes>
          <leafValues>
            -5.9251976013183594e-01 5.6298530101776123e-01</leafValues></_></weakClassifiers></_>
    <!-- stage 5 -->
    <_>
      <maxWeakCount>7</maxWeakCount>
      <stageThreshold>-7.1809333562850952e-01</stageThreshold>
      <weakClassifiers>
        <_>
          <internalNodes>
            0 -1 0 -2134842662 -805006080 -1996488293 763367424
            -805191185 -258375656 -1979659127 1342324736</internalNodes>
          <leafValues>
            -6.2318837642669678e-01 3.7500000000000000e-01</leafValues></_>
        <_>
          <internalNodes>
            0 -1 43 67343409 725664226 -2129639721 1898446915
            -2134361927 -1719451616 -2004833575 -1901690395</internalNodes>
          <leafValues>
            -4.9452796578407288e-01 4.7167229652404785e-01</leafValues></_>
        <_>
          <internalNodes>
            0 -1 51 -1208227201 1517436733 1862205311 -29474946
            2138991116 2147450707 -1224744964 -1001073500</internalNodes>
          <leafValues>
            -4.8465809226036072e-01 5.2934968471527100e-01</leafValues></_>
        <_>
          <internalNodes>
            0 -1 23 -2147065840 274010885 1611505677 -1336795064
            948487043 -939523072 -1735783455 -1400843968</internalNodes>
          <leafValues>
            -6.6185909509658813e-01 4.6460300683975220e-01</leafValues></_>
        <_>
          <internalNodes>
            0 -1 9 -353449997 2146183869 2146347574 -604363226
            -537405755 -596353034 611669577 -1007208589</internalNodes>
          <leafValues>
            -4.9743795394897461e-01 5.9128433465957642e-01</leafValues></_>
        <_>
          <internalNodes>
            0 -1 38 -407933179 -402743642 -1157652482 -2098266380
            -16933170 -1620181025 -1347098628 -473762252</internalNodes>
          <leafValues>
            -5.0184714794158936e-01 5.8878570795059204e-01</leafValues></_>
        <_>
          <internalNodes>
            0 -1 25 -1676692442 269549841 -1878912758 823590929
            -1879045998 -1568669654 1073750784 90961921</internalNodes>
          <leafValues>
            -6.7180573940277100e-01 4.9050277471542358e-01</leafValues></_></weakClassifiers></_>
    <!-- stage 6 -->
    <_>
      <maxWeakCount>4</maxWeakCount>
      <stageThreshold>-3.7317547202110291e-01</stageThreshold>
      <weakClassifiers>
        <_>
          <internalNodes>
            0 -1 40 1375785216 1342194945 2134288 87130114 -393197424
            51418112 8914958 34174543</internalNodes>
          <leafValues>
            -6.7195767164230347e-01 4.7248578071594238e-01</leafValues></_>
        <_>
          <internalNodes>
            0 -1 17 -1811327872 -212663663 6176 -1656680428 1887479968
            -1172668032 536912520 1082296336</internalNodes>
          <leafValues>
            -7.0588958263397217e-01 4.4572392106056213e-01</leafValues></_>
        <_>
          <internalNodes>
            0 -1 35 269484752 219287555 536957076 -578289507 1610613210
            -1876754420 -2147417814 -964621819</internalNodes>
          <leafValues>
            -5.9049540758132935e-01 4.6585783362388611e-01</leafValues></_>
        <_>
          <internalNodes>
            0 -1 39 -199695420 806600960 -2130702283 826557058 536928471
            67651584 575616 638255830</internalNodes>
          <leafValues>
            -5.8983862400054932e-01 5.3881388902664185e-01</leafValues></_></weakClassifiers></_>
    <!-- stage 7 -->
    <_>
      <maxWeakCount>6</maxWeakCount>
      <stageThreshold>-7.5821608304977417e-01</stageThreshold>
      <weakClassifiers>
        <_>
          <internalNodes>
            0 -1 28 -365036038 -8540622 -1020162 1852173948 2130526143
            1476360071 729773755 863711071</internalNodes>
          <leafValues>
            -4.4939270615577698e-01 5.2798050642013550e-01</leafValues></_>
        <_>
          <internalNodes>
            0 -1 7 -716652416 -980942838 537043013 -16448955 -1073512401
            1376288769 637716506 321084051</internalNodes>
          <leafValues>
            -5.0767254829406738e-01 4.7969287633895874e-01</leafValues></_>
        <_>
          <internalNodes>
            0 -1 48 -692107263 -32248146 -17105153 963215327 -1629618948
            2147319678 1870315167 -61901349</internalNodes>
          <leafValues>
            -3.8215675950050354e-01 7.1230459213256836e-01</leafValues></_>
        <_>
          <internalNodes>
            0 -1 22 -601166060 -1128498318 -268607624 1811806198
            1446801375 1282735984 1181969978 -1277462737</internalNodes>
          <leafValues>
            -5.1220160722732544e-01 5.5584114789962769e-01</leafValues></_>
        <_>
          <internalNodes>
            0 -1 46 -1050964976 1448411413 65537 -1824817150 -654307176
            -1610070010 -1608514936 654795839</internalNodes>
          <leafValues>
            -5.1689869165420532e-01 5.3043717145919800e-01</leafValues></_>
        <_>
          <internalNodes>
            0 -1 52 1294718005 -1900020809 -65548 -285894667 -1921030275
            1156824823 -1635863470 -2014470406</internalNodes>
          <leafValues>
            -4.4236752390861511e-01 6.3273298740386963e-01</leafValues></_></weakClassifiers></_>
    <!-- stage 8 -->
    <_>
      <maxWeakCount>5</maxWeakCount>
      <stageThreshold>-6.9153606891632080e-01</stageThreshold>
      <weakClassifiers>
        <_>
          <internalNodes>
            0 -1 56 1622240135 539705385 -1559132160 1084896075
            1099690274 9158661 1236095428 -2138641165</internalNodes>
          <leafValues>
            -5.6756758689880371e-01 4.5381525158882141e-01</leafValues></_>
        <_>
          <internalNodes>
            0 -1 54 -733914765 1091244551 1207992963 -1977702399
            -502779834 2021883905 -662650793 -924458269</internalNodes>
          <leafValues>
            -5.1052200794219971e-01 5.2471446990966797e-01</leafValues></_>
        <_>
          <internalNodes>
            0 -1 1 -1000504734 -1686439151 -1845493296 -1465220022
            1749573725 1939341336 -2134323136 -998129663</internalNodes>
          <leafValues>
            -6.8101191520690918e-01 4.2294785380363464e-01</leafValues></_>
        <_>
          <internalNodes>
            0 -1 31 1632349163 655298759 -1072560703 239108163
            1405370574 -1332653950 -1065351014 -400659950</internalNodes>
          <leafValues>
            -4.7032797336578369e-01 6.6566896438598633e-01</leafValues></_>
        <_>
          <internalNodes>
            0 -1 44 -2062183165 672698450 -788524848 1800618253
            -733010803 -1476263420 -1474224048 -1719018592</internalNodes>
          <leafValues>
            -5.8744925260543823e-01 5.1710939407348633e-01</leafValues></_></weakClassifiers></_>
    <!-- stage 9 -->
    <_>
      <maxWeakCount>5</maxWeakCount>
      <stageThreshold>-6.4469075202941895e-01</stageThreshold>
      <weakClassifiers>
        <_>
          <internalNodes>
            0 -1 21 -1970666471 -2135817464 27349541 -1258258032
            -1029905234 -1718550327 545888392 -1975622784</internalNodes>
          <leafValues>
            -5.7333332300186157e-01 3.9622640609741211e-01</leafValues></_>
        <_>
          <internalNodes>
            0 -1 6 -764474861 -2003250159 -1870491471 213921794
            -931061731 461629225 547166628 -100252666</internalNodes>
          <leafValues>
            -5.1950043439865112e-01 5.0532120466232300e-01</leafValues></_>
        <_>
          <internalNodes>
            0 -1 27 -2078072431 319572234 -1067310973 -1199541920
            -1333692727 973752512 -417321334 -402226160</internalNodes>
          <leafValues>
            -5.1086592674255371e-01 5.3864490985870361e-01</leafValues></_>
        <_>
          <internalNodes>
            0 -1 49 -1443943879 -1439117318 -1048708 -1301381526
            1727511516 -1094778916 1819661040 -2000887816</internalNodes>
          <leafValues>
            -5.2463638782501221e-01 5.6631797552108765e-01</leafValues></_>
        <_>
          <internalNodes>
            0 -1 42 -1967518083 2147434332 2130640823 2143252469
            1325284725 -411074730 -403286544 -269070468</internalNodes>
          <leafValues>
            -5.1073604822158813e-01 5.6373739242553711e-01</leafValues></_></weakClassifiers></_>
    <!-- stage 10 -->
    <_>
      <maxWeakCount>5</maxWeakCount>
      <stageThreshold>-4.7509312629699707e-01</stageThreshold>
      <weakClassifiers>
        <_>
          <internalNodes>
            0 -1 3 -394269486 -537231518 -268435753 364556065 -193667076
            -721485979 1710681758 1548216063</internalNodes>
          <leafValues>
            -3.6000001430511475e-01 5.4366195201873779e-01</leafValues></_>
        <_>
          <internalNodes>
            0 -1 2 -670905614 470319296 39185 84180992 -1610016087
            2034239500 -1014863734 84234833</internalNodes>
          <leafValues>
            -6.3880383968353271e-01 3.4810963273048401e-01</leafValues></_>
        <_>
          <internalNodes>
            0 -1 24 848408798 458444803 1342447682 -750677949 1098958995
            -1039662966 -1576611378 1099530260</internalNodes>
          <leafValues>
            -5.2549505233764648e-01 4.3687939643859863e-01</leafValues></_>
        <_>
          <internalNodes>
            0 -1 12 -286397314 787427313 -1493795267 -211038286
            926891860 2147475314 -686340 -848298985</internalNodes>
          <leafValues>
            -3.6281448602676392e-01 6.5961956977844238e-01</leafValues></_>
        <_>
          <internalNodes>
            0 -1 30 141803994 2113486524 -16975146 -1074283524 914139566
            -1392673153 -60836104 -905578793</internalNodes>
          <leafValues>
            -4.5401617884635925e-01 5.8485966920852661e-01</leafValues></_></weakClassifiers></_>
    <!-- stage 11 -->
    <_>
      <maxWeakCount>6</maxWeakCount>
      <stageThreshold>-6.2976121902465820e-01</stageThreshold>
      <weakClassifiers>
        <_>
          <internalNodes>
            0 -1 11 1926965831 327516175 8428562 536870913 1212497921
            1241924111 -1004453208 2046939139</internalNodes>
          <leafValues>
            -5.1515150070190430e-01 3.9096266031265259e-01</leafValues></_>
        <_>
          <internalNodes>
            0 -1 10 -362288618 2130296554 -268503136 1190755326
            1685028384 -1126825992 -76524 -658512285</internalNodes>
          <leafValues>
            -4.3940192461013794e-01 5.0296521186828613e-01</leafValues></_>
        <_>
          <internalNodes>
            0 -1 50 -731908086 88277127 536870916 1682997579 -997129720
            98569 1623369752 6021703</internalNodes>
          <leafValues>
            -6.1546510457992554e-01 4.0817916393280029e-01</leafValues></_>
        <_>
          <internalNodes>
            0 -1 16 1217626694 1494849631 -1807728460 2114994442
            168661624 411566153 -1744140054 805350018</internalNodes>
          <leafValues>
            -6.5337330102920532e-01 3.8370877504348755e-01</leafValues></_>
        <_>
          <internalNodes>
            0 -1 33 -643049408 -661648047 524761 1219252488 -1072103348
            1375764490 -226414454 1925622107</internalNodes>
          <leafValues>
            -6.0308212041854858e-01 3.9255866408348083e-01</leafValues></_>
        <_>
          <internalNodes>
            0 -1 14 -1066446845 537001986 213014 -1605926656 -226417822
            2046885896 964823558 -1828414957</internalNodes>
          <leafValues>
            -6.7541289329528809e-01 3.9004191756248474e-01</leafValues></_></weakClassifiers></_></stages>
  <features>
    <_>
      <rect>
        0 0 5 4</rect></_>
    <_>
      <rect>
        0 0 7 2</rect></_>
    <_>
      <rect>
        0 2 4 4</rect></_>
    <_>
      <rect>
        0 4 3 5</rect></_>
    <_>
      <rect>
        0 8 8 3</rect></_>
    <_>
      <rect>
        0 15 2 2</rect></_>
    <_>
      <rect>
        0 16 1 2</rect></_>
    <_>
      <rect>
        1 2 4 6</rect></_>
    <_>
      <rect>
        1 4 1 1</rect></_>
    <_>
      <rect>
        1 7 3 3</rect></_>
    <_>
      <rect>
        1 10 1 2</rect></_>
    <_>
      <rect>
        1 12 3 4</rect></_>
    <_>
      <rect>
        1 13 1 2</rect></_>
    <_>
      <rect>
        2 2 5 3</rect></_>
    <_>
      <rect>
        2 18 3 2</rect></_>
    <_>
      <rect>
        2 19 1 1</rect></_>
    <_>
      <rect>
        3 0 6 3</rect></_>
    <_>
      <rect>
        3 0 7 3</rect></_>
    <_>
      <rect>
        3 3 7 1</rect></_>
    <_>
      <rect>
        3 5 6 4</rect></_>
    <_>
      <rect>
        3 19 3 1</rect></_>
    <_>
      <rect>
        4 0 1 2</rect></_>
    <_>
      <rect>
        4 10 3 3</rect></_>
    <_>
      <rect>
        5 0 1 2</rect></_>
    <_>
      <rect>
        5 1 5 4</rect></_>
    <_>
      <rect>
        6 11 6 3</rect></_>
    <_>
      <rect>
        6 19 1 1</rect></_>
    <_>
      <rect>
        7 1 1 1</rect></_>
    <_>
      <rect>
        7 12 3 4</rect></_>
    <_>
      <rect>
        9 1 1 1</rect></_>
    <_>
      <rect>
        9 6 3 5</rect></_>
    <_>
      <rect>
        9 8 2 2</rect></_>
    <_>
      <rect>
        11 0 1 1</rect></_>
    <_>
      <rect>
        11 9 3 3</rect></_>
    <_>
      <rect>
        12 2 1 1</rect></_>
    <_>
      <rect>
        12 2 2 2</rect></_>
    <_>
      <rect>
        12 15 3 3</rect></_>
    <_>
      <rect>
        12 15 4 3</rect></_>
    <_>
      <rect>
        13 5 1 1</rect></_>
    <_>
      <rect>
        13 5 2 3</rect></_>
    <_>
      <rect>
        13 9 3 2</rect></_>
    <_>
      <rect>
        13 16 1 1</rect></_>
    <_>
      <rect>
        14 0 1 1</rect></_>
    <_>
      <rect>
        14 21 1 1</rect></_>
    <_>
      <rect>
        14 21 2 1</rect></_>
    <_>
      <rect>
        15 1 1 1</rect></_>
    <_>
      <rect>
        15 3 2 3</rect></_>
    <_>
      <rect>
        15 21 1 1</rect></_>
    <_>
      <rect>
        16 0 2 2</rect></_>
    <_>
      <rect>
        16 20 1 1</rect></_>
    <_>
      <rect>
        17 4 2 3</rect></_>
    <_>
      <rect>
        17 5 1 1</rect></_>
    <_>
      <rect>
        17 12 2 4</rect></_>
    <_>
      <rect>
        17 17 1 1</rect></_>
    <_>
      <rect>
        18 5 2 1</rect></_>
    <_>
      <rect>
        18 5 2 2</rect></_>
    <_>
      <rect>
        18 14 2 2</rect></_>
    <_>
      <rect>
        21 1 1 1</rect></_>
    <_>
      <rect>
        21 10 1 1</rect></_>
    <_>
      <rect>
        21 14 1 1</rect></_></features></cascade>
</opencv_storage>
