<?xml version="1.0"?>
<opencv_storage>
<stage16>
  <maxWeakCount>43</maxWeakCount>
  <stageThreshold>-7.3517465591430664e-01</stageThreshold>
  <weakClassifiers>
    <_>
      <internalNodes>
        0 -1 161189 1.1406603734940290e-03</internalNodes>
      <leafValues>
        2.3831348121166229e-01 -2.5125628709793091e-01</leafValues></_>
    <_>
      <internalNodes>
        0 -1 134630 -1.1803843080997467e-03</internalNodes>
      <leafValues>
        3.6154630780220032e-01 -9.1528348624706268e-02</leafValues></_>
    <_>
      <internalNodes>
        0 -1 128415 1.0463193058967590e-02</internalNodes>
      <leafValues>
        -1.4334405958652496e-01 2.7830445766448975e-01</leafValues></_>
    <_>
      <internalNodes>
        0 -1 148749 1.1227799113839865e-03</internalNodes>
      <leafValues>
        -1.0035660117864609e-01 3.6102294921875000e-01</leafValues></_>
    <_>
      <internalNodes>
        0 -1 95083 -2.8681108355522156e-01</internalNodes>
      <leafValues>
        3.4259265661239624e-01 -1.9328354299068451e-01</leafValues></_>
    <_>
      <internalNodes>
        0 -1 11492 -8.1185065209865570e-04</internalNodes>
      <leafValues>
        2.7661353349685669e-01 -9.9552549421787262e-02</leafValues></_>
    <_>
      <internalNodes>
        0 -1 115591 1.2041640002280474e-03</internalNodes>
      <leafValues>
        -1.2871974706649780e-01 2.9927548766136169e-01</leafValues></_>
    <_>
      <internalNodes>
        0 -1 137781 1.4466555789113045e-02</internalNodes>
      <leafValues>
        -1.3204260170459747e-01 2.8300637006759644e-01</leafValues></_>
    <_>
      <internalNodes>
        0 -1 110653 1.0678714606910944e-03</internalNodes>
      <leafValues>
        -2.0875991880893707e-01 1.8533612787723541e-01</leafValues></_>
    <_>
      <internalNodes>
        0 -1 74530 -2.8637880459427834e-03</internalNodes>
      <leafValues>
        2.3886500298976898e-01 -1.3628052175045013e-01</leafValues></_>
    <_>
      <internalNodes>
        0 -1 107795 6.2676459550857544e-02</internalNodes>
      <leafValues>
        4.9558844417333603e-02 -6.5733647346496582e-01</leafValues></_>
    <_>
      <internalNodes>
        0 -1 55580 5.0704888999462128e-03</internalNodes>
      <leafValues>
        3.9352543652057648e-02 -6.9838005304336548e-01</leafValues></_>
    <_>
      <internalNodes>
        0 -1 107244 3.7211380898952484e-02</internalNodes>
      <leafValues>
        7.7572882175445557e-02 -3.8784730434417725e-01</leafValues></_>
    <_>
      <internalNodes>
        0 -1 145110 3.2563989516347647e-03</internalNodes>
      <leafValues>
        -1.2742471694946289e-01 2.3685196042060852e-01</leafValues></_>
    <_>
      <internalNodes>
        0 -1 145409 -4.8538483679294586e-03</internalNodes>
      <leafValues>
        2.6483181118965149e-01 -1.2150974571704865e-01</leafValues></_>
    <_>
      <internalNodes>
        0 -1 134210 -2.2569596767425537e-03</internalNodes>
      <leafValues>
        -8.9865887165069580e-01 6.3089475035667419e-02</leafValues></_>
    <_>
      <internalNodes>
        0 -1 118661 4.7871265560388565e-03</internalNodes>
      <leafValues>
        1.3821682892739773e-02 -6.3053399324417114e-01</leafValues></_>
    <_>
      <internalNodes>
        0 -1 127299 -3.5066844429820776e-04</internalNodes>
      <leafValues>
        1.1927361041307449e-01 -2.3642171919345856e-01</leafValues></_>
    <_>
      <internalNodes>
        0 -1 49720 1.0460237972438335e-03</internalNodes>
      <leafValues>
        7.8467659652233124e-02 -3.3461424708366394e-01</leafValues></_>
    <_>
      <internalNodes>
        0 -1 10091 -1.5661086654290557e-03</internalNodes>
      <leafValues>
        2.8583759069442749e-01 -1.0183567553758621e-01</leafValues></_>
    <_>
      <internalNodes>
        0 -1 148598 2.2665904834866524e-03</internalNodes>
      <leafValues>
        4.3214771896600723e-02 -8.1905716657638550e-01</leafValues></_>
    <_>
      <internalNodes>
        0 -1 85215 5.7489287108182907e-02</internalNodes>
      <leafValues>
        3.0803274363279343e-02 -6.9403159618377686e-01</leafValues></_>
    <_>
      <internalNodes>
        0 -1 104944 -1.1583471205085516e-03</internalNodes>
      <leafValues>
        2.9031556844711304e-01 -9.7496211528778076e-02</leafValues></_>
    <_>
      <internalNodes>
        0 -1 112765 1.3398538576439023e-03</internalNodes>
      <leafValues>
        -1.2289625406265259e-01 2.5884890556335449e-01</leafValues></_>
    <_>
      <internalNodes>
        0 -1 105157 -9.2303268611431122e-03</internalNodes>
      <leafValues>
        -6.6261655092239380e-01 4.1391879320144653e-02</leafValues></_>
    <_>
      <internalNodes>
        0 -1 78361 2.0022295415401459e-02</internalNodes>
      <leafValues>
        4.4986411929130554e-02 -5.3690773248672485e-01</leafValues></_>
    <_>
      <internalNodes>
        0 -1 145653 9.1699382755905390e-04</internalNodes>
      <leafValues>
        -1.3834710419178009e-01 2.0575992763042450e-01</leafValues></_>
    <_>
      <internalNodes>
        0 -1 131619 7.5850263237953186e-04</internalNodes>
      <leafValues>
        -1.3182193040847778e-01 2.0703297853469849e-01</leafValues></_>
    <_>
      <internalNodes>
        0 -1 85230 -4.6587843447923660e-02</internalNodes>
      <leafValues>
        -5.7279986143112183e-01 4.5471437275409698e-02</leafValues></_>
    <_>
      <internalNodes>
        0 -1 134361 5.8915363624691963e-03</internalNodes>
      <leafValues>
        -5.6275136768817902e-02 4.6547165513038635e-01</leafValues></_>
    <_>
      <internalNodes>
        0 -1 102246 6.8940166383981705e-03</internalNodes>
      <leafValues>
        3.4015145152807236e-02 -8.3381611108779907e-01</leafValues></_>
    <_>
      <internalNodes>
        0 -1 144030 -8.8295747991651297e-04</internalNodes>
      <leafValues>
        3.1623572111129761e-01 -8.6561731994152069e-02</leafValues></_>
    <_>
      <internalNodes>
        0 -1 73110 4.1777882725000381e-03</internalNodes>
      <leafValues>
        5.0243888050317764e-02 -5.7190662622451782e-01</leafValues></_>
    <_>
      <internalNodes>
        0 -1 155369 1.1241424363106489e-03</internalNodes>
      <leafValues>
        6.7590944468975067e-02 -3.4727704524993896e-01</leafValues></_>
    <_>
      <internalNodes>
        0 -1 114294 -2.0889443112537265e-04</internalNodes>
      <leafValues>
        2.6486328244209290e-01 -1.1186058819293976e-01</leafValues></_>
    <_>
      <internalNodes>
        0 -1 161186 -8.3601789083331823e-04</internalNodes>
      <leafValues>
        -5.2005875110626221e-01 5.3939480334520340e-02</leafValues></_>
    <_>
      <internalNodes>
        0 -1 100577 2.3193163797259331e-03</internalNodes>
      <leafValues>
        -1.0810536891222000e-01 2.7020898461341858e-01</leafValues></_>
    <_>
      <internalNodes>
        0 -1 107446 4.2703365907073021e-03</internalNodes>
      <leafValues>
        -1.2463189661502838e-01 2.4250553548336029e-01</leafValues></_>
    <_>
      <internalNodes>
        0 -1 138114 3.9810343878343701e-04</internalNodes>
      <leafValues>
        -9.1903515160083771e-02 2.8259107470512390e-01</leafValues></_>
    <_>
      <internalNodes>
        0 -1 108059 2.1408484317362309e-03</internalNodes>
      <leafValues>
        8.6535111069679260e-02 -3.3029207587242126e-01</leafValues></_>
    <_>
      <internalNodes>
        0 -1 98592 1.1305575026199222e-04</internalNodes>
      <leafValues>
        -1.2444131821393967e-01 2.2052690386772156e-01</leafValues></_>
    <_>
      <internalNodes>
        0 -1 152317 3.2528238371014595e-03</internalNodes>
      <leafValues>
        -9.8796546459197998e-02 2.5754922628402710e-01</leafValues></_>
    <_>
      <internalNodes>
        0 -1 152493 -8.0524722579866648e-04</internalNodes>
      <leafValues>
        2.7807834744453430e-01 -1.2135377526283264e-01</leafValues></_></weakClassifiers></stage16>
</opencv_storage>
