<?xml version="1.0"?>
<opencv_storage>
<stage0>
  <maxWeakCount>10</maxWeakCount>
  <stageThreshold>-6.0436785221099854e-01</stageThreshold>
  <weakClassifiers>
    <_>
      <internalNodes>
        0 -1 41930 2.0732456445693970e-01</internalNodes>
      <leafValues>
        -7.3901809751987457e-02 8.7286823987960815e-01</leafValues></_>
    <_>
      <internalNodes>
        0 -1 145257 7.5297191739082336e-02</internalNodes>
      <leafValues>
        -1.8675884604454041e-01 8.6818075180053711e-01</leafValues></_>
    <_>
      <internalNodes>
        0 -1 3765 2.1050061285495758e-01</internalNodes>
      <leafValues>
        -1.2364665418863297e-01 8.4081172943115234e-01</leafValues></_>
    <_>
      <internalNodes>
        0 -1 6297 2.6259833574295044e-01</internalNodes>
      <leafValues>
        -1.8348774313926697e-01 8.1590962409973145e-01</leafValues></_>
    <_>
      <internalNodes>
        0 -1 150971 3.4629178699105978e-03</internalNodes>
      <leafValues>
        2.1126261353492737e-01 -7.2370523214340210e-01</leafValues></_>
    <_>
      <internalNodes>
        0 -1 150941 -2.8113941662013531e-03</internalNodes>
      <leafValues>
        -7.1972113847732544e-01 1.4061573147773743e-01</leafValues></_>
    <_>
      <internalNodes>
        0 -1 124934 -4.3513053096830845e-03</internalNodes>
      <leafValues>
        -7.7861756086349487e-01 1.0073605924844742e-01</leafValues></_>
    <_>
      <internalNodes>
        0 -1 94670 8.1000439822673798e-03</internalNodes>
      <leafValues>
        1.0891532897949219e-01 -8.2339406013488770e-01</leafValues></_>
    <_>
      <internalNodes>
        0 -1 140559 7.1398168802261353e-02</internalNodes>
      <leafValues>
        -1.6390177607536316e-01 6.8967866897583008e-01</leafValues></_>
    <_>
      <internalNodes>
        0 -1 32057 2.2179093211889267e-02</internalNodes>
      <leafValues>
        -1.6319635510444641e-01 5.0076705217361450e-01</leafValues></_></weakClassifiers></stage0>
</opencv_storage>
