<?xml version="1.0"?>
<opencv_storage>
<cascade>
  <stageType>BOOST</stageType>
  <featureType>HAAR</featureType>
  <height>24</height>
  <width>24</width>
  <stageParams>
    <boostType>GAB</boostType>
    <minHitRate>9.9000000953674316e-01</minHitRate>
    <maxFalseAlarm>5.0000000000000000e-01</maxFalseAlarm>
    <weightTrimRate>9.4999999999999996e-01</weightTrimRate>
    <maxDepth>1</maxDepth>
    <maxWeakCount>100</maxWeakCount></stageParams>
  <featureParams>
    <maxCatCount>0</maxCatCount>
    <featSize>1</featSize>
    <mode>BASIC</mode></featureParams>
  <stageNum>18</stageNum>
  <stages>
    <!-- stage 0 -->
    <_>
      <maxWeakCount>17</maxWeakCount>
      <stageThreshold>-3.5854852199554443e-01</stageThreshold>
      <weakClassifiers>
        <_>
          <internalNodes>
            0 -1 218 -2.6154488325119019e-01</internalNodes>
          <leafValues>
            1.0306406766176224e-01 8.0717372894287109e-01</leafValues></_>
        <_>
          <internalNodes>
            0 -1 366 -2.3866284638643265e-02</internalNodes>
          <leafValues>
            7.3891460895538330e-01 -5.6636791676282883e-02</leafValues></_>
        <_>
          <internalNodes>
            0 -1 517 2.7627579867839813e-02</internalNodes>
          <leafValues>
            -1.1270704120397568e-01 7.6009654998779297e-01</leafValues></_>
        <_>
          <internalNodes>
            0 -1 564 5.4019175469875336e-02</internalNodes>
          <leafValues>
            -1.2514419853687286e-01 8.1978833675384521e-01</leafValues></_>
        <_>
          <internalNodes>
            0 -1 104 4.9357980489730835e-02</internalNodes>
          <leafValues>
            -8.5190616548061371e-02 7.2480458021163940e-01</leafValues></_>
        <_>
          <internalNodes>
            0 -1 25 -2.0544224977493286e-01</internalNodes>
          <leafValues>
            5.4788470268249512e-01 -1.7416033148765564e-01</leafValues></_>
        <_>
          <internalNodes>
            0 -1 543 8.7448477745056152e-02</internalNodes>
          <leafValues>
            -1.6662697494029999e-01 5.5928689241409302e-01</leafValues></_>
        <_>
          <internalNodes>
            0 -1 437 -4.7462787479162216e-03</internalNodes>
          <leafValues>
            -6.5612918138504028e-01 1.2810507416725159e-01</leafValues></_>
        <_>
          <internalNodes>
            0 -1 4 3.0714997556060553e-03</internalNodes>
          <leafValues>
            8.1922657787799835e-02 -6.4949876070022583e-01</leafValues></_>
        <_>
          <internalNodes>
            0 -1 6 -5.0227707251906395e-03</internalNodes>
          <leafValues>
            -6.9306010007858276e-01 9.0094953775405884e-02</leafValues></_>
        <_>
          <internalNodes>
            0 -1 505 -8.0581801012158394e-03</internalNodes>
          <leafValues>
            3.3624321222305298e-01 -2.0779392123222351e-01</leafValues></_>
        <_>
          <internalNodes>
            0 -1 127 9.0453214943408966e-03</internalNodes>
          <leafValues>
            9.2163786292076111e-02 -7.0459085702896118e-01</leafValues></_>
        <_>
          <internalNodes>
            0 -1 449 -4.6356581151485443e-03</internalNodes>
          <leafValues>
            3.0280956625938416e-01 -2.0419116318225861e-01</leafValues></_>
        <_>
          <internalNodes>
            0 -1 362 1.0728479921817780e-01</internalNodes>
          <leafValues>
            -6.9788493216037750e-02 8.6401236057281494e-01</leafValues></_>
        <_>
          <internalNodes>
            0 -1 30 -1.8808631226420403e-02</internalNodes>
          <leafValues>
            6.1214113235473633e-01 -8.8717885315418243e-02</leafValues></_>
        <_>
          <internalNodes>
            0 -1 446 -4.3894969858229160e-03</internalNodes>
          <leafValues>
            -5.8167105913162231e-01 1.0506588965654373e-01</leafValues></_>
        <_>
          <internalNodes>
            0 -1 479 2.7786563150584698e-03</internalNodes>
          <leafValues>
            1.0502093285322189e-01 -5.5455052852630615e-01</leafValues></_></weakClassifiers></_>
    <!-- stage 1 -->
    <_>
      <maxWeakCount>23</maxWeakCount>
      <stageThreshold>-4.3354845046997070e-01</stageThreshold>
      <weakClassifiers>
        <_>
          <internalNodes>
            0 -1 300 -3.7795230746269226e-03</internalNodes>
          <leafValues>
            9.0122044086456299e-01 5.0779378414154053e-01</leafValues></_>
        <_>
          <internalNodes>
            0 -1 285 -1.5641700476408005e-02</internalNodes>
          <leafValues>
            7.0951050519943237e-01 -2.8247242793440819e-02</leafValues></_>
        <_>
          <internalNodes>
            0 -1 537 -4.0668090805411339e-03</internalNodes>
          <leafValues>
            6.7408114671707153e-01 -1.6274550557136536e-01</leafValues></_>
        <_>
          <internalNodes>
            0 -1 291 1.3345817569643259e-03</internalNodes>
          <leafValues>
            -2.6322054862976074e-01 3.9915513992309570e-01</leafValues></_>
        <_>
          <internalNodes>
            0 -1 569 3.3191509544849396e-02</internalNodes>
          <leafValues>
            -2.2471152245998383e-01 4.5235827565193176e-01</leafValues></_>
        <_>
          <internalNodes>
            0 -1 108 -1.2665843591094017e-02</internalNodes>
          <leafValues>
            3.5259789228439331e-01 -2.0259015262126923e-01</leafValues></_>
        <_>
          <internalNodes>
            0 -1 379 -2.3046839982271194e-02</internalNodes>
          <leafValues>
            4.0582218766212463e-01 -1.5658164024353027e-01</leafValues></_>
        <_>
          <internalNodes>
            0 -1 197 8.3300724625587463e-02</internalNodes>
          <leafValues>
            -1.1230522394180298e-01 6.3531082868576050e-01</leafValues></_>
        <_>
          <internalNodes>
            0 -1 274 -3.3842459321022034e-02</internalNodes>
          <leafValues>
            4.5078358054161072e-01 -1.4089292287826538e-01</leafValues></_>
        <_>
          <internalNodes>
            0 -1 56 2.4289362132549286e-02</internalNodes>
          <leafValues>
            8.7748087942600250e-02 -7.0782762765884399e-01</leafValues></_>
        <_>
          <internalNodes>
            0 -1 10 2.6286587119102478e-02</internalNodes>
          <leafValues>
            -1.6742859780788422e-01 3.6358523368835449e-01</leafValues></_>
        <_>
          <internalNodes>
            0 -1 367 -5.2194580435752869e-02</internalNodes>
          <leafValues>
            4.0601983666419983e-01 -1.5685023367404938e-01</leafValues></_>
        <_>
          <internalNodes>
            0 -1 610 -1.1012808419764042e-02</internalNodes>
          <leafValues>
            5.9228366613388062e-01 -9.5939815044403076e-02</leafValues></_>
        <_>
          <internalNodes>
            0 -1 373 -1.1163317598402500e-02</internalNodes>
          <leafValues>
            -6.2852305173873901e-01 9.6665695309638977e-02</leafValues></_>
        <_>
          <internalNodes>
            0 -1 523 -8.7471883744001389e-03</internalNodes>
          <leafValues>
            2.1969734132289886e-01 -2.1973477303981781e-01</leafValues></_>
        <_>
          <internalNodes>
            0 -1 653 -6.3154222443699837e-03</internalNodes>
          <leafValues>
            -5.8345758914947510e-01 9.0280979871749878e-02</leafValues></_>
        <_>
          <internalNodes>
            0 -1 656 4.2801517993211746e-03</internalNodes>
          <leafValues>
            9.8786026239395142e-02 -4.7254928946495056e-01</leafValues></_>
        <_>
          <internalNodes>
            0 -1 43 8.7582087144255638e-03</internalNodes>
          <leafValues>
            -1.5488779544830322e-01 2.9811495542526245e-01</leafValues></_>
        <_>
          <internalNodes>
            0 -1 139 -2.7215082809561864e-05</internalNodes>
          <leafValues>
            2.3471596837043762e-01 -1.9567070901393890e-01</leafValues></_>
        <_>
          <internalNodes>
            0 -1 670 -4.6287888835649937e-05</internalNodes>
          <leafValues>
            2.1306030452251434e-01 -2.1802304685115814e-01</leafValues></_>
        <_>
          <internalNodes>
            0 -1 119 -1.0313650593161583e-02</internalNodes>
          <leafValues>
            -6.5376597642898560e-01 7.0403367280960083e-02</leafValues></_>
        <_>
          <internalNodes>
            0 -1 596 -6.4573483541607857e-05</internalNodes>
          <leafValues>
            2.1318821609020233e-01 -2.2167152166366577e-01</leafValues></_>
        <_>
          <internalNodes>
            0 -1 221 -1.0352963581681252e-02</internalNodes>
          <leafValues>
            -7.3435187339782715e-01 5.8565147221088409e-02</leafValues></_></weakClassifiers></_>
    <!-- stage 2 -->
    <_>
      <maxWeakCount>25</maxWeakCount>
      <stageThreshold>-4.2930638790130615e-01</stageThreshold>
      <weakClassifiers>
        <_>
          <internalNodes>
            0 -1 369 2.4897393304854631e-03</internalNodes>
          <leafValues>
            5.0920248031616211e-01 9.0692263841629028e-01</leafValues></_>
        <_>
          <internalNodes>
            0 -1 534 -2.2418629378080368e-03</internalNodes>
          <leafValues>
            7.2658622264862061e-01 -6.0050863772630692e-02</leafValues></_>
        <_>
          <internalNodes>
            0 -1 273 -5.9486664831638336e-03</internalNodes>
          <leafValues>
            6.1761331558227539e-01 -1.7081657052040100e-01</leafValues></_>
        <_>
          <internalNodes>
            0 -1 148 2.7331439778208733e-03</internalNodes>
          <leafValues>
            -2.1439377963542938e-01 5.9595030546188354e-01</leafValues></_>
        <_>
          <internalNodes>
            0 -1 521 1.3341654092073441e-02</internalNodes>
          <leafValues>
            -1.3101689517498016e-01 6.0476106405258179e-01</leafValues></_>
        <_>
          <internalNodes>
            0 -1 283 1.7547560855746269e-03</internalNodes>
          <leafValues>
            -2.1756529808044434e-01 3.7012547254562378e-01</leafValues></_>
        <_>
          <internalNodes>
            0 -1 315 8.7972516193985939e-03</internalNodes>
          <leafValues>
            -2.4331426620483398e-01 2.7740144729614258e-01</leafValues></_>
        <_>
          <internalNodes>
            0 -1 40 -1.7733694985508919e-02</internalNodes>
          <leafValues>
            3.6968615651130676e-01 -1.5118986368179321e-01</leafValues></_>
        <_>
          <internalNodes>
            0 -1 22 -6.2253735959529877e-02</internalNodes>
          <leafValues>
            5.1071774959564209e-01 -1.2497412413358688e-01</leafValues></_>
        <_>
          <internalNodes>
            0 -1 349 -1.1037634685635567e-02</internalNodes>
          <leafValues>
            3.4158682823181152e-01 -1.5870866179466248e-01</leafValues></_>
        <_>
          <internalNodes>
            0 -1 533 1.7897416837513447e-03</internalNodes>
          <leafValues>
            -1.5038008987903595e-01 4.2582991719245911e-01</leafValues></_>
        <_>
          <internalNodes>
            0 -1 95 2.2442334890365601e-01</internalNodes>
          <leafValues>
            -1.0502039641141891e-01 5.7164061069488525e-01</leafValues></_>
        <_>
          <internalNodes>
            0 -1 680 9.6434436272829771e-04</internalNodes>
          <leafValues>
            -2.2321832180023193e-01 2.5264841318130493e-01</leafValues></_>
        <_>
          <internalNodes>
            0 -1 549 5.6449109688401222e-03</internalNodes>
          <leafValues>
            -8.9111849665641785e-02 6.4843797683715820e-01</leafValues></_>
        <_>
          <internalNodes>
            0 -1 604 -1.6142003005370498e-03</internalNodes>
          <leafValues>
            2.8703418374061584e-01 -1.5243072807788849e-01</leafValues></_>
        <_>
          <internalNodes>
            0 -1 67 -2.4855371564626694e-02</internalNodes>
          <leafValues>
            2.9838904738426208e-01 -1.4999698102474213e-01</leafValues></_>
        <_>
          <internalNodes>
            0 -1 63 5.0523433834314346e-02</internalNodes>
          <leafValues>
            -1.1106269061565399e-01 4.7287374734878540e-01</leafValues></_>
        <_>
          <internalNodes>
            0 -1 612 -2.7143852785229683e-03</internalNodes>
          <leafValues>
            3.6830013990402222e-01 -1.3300535082817078e-01</leafValues></_>
        <_>
          <internalNodes>
            0 -1 138 8.6427055299282074e-02</internalNodes>
          <leafValues>
            7.9144872725009918e-02 -6.0215598344802856e-01</leafValues></_>
        <_>
          <internalNodes>
            0 -1 303 -5.1763519644737244e-02</internalNodes>
          <leafValues>
            3.1672626733779907e-01 -1.4517819881439209e-01</leafValues></_>
        <_>
          <internalNodes>
            0 -1 281 1.2364609539508820e-01</internalNodes>
          <leafValues>
            -5.9314377605915070e-02 7.2269231081008911e-01</leafValues></_>
        <_>
          <internalNodes>
            0 -1 346 -1.5045995824038982e-02</internalNodes>
          <leafValues>
            2.9880079627037048e-01 -1.5126781165599823e-01</leafValues></_>
        <_>
          <internalNodes>
            0 -1 269 9.1690562665462494e-02</internalNodes>
          <leafValues>
            -7.6749429106712341e-02 5.4655265808105469e-01</leafValues></_>
        <_>
          <internalNodes>
            0 -1 191 1.1820280924439430e-02</internalNodes>
          <leafValues>
            -9.2054896056652069e-02 5.0143700838088989e-01</leafValues></_>
        <_>
          <internalNodes>
            0 -1 448 -1.4225548366084695e-03</internalNodes>
          <leafValues>
            -5.7571220397949219e-01 8.0202803015708923e-02</leafValues></_></weakClassifiers></_>
    <!-- stage 3 -->
    <_>
      <maxWeakCount>38</maxWeakCount>
      <stageThreshold>-4.8107174038887024e-01</stageThreshold>
      <weakClassifiers>
        <_>
          <internalNodes>
            0 -1 519 -5.6582968682050705e-03</internalNodes>
          <leafValues>
            9.0232437849044800e-01 5.2386027574539185e-01</leafValues></_>
        <_>
          <internalNodes>
            0 -1 299 -7.0033003576099873e-03</internalNodes>
          <leafValues>
            6.3748872280120850e-01 -1.9882028922438622e-02</leafValues></_>
        <_>
          <internalNodes>
            0 -1 253 2.8817800804972649e-02</internalNodes>
          <leafValues>
            -1.0251423716545105e-01 7.0357233285903931e-01</leafValues></_>
        <_>
          <internalNodes>
            0 -1 151 2.1974446717649698e-03</internalNodes>
          <leafValues>
            -1.9507803022861481e-01 4.1485226154327393e-01</leafValues></_>
        <_>
          <internalNodes>
            0 -1 378 -1.8879290670156479e-02</internalNodes>
          <leafValues>
            3.4513327479362488e-01 -1.9916781783103943e-01</leafValues></_>
        <_>
          <internalNodes>
            0 -1 90 1.2345789372920990e-01</internalNodes>
          <leafValues>
            -9.7632698714733124e-02 6.7871403694152832e-01</leafValues></_>
        <_>
          <internalNodes>
            0 -1 395 -5.1171127706766129e-03</internalNodes>
          <leafValues>
            -6.3727897405624390e-01 1.1254548281431198e-01</leafValues></_>
        <_>
          <internalNodes>
            0 -1 231 -3.2934449613094330e-02</internalNodes>
          <leafValues>
            5.8059680461883545e-01 -1.1737293004989624e-01</leafValues></_>
        <_>
          <internalNodes>
            0 -1 11 2.0164299011230469e-01</internalNodes>
          <leafValues>
            -1.8668310344219208e-01 3.0658289790153503e-01</leafValues></_>
        <_>
          <internalNodes>
            0 -1 405 -3.5742595791816711e-02</internalNodes>
          <leafValues>
            2.8634238243103027e-01 -1.8146677315235138e-01</leafValues></_>
        <_>
          <internalNodes>
            0 -1 434 -4.1019213385879993e-03</internalNodes>
          <leafValues>
            -6.1440426111221313e-01 8.4990620613098145e-02</leafValues></_>
        <_>
          <internalNodes>
            0 -1 431 -2.6175561361014843e-03</internalNodes>
          <leafValues>
            -5.9263902902603149e-01 6.9961175322532654e-02</leafValues></_>
        <_>
          <internalNodes>
            0 -1 594 -8.9735502842813730e-04</internalNodes>
          <leafValues>
            2.3296372592449188e-01 -1.8121846020221710e-01</leafValues></_>
        <_>
          <internalNodes>
            0 -1 409 -7.0450946688652039e-02</internalNodes>
          <leafValues>
            4.7545632719993591e-01 -9.5488213002681732e-02</leafValues></_>
        <_>
          <internalNodes>
            0 -1 445 -3.0166269280016422e-03</internalNodes>
          <leafValues>
            -4.9852272868156433e-01 9.4069935381412506e-02</leafValues></_>
        <_>
          <internalNodes>
            0 -1 494 4.8335148021578789e-03</internalNodes>
          <leafValues>
            5.4851047694683075e-02 -6.5017837285995483e-01</leafValues></_>
        <_>
          <internalNodes>
            0 -1 387 -2.3698125034570694e-02</internalNodes>
          <leafValues>
            3.2192939519882202e-01 -1.2510482966899872e-01</leafValues></_>
        <_>
          <internalNodes>
            0 -1 655 2.6544102001935244e-03</internalNodes>
          <leafValues>
            8.8026702404022217e-02 -4.9384418129920959e-01</leafValues></_>
        <_>
          <internalNodes>
            0 -1 47 8.0965375527739525e-03</internalNodes>
          <leafValues>
            4.3672181665897369e-02 -7.8053975105285645e-01</leafValues></_>
        <_>
          <internalNodes>
            0 -1 294 -2.1330289542675018e-02</internalNodes>
          <leafValues>
            2.4190030992031097e-01 -1.5941464900970459e-01</leafValues></_>
        <_>
          <internalNodes>
            0 -1 196 3.4112771973013878e-03</internalNodes>
          <leafValues>
            -1.4895763993263245e-01 2.6930317282676697e-01</leafValues></_>
        <_>
          <internalNodes>
            0 -1 71 -5.6850351393222809e-03</internalNodes>
          <leafValues>
            -5.5416446924209595e-01 7.1144334971904755e-02</leafValues></_>
        <_>
          <internalNodes>
            0 -1 332 6.4623507205396891e-04</internalNodes>
          <leafValues>
            -1.5410654246807098e-01 2.5995865464210510e-01</leafValues></_>
        <_>
          <internalNodes>
            0 -1 187 -5.0670348107814789e-02</internalNodes>
          <leafValues>
            4.0763798356056213e-01 -1.0491760075092316e-01</leafValues></_>
        <_>
          <internalNodes>
            0 -1 33 3.2064204569905996e-03</internalNodes>
          <leafValues>
            8.8739991188049316e-02 -4.6011716127395630e-01</leafValues></_>
        <_>
          <internalNodes>
            0 -1 555 -8.8227767264470458e-05</internalNodes>
          <leafValues>
            2.0232734084129333e-01 -1.9527328014373779e-01</leafValues></_>
        <_>
          <internalNodes>
            0 -1 41 6.6349245607852936e-03</internalNodes>
          <leafValues>
            5.2352186292409897e-02 -7.5700801610946655e-01</leafValues></_>
        <_>
          <internalNodes>
            0 -1 364 1.0114749893546104e-02</internalNodes>
          <leafValues>
            4.4224254786968231e-02 -7.0590049028396606e-01</leafValues></_>
        <_>
          <internalNodes>
            0 -1 633 -6.7583946511149406e-03</internalNodes>
          <leafValues>
            -6.8953412771224976e-01 4.5561078935861588e-02</leafValues></_>
        <_>
          <internalNodes>
            0 -1 381 -9.9499542266130447e-03</internalNodes>
          <leafValues>
            2.6856553554534912e-01 -1.3011482357978821e-01</leafValues></_>
        <_>
          <internalNodes>
            0 -1 164 1.9779004156589508e-02</internalNodes>
          <leafValues>
            -1.2136444449424744e-01 3.1693574786186218e-01</leafValues></_>
        <_>
          <internalNodes>
            0 -1 560 2.1213407162576914e-03</internalNodes>
          <leafValues>
            5.7414710521697998e-02 -6.5741926431655884e-01</leafValues></_>
        <_>
          <internalNodes>
            0 -1 184 5.2142497152090073e-03</internalNodes>
          <leafValues>
            -7.8404106199741364e-02 4.9361717700958252e-01</leafValues></_>
        <_>
          <internalNodes>
            0 -1 133 -6.8280948325991631e-03</internalNodes>
          <leafValues>
            2.3629184067249298e-01 -1.4497317373752594e-01</leafValues></_>
        <_>
          <internalNodes>
            0 -1 173 -5.5992663837969303e-03</internalNodes>
          <leafValues>
            -4.1132566332817078e-01 8.7296850979328156e-02</leafValues></_>
        <_>
          <internalNodes>
            0 -1 392 2.5653634220361710e-02</internalNodes>
          <leafValues>
            -1.1656010150909424e-01 3.4097579121589661e-01</leafValues></_>
        <_>
          <internalNodes>
            0 -1 354 -6.1428537592291832e-03</internalNodes>
          <leafValues>
            5.0133937597274780e-01 -6.3221074640750885e-02</leafValues></_>
        <_>
          <internalNodes>
            0 -1 438 -5.5426363833248615e-03</internalNodes>
          <leafValues>
            -6.4780902862548828e-01 5.6383866816759109e-02</leafValues></_></weakClassifiers></_>
    <!-- stage 4 -->
    <_>
      <maxWeakCount>33</maxWeakCount>
      <stageThreshold>-4.7599622607231140e-01</stageThreshold>
      <weakClassifiers>
        <_>
          <internalNodes>
            0 -1 551 2.2735835518687963e-03</internalNodes>
          <leafValues>
            4.8851644992828369e-01 8.8251489400863647e-01</leafValues></_>
        <_>
          <internalNodes>
            0 -1 365 6.9681536406278610e-03</internalNodes>
          <leafValues>
            -7.3953159153461456e-02 6.5865600109100342e-01</leafValues></_>
        <_>
          <internalNodes>
            0 -1 542 -1.8144154455512762e-03</internalNodes>
          <leafValues>
            6.7178535461425781e-01 -1.7168599367141724e-01</leafValues></_>
        <_>
          <internalNodes>
            0 -1 289 -9.2804187443107367e-04</internalNodes>
          <leafValues>
            4.1294291615486145e-01 -2.3908506333827972e-01</leafValues></_>
        <_>
          <internalNodes>
            0 -1 669 -1.2705472763627768e-03</internalNodes>
          <leafValues>
            4.8005160689353943e-01 -1.4983905851840973e-01</leafValues></_>
        <_>
          <internalNodes>
            0 -1 610 -1.1261350475251675e-02</internalNodes>
          <leafValues>
            5.8690541982650757e-01 -1.2697790563106537e-01</leafValues></_>
        <_>
          <internalNodes>
            0 -1 379 -1.3712115585803986e-02</internalNodes>
          <leafValues>
            2.9340603947639465e-01 -2.2277680039405823e-01</leafValues></_>
        <_>
          <internalNodes>
            0 -1 105 -6.2310874462127686e-02</internalNodes>
          <leafValues>
            3.4248262643814087e-01 -1.8445220589637756e-01</leafValues></_>
        <_>
          <internalNodes>
            0 -1 211 1.6915071755647659e-02</internalNodes>
          <leafValues>
            -1.4859803020954132e-01 3.9808785915374756e-01</leafValues></_>
        <_>
          <internalNodes>
            0 -1 298 4.4079530052840710e-03</internalNodes>
          <leafValues>
            -6.7220062017440796e-02 6.7863017320632935e-01</leafValues></_>
        <_>
          <internalNodes>
            0 -1 257 -1.4190779766067863e-03</internalNodes>
          <leafValues>
            3.7986186146736145e-01 -1.1977932602167130e-01</leafValues></_>
        <_>
          <internalNodes>
            0 -1 506 1.3055985327810049e-03</internalNodes>
          <leafValues>
            -1.7918439209461212e-01 2.4844707548618317e-01</leafValues></_>
        <_>
          <internalNodes>
            0 -1 476 7.4482364580035210e-03</internalNodes>
          <leafValues>
            9.8130255937576294e-02 -4.5759776234626770e-01</leafValues></_>
        <_>
          <internalNodes>
            0 -1 163 1.4817582443356514e-02</internalNodes>
          <leafValues>
            -1.3504561781883240e-01 2.8937566280364990e-01</leafValues></_>
        <_>
          <internalNodes>
            0 -1 522 1.0516526177525520e-02</internalNodes>
          <leafValues>
            -1.3470394909381866e-01 2.7071210741996765e-01</leafValues></_>
        <_>
          <internalNodes>
            0 -1 509 -1.6352675855159760e-02</internalNodes>
          <leafValues>
            4.3433907628059387e-01 -9.6928238868713379e-02</leafValues></_>
        <_>
          <internalNodes>
            0 -1 396 -1.0516000911593437e-02</internalNodes>
          <leafValues>
            -8.5535025596618652e-01 5.6878454983234406e-02</leafValues></_>
        <_>
          <internalNodes>
            0 -1 233 -7.7990991994738579e-03</internalNodes>
          <leafValues>
            -6.7530208826065063e-01 4.2434997856616974e-02</leafValues></_>
        <_>
          <internalNodes>
            0 -1 235 3.6365147680044174e-03</internalNodes>
          <leafValues>
            -8.5962019860744476e-02 5.5623900890350342e-01</leafValues></_>
        <_>
          <internalNodes>
            0 -1 143 -4.4958125799894333e-03</internalNodes>
          <leafValues>
            4.0628591179847717e-01 -9.3734405934810638e-02</leafValues></_>
        <_>
          <internalNodes>
            0 -1 474 4.3833918869495392e-02</internalNodes>
          <leafValues>
            -2.1771371364593506e-01 1.9327604770660400e-01</leafValues></_>
        <_>
          <internalNodes>
            0 -1 192 1.5292781591415405e-01</internalNodes>
          <leafValues>
            -6.1912138015031815e-02 6.1395025253295898e-01</leafValues></_>
        <_>
          <internalNodes>
            0 -1 329 -1.9976042211055756e-02</internalNodes>
          <leafValues>
            4.1038814187049866e-01 -1.0081176459789276e-01</leafValues></_>
        <_>
          <internalNodes>
            0 -1 667 -1.7562098801136017e-03</internalNodes>
          <leafValues>
            3.0230879783630371e-01 -1.2907576560974121e-01</leafValues></_>
        <_>
          <internalNodes>
            0 -1 62 -5.2673965692520142e-02</internalNodes>
          <leafValues>
            4.4573429226875305e-01 -8.6043082177639008e-02</leafValues></_>
        <_>
          <internalNodes>
            0 -1 374 3.1478967517614365e-02</internalNodes>
          <leafValues>
            -9.2565082013607025e-02 3.7196382880210876e-01</leafValues></_>
        <_>
          <internalNodes>
            0 -1 606 4.1293045505881310e-03</internalNodes>
          <leafValues>
            7.6530307531356812e-02 -5.2384966611862183e-01</leafValues></_>
        <_>
          <internalNodes>
            0 -1 588 -1.1059035314247012e-03</internalNodes>
          <leafValues>
            4.5205256342887878e-01 -8.4328815340995789e-02</leafValues></_>
        <_>
          <internalNodes>
            0 -1 320 2.0003955811262131e-02</internalNodes>
          <leafValues>
            -9.1632090508937836e-02 3.7393477559089661e-01</leafValues></_>
        <_>
          <internalNodes>
            0 -1 147 6.8980624200776219e-04</internalNodes>
          <leafValues>
            -8.5767664015293121e-02 3.9450207352638245e-01</leafValues></_>
        <_>
          <internalNodes>
            0 -1 403 -3.4301083069294691e-03</internalNodes>
          <leafValues>
            -4.8315966129302979e-01 7.7174201607704163e-02</leafValues></_>
        <_>
          <internalNodes>
            0 -1 9 -4.9037626013159752e-03</internalNodes>
          <leafValues>
            -3.9487558603286743e-01 7.6306156814098358e-02</leafValues></_>
        <_>
          <internalNodes>
            0 -1 327 4.6818926930427551e-03</internalNodes>
          <leafValues>
            -7.0321626961231232e-02 4.6216142177581787e-01</leafValues></_></weakClassifiers></_>
    <!-- stage 5 -->
    <_>
      <maxWeakCount>40</maxWeakCount>
      <stageThreshold>-4.2929029464721680e-01</stageThreshold>
      <weakClassifiers>
        <_>
          <internalNodes>
            0 -1 366 -2.4536870419979095e-02</internalNodes>
          <leafValues>
            8.9215683937072754e-01 5.0857144594192505e-01</leafValues></_>
        <_>
          <internalNodes>
            0 -1 538 -3.3915643580257893e-03</internalNodes>
          <leafValues>
            6.1273920536041260e-01 -2.2855430841445923e-02</leafValues></_>
        <_>
          <internalNodes>
            0 -1 202 -1.9559965585358441e-04</internalNodes>
          <leafValues>
            3.4506314992904663e-01 -2.8156137466430664e-01</leafValues></_>
        <_>
          <internalNodes>
            0 -1 336 -1.2429879978299141e-02</internalNodes>
          <leafValues>
            4.7845155000686646e-01 -1.7411024868488312e-01</leafValues></_>
        <_>
          <internalNodes>
            0 -1 180 9.2519871890544891e-02</internalNodes>
          <leafValues>
            -1.6600719094276428e-01 6.5389186143875122e-01</leafValues></_>
        <_>
          <internalNodes>
            0 -1 610 -7.3392847552895546e-03</internalNodes>
          <leafValues>
            4.5798227190971375e-01 -1.4752693474292755e-01</leafValues></_>
        <_>
          <internalNodes>
            0 -1 573 1.3523581437766552e-03</internalNodes>
          <leafValues>
            -1.6848945617675781e-01 3.3162608742713928e-01</leafValues></_>
        <_>
          <internalNodes>
            0 -1 483 6.8035118281841278e-02</internalNodes>
          <leafValues>
            -1.1451505869626999e-01 5.0582230091094971e-01</leafValues></_>
        <_>
          <internalNodes>
            0 -1 99 -1.1696945130825043e-01</internalNodes>
          <leafValues>
            3.7162613868713379e-01 -1.4881032705307007e-01</leafValues></_>
        <_>
          <internalNodes>
            0 -1 295 6.1009362339973450e-02</internalNodes>
          <leafValues>
            -8.4565401077270508e-02 5.2531564235687256e-01</leafValues></_>
        <_>
          <internalNodes>
            0 -1 423 -8.1693893298506737e-03</internalNodes>
          <leafValues>
            -6.0257041454315186e-01 6.9334551692008972e-02</leafValues></_>
        <_>
          <internalNodes>
            0 -1 240 2.0227828063070774e-03</internalNodes>
          <leafValues>
            -1.0980152338743210e-01 3.8781520724296570e-01</leafValues></_>
        <_>
          <internalNodes>
            0 -1 278 -3.5659637069329619e-04</internalNodes>
          <leafValues>
            2.5632488727569580e-01 -1.5804600715637207e-01</leafValues></_>
        <_>
          <internalNodes>
            0 -1 431 5.1116817630827427e-03</internalNodes>
          <leafValues>
            4.7456573694944382e-02 -7.8034794330596924e-01</leafValues></_>
        <_>
          <internalNodes>
            0 -1 645 -8.0450950190424919e-03</internalNodes>
          <leafValues>
            -6.6215860843658447e-01 4.5714564621448517e-02</leafValues></_>
        <_>
          <internalNodes>
            0 -1 648 3.4446418285369873e-03</internalNodes>
          <leafValues>
            4.4111136347055435e-02 -7.0529770851135254e-01</leafValues></_>
        <_>
          <internalNodes>
            0 -1 268 -1.5676366165280342e-02</internalNodes>
          <leafValues>
            2.6416134834289551e-01 -1.3664124906063080e-01</leafValues></_>
        <_>
          <internalNodes>
            0 -1 309 3.3143669366836548e-02</internalNodes>
          <leafValues>
            -9.8351471126079559e-02 3.6617755889892578e-01</leafValues></_>
        <_>
          <internalNodes>
            0 -1 44 1.5550170093774796e-02</internalNodes>
          <leafValues>
            -1.4818716049194336e-01 2.6581922173500061e-01</leafValues></_>
        <_>
          <internalNodes>
            0 -1 425 -3.1868116930127144e-03</internalNodes>
          <leafValues>
            -5.7231885194778442e-01 7.1517609059810638e-02</leafValues></_>
        <_>
          <internalNodes>
            0 -1 372 1.4102501794695854e-02</internalNodes>
          <leafValues>
            -1.0507688671350479e-01 3.4562534093856812e-01</leafValues></_>
        <_>
          <internalNodes>
            0 -1 672 -3.3632043050602078e-04</internalNodes>
          <leafValues>
            2.7365475893020630e-01 -1.2568370997905731e-01</leafValues></_>
        <_>
          <internalNodes>
            0 -1 584 -8.6177438497543335e-03</internalNodes>
          <leafValues>
            3.2806962728500366e-01 -1.0547429323196411e-01</leafValues></_>
        <_>
          <internalNodes>
            0 -1 78 4.2019918560981750e-02</internalNodes>
          <leafValues>
            -1.1809302866458893e-01 2.8522413969039917e-01</leafValues></_>
        <_>
          <internalNodes>
            0 -1 58 -1.1219546943902969e-01</internalNodes>
          <leafValues>
            4.0885767340660095e-01 -9.9381268024444580e-02</leafValues></_>
        <_>
          <internalNodes>
            0 -1 59 1.7738932371139526e-01</internalNodes>
          <leafValues>
            -7.4472099542617798e-02 5.4694485664367676e-01</leafValues></_>
        <_>
          <internalNodes>
            0 -1 123 6.6650770604610443e-03</internalNodes>
          <leafValues>
            -1.2945218384265900e-01 2.6305463910102844e-01</leafValues></_>
        <_>
          <internalNodes>
            0 -1 563 -8.3504915237426758e-03</internalNodes>
          <leafValues>
            2.9172194004058838e-01 -1.1020618677139282e-01</leafValues></_>
        <_>
          <internalNodes>
            0 -1 284 -3.2561814878135920e-03</internalNodes>
          <leafValues>
            5.1436120271682739e-01 -6.8981938064098358e-02</leafValues></_>
        <_>
          <internalNodes>
            0 -1 486 1.4548078179359436e-03</internalNodes>
          <leafValues>
            7.0931144058704376e-02 -5.3127449750900269e-01</leafValues></_>
        <_>
          <internalNodes>
            0 -1 216 -6.9067813456058502e-03</internalNodes>
          <leafValues>
            -6.1495536565780640e-01 4.7344405204057693e-02</leafValues></_>
        <_>
          <internalNodes>
            0 -1 524 -6.8508830736391246e-05</internalNodes>
          <leafValues>
            2.0890283584594727e-01 -1.5737226605415344e-01</leafValues></_>
        <_>
          <internalNodes>
            0 -1 468 2.2171039134263992e-02</internalNodes>
          <leafValues>
            -1.1425665766000748e-01 2.9798698425292969e-01</leafValues></_>
        <_>
          <internalNodes>
            0 -1 631 -8.1386603415012360e-03</internalNodes>
          <leafValues>
            -8.3034539222717285e-01 4.5078244060277939e-02</leafValues></_>
        <_>
          <internalNodes>
            0 -1 577 3.0231457203626633e-03</internalNodes>
          <leafValues>
            -1.1602903157472610e-01 3.1792968511581421e-01</leafValues></_>
        <_>
          <internalNodes>
            0 -1 464 -2.3464662954211235e-02</internalNodes>
          <leafValues>
            2.3416437208652496e-01 -1.3466908037662506e-01</leafValues></_>
        <_>
          <internalNodes>
            0 -1 7 -1.1372394859790802e-01</internalNodes>
          <leafValues>
            -4.7048959136009216e-01 7.0972345769405365e-02</leafValues></_>
        <_>
          <internalNodes>
            0 -1 450 -1.5094605041667819e-03</internalNodes>
          <leafValues>
            2.0072305202484131e-01 -1.6607435047626495e-01</leafValues></_>
        <_>
          <internalNodes>
            0 -1 432 4.7979280352592468e-03</internalNodes>
          <leafValues>
            4.8396490514278412e-02 -5.8551412820816040e-01</leafValues></_>
        <_>
          <internalNodes>
            0 -1 82 -1.1469864100217819e-01</internalNodes>
          <leafValues>
            4.9885022640228271e-01 -6.4359210431575775e-02</leafValues></_></weakClassifiers></_>
    <!-- stage 6 -->
    <_>
      <maxWeakCount>46</maxWeakCount>
      <stageThreshold>-4.7701427340507507e-01</stageThreshold>
      <weakClassifiers>
        <_>
          <internalNodes>
            0 -1 519 -6.8645831197500229e-03</internalNodes>
          <leafValues>
            8.9107578992843628e-01 5.4637044668197632e-01</leafValues></_>
        <_>
          <internalNodes>
            0 -1 535 -2.9819007031619549e-03</internalNodes>
          <leafValues>
            6.3213592767715454e-01 2.3963790386915207e-02</leafValues></_>
        <_>
          <internalNodes>
            0 -1 227 -1.1978158727288246e-02</internalNodes>
          <leafValues>
            6.0033911466598511e-01 -1.2191949784755707e-01</leafValues></_>
        <_>
          <internalNodes>
            0 -1 293 1.7086708685383201e-03</internalNodes>
          <leafValues>
            -2.9134213924407959e-01 2.7067205309867859e-01</leafValues></_>
        <_>
          <internalNodes>
            0 -1 137 6.9091424345970154e-02</internalNodes>
          <leafValues>
            -9.4343580305576324e-02 7.1623247861862183e-01</leafValues></_>
        <_>
          <internalNodes>
            0 -1 553 -3.1440309248864651e-03</internalNodes>
          <leafValues>
            6.9800668954849243e-01 -9.2067390680313110e-02</leafValues></_>
        <_>
          <internalNodes>
            0 -1 185 1.6159766912460327e-01</internalNodes>
          <leafValues>
            -8.1201329827308655e-02 6.4300888776779175e-01</leafValues></_>
        <_>
          <internalNodes>
            0 -1 52 1.4371412992477417e-01</internalNodes>
          <leafValues>
            -1.1528284847736359e-01 4.2484959959983826e-01</leafValues></_>
        <_>
          <internalNodes>
            0 -1 97 1.7293009161949158e-01</internalNodes>
          <leafValues>
            -9.3704879283905029e-02 4.9806445837020874e-01</leafValues></_>
        <_>
          <internalNodes>
            0 -1 140 2.0351093262434006e-03</internalNodes>
          <leafValues>
            -1.7148597538471222e-01 2.9966986179351807e-01</leafValues></_>
        <_>
          <internalNodes>
            0 -1 310 -2.1751645952463150e-02</internalNodes>
          <leafValues>
            3.4074062108993530e-01 -1.5767998993396759e-01</leafValues></_>
        <_>
          <internalNodes>
            0 -1 623 -1.8986808136105537e-03</internalNodes>
          <leafValues>
            4.3228194117546082e-01 -1.0944324731826782e-01</leafValues></_>
        <_>
          <internalNodes>
            0 -1 452 -9.4259157776832581e-03</internalNodes>
          <leafValues>
            3.4805476665496826e-01 -1.2028417736291885e-01</leafValues></_>
        <_>
          <internalNodes>
            0 -1 597 -4.0052815165836364e-05</internalNodes>
          <leafValues>
            1.9838677346706390e-01 -2.1952490508556366e-01</leafValues></_>
        <_>
          <internalNodes>
            0 -1 77 -2.3111227899789810e-02</internalNodes>
          <leafValues>
            -2.8272294998168945e-01 1.4426355063915253e-01</leafValues></_>
        <_>
          <internalNodes>
            0 -1 235 2.3977081291377544e-03</internalNodes>
          <leafValues>
            -1.0551080107688904e-01 3.7371236085891724e-01</leafValues></_>
        <_>
          <internalNodes>
            0 -1 654 -2.2133688908070326e-03</internalNodes>
          <leafValues>
            -5.6137704849243164e-01 7.5674362480640411e-02</leafValues></_>
        <_>
          <internalNodes>
            0 -1 236 -4.9524921923875809e-03</internalNodes>
          <leafValues>
            4.8415800929069519e-01 -7.5278624892234802e-02</leafValues></_>
        <_>
          <internalNodes>
            0 -1 15 1.2625024653971195e-02</internalNodes>
          <leafValues>
            4.6338777989149094e-02 -7.8593707084655762e-01</leafValues></_>
        <_>
          <internalNodes>
            0 -1 15 -6.8455925211310387e-03</internalNodes>
          <leafValues>
            -4.8073530197143555e-01 5.9533908963203430e-02</leafValues></_>
        <_>
          <internalNodes>
            0 -1 32 -6.7874789237976074e-02</internalNodes>
          <leafValues>
            -4.6763908863067627e-01 6.8470478057861328e-02</leafValues></_>
        <_>
          <internalNodes>
            0 -1 541 4.0428721695207059e-04</internalNodes>
          <leafValues>
            -1.2594494223594666e-01 2.5544220209121704e-01</leafValues></_>
        <_>
          <internalNodes>
            0 -1 330 6.5811275271698833e-04</internalNodes>
          <leafValues>
            -1.0238601267337799e-01 3.0779469013214111e-01</leafValues></_>
        <_>
          <internalNodes>
            0 -1 8 1.3888972997665405e-01</internalNodes>
          <leafValues>
            7.5265541672706604e-02 -4.5275053381919861e-01</leafValues></_>
        <_>
          <internalNodes>
            0 -1 578 -6.2890276312828064e-03</internalNodes>
          <leafValues>
            -6.0233634710311890e-01 5.0337370485067368e-02</leafValues></_>
        <_>
          <internalNodes>
            0 -1 576 3.6990509834140539e-03</internalNodes>
          <leafValues>
            -7.9437963664531708e-02 4.0914848446846008e-01</leafValues></_>
        <_>
          <internalNodes>
            0 -1 400 -5.7963896542787552e-03</internalNodes>
          <leafValues>
            -6.7819321155548096e-01 4.9959804862737656e-02</leafValues></_>
        <_>
          <internalNodes>
            0 -1 467 -8.1668992061167955e-04</internalNodes>
          <leafValues>
            -3.5112369060516357e-01 8.3611436188220978e-02</leafValues></_>
        <_>
          <internalNodes>
            0 -1 419 -2.2737730294466019e-02</internalNodes>
          <leafValues>
            3.8800308108329773e-01 -8.3361700177192688e-02</leafValues></_>
        <_>
          <internalNodes>
            0 -1 516 2.2142037749290466e-02</internalNodes>
          <leafValues>
            -8.1407502293586731e-02 3.7785109877586365e-01</leafValues></_>
        <_>
          <internalNodes>
            0 -1 198 -6.2308311462402344e-02</internalNodes>
          <leafValues>
            2.6283085346221924e-01 -1.3071659207344055e-01</leafValues></_>
        <_>
          <internalNodes>
            0 -1 210 1.0183364897966385e-01</internalNodes>
          <leafValues>
            -9.0458184480667114e-02 4.0754476189613342e-01</leafValues></_>
        <_>
          <internalNodes>
            0 -1 258 -4.2874854989349842e-03</internalNodes>
          <leafValues>
            4.6102020144462585e-01 -5.8673962950706482e-02</leafValues></_>
        <_>
          <internalNodes>
            0 -1 257 1.2560884933918715e-03</internalNodes>
          <leafValues>
            -1.0813792049884796e-01 2.7420315146446228e-01</leafValues></_>
        <_>
          <internalNodes>
            0 -1 45 1.9974368624389172e-03</internalNodes>
          <leafValues>
            6.5927423536777496e-02 -4.5882573723793030e-01</leafValues></_>
        <_>
          <internalNodes>
            0 -1 476 1.2455779127776623e-02</internalNodes>
          <leafValues>
            3.9797376841306686e-02 -6.0902982950210571e-01</leafValues></_>
        <_>
          <internalNodes>
            0 -1 317 -5.5778009118512273e-04</internalNodes>
          <leafValues>
            2.2029803693294525e-01 -1.3266544044017792e-01</leafValues></_>
        <_>
          <internalNodes>
            0 -1 340 -7.2696767747402191e-03</internalNodes>
          <leafValues>
            4.0859615802764893e-01 -7.2154715657234192e-02</leafValues></_>
        <_>
          <internalNodes>
            0 -1 624 -1.4040537644177675e-03</internalNodes>
          <leafValues>
            3.2005310058593750e-01 -8.3724990487098694e-02</leafValues></_>
        <_>
          <internalNodes>
            0 -1 249 -4.6178232878446579e-03</internalNodes>
          <leafValues>
            -4.8795312643051147e-01 5.9251818805932999e-02</leafValues></_>
        <_>
          <internalNodes>
            0 -1 264 -4.5202071778476238e-03</internalNodes>
          <leafValues>
            -5.3490948677062988e-01 4.4914714992046356e-02</leafValues></_>
        <_>
          <internalNodes>
            0 -1 440 -3.1201960518956184e-03</internalNodes>
          <leafValues>
            3.1732669472694397e-01 -8.9913249015808105e-02</leafValues></_>
        <_>
          <internalNodes>
            0 -1 663 2.6922011747956276e-03</internalNodes>
          <leafValues>
            3.7347164005041122e-02 -7.9341530799865723e-01</leafValues></_>
        <_>
          <internalNodes>
            0 -1 491 3.8882780354470015e-03</internalNodes>
          <leafValues>
            -8.1940487027168274e-02 3.8275381922721863e-01</leafValues></_>
        <_>
          <internalNodes>
            0 -1 206 6.4608175307512283e-03</internalNodes>
          <leafValues>
            -9.6713237464427948e-02 2.6830747723579407e-01</leafValues></_>
        <_>
          <internalNodes>
            0 -1 527 -3.6763462703675032e-03</internalNodes>
          <leafValues>
            -4.1892406344413757e-01 6.5342657268047333e-02</leafValues></_></weakClassifiers></_>
    <!-- stage 7 -->
    <_>
      <maxWeakCount>39</maxWeakCount>
      <stageThreshold>-3.6154872179031372e-01</stageThreshold>
      <weakClassifiers>
        <_>
          <internalNodes>
            0 -1 154 9.1692715883255005e-02</internalNodes>
          <leafValues>
            5.7937586307525635e-01 9.0500319004058838e-01</leafValues></_>
        <_>
          <internalNodes>
            0 -1 536 -4.5499405823647976e-03</internalNodes>
          <leafValues>
            6.6028600931167603e-01 4.5013777911663055e-02</leafValues></_>
        <_>
          <internalNodes>
            0 -1 608 -2.1750513464212418e-02</internalNodes>
          <leafValues>
            6.9708985090255737e-01 -7.5505159795284271e-02</leafValues></_>
        <_>
          <internalNodes>
            0 -1 251 2.8958823531866074e-03</internalNodes>
          <leafValues>
            -2.2513563930988312e-01 4.0500500798225403e-01</leafValues></_>
        <_>
          <internalNodes>
            0 -1 477 -3.1457478180527687e-03</internalNodes>
          <leafValues>
            -5.6254625320434570e-01 1.0971879959106445e-01</leafValues></_>
        <_>
          <internalNodes>
            0 -1 205 1.0723175946623087e-03</internalNodes>
          <leafValues>
            -1.3247613608837128e-01 4.2132717370986938e-01</leafValues></_>
        <_>
          <internalNodes>
            0 -1 451 -3.1811892986297607e-03</internalNodes>
          <leafValues>
            -6.1190992593765259e-01 7.5917221605777740e-02</leafValues></_>
        <_>
          <internalNodes>
            0 -1 158 -4.3332301080226898e-02</internalNodes>
          <leafValues>
            8.9055818319320679e-01 -6.3634388148784637e-02</leafValues></_>
        <_>
          <internalNodes>
            0 -1 252 -6.4257532358169556e-02</internalNodes>
          <leafValues>
            3.9922848343849182e-01 -1.1994233727455139e-01</leafValues></_>
        <_>
          <internalNodes>
            0 -1 571 8.5443910211324692e-04</internalNodes>
          <leafValues>
            -1.9740428030490875e-01 1.9871589541435242e-01</leafValues></_>
        <_>
          <internalNodes>
            0 -1 652 -5.1385592669248581e-03</internalNodes>
          <leafValues>
            -7.1281248331069946e-01 5.7153921574354172e-02</leafValues></_>
        <_>
          <internalNodes>
            0 -1 88 -1.1910530702152755e-05</internalNodes>
          <leafValues>
            1.7294493317604065e-01 -2.2217077016830444e-01</leafValues></_>
        <_>
          <internalNodes>
            0 -1 131 9.5430556684732437e-03</internalNodes>
          <leafValues>
            5.7080227881669998e-02 -6.4341753721237183e-01</leafValues></_>
        <_>
          <internalNodes>
            0 -1 124 4.6521732583642006e-03</internalNodes>
          <leafValues>
            3.7345502525568008e-02 -7.3497432470321655e-01</leafValues></_>
        <_>
          <internalNodes>
            0 -1 330 -6.3843571115285158e-04</internalNodes>
          <leafValues>
            3.4193062782287598e-01 -1.1126895248889923e-01</leafValues></_>
        <_>
          <internalNodes>
            0 -1 330 4.4800754403695464e-04</internalNodes>
          <leafValues>
            -1.5002688765525818e-01 2.7449274063110352e-01</leafValues></_>
        <_>
          <internalNodes>
            0 -1 13 -4.3210433796048164e-03</internalNodes>
          <leafValues>
            -5.4166573286056519e-01 6.9328382611274719e-02</leafValues></_>
        <_>
          <internalNodes>
            0 -1 388 5.2303057163953781e-03</internalNodes>
          <leafValues>
            -1.5600118041038513e-01 2.3332476615905762e-01</leafValues></_>
        <_>
          <internalNodes>
            0 -1 179 -8.9126713573932648e-03</internalNodes>
          <leafValues>
            -5.9065508842468262e-01 6.1381578445434570e-02</leafValues></_>
        <_>
          <internalNodes>
            0 -1 375 7.8027114272117615e-02</internalNodes>
          <leafValues>
            -8.0218032002449036e-02 4.4205960631370544e-01</leafValues></_>
        <_>
          <internalNodes>
            0 -1 426 -5.6724636815488338e-03</internalNodes>
          <leafValues>
            -7.4504631757736206e-01 5.1981370896100998e-02</leafValues></_>
        <_>
          <internalNodes>
            0 -1 674 7.8292412217706442e-04</internalNodes>
          <leafValues>
            -1.0320504009723663e-01 3.4387594461441040e-01</leafValues></_>
        <_>
          <internalNodes>
            0 -1 60 -1.0411170311272144e-02</internalNodes>
          <leafValues>
            -5.7116657495498657e-01 5.7984687387943268e-02</leafValues></_>
        <_>
          <internalNodes>
            0 -1 600 8.5494900122284889e-04</internalNodes>
          <leafValues>
            -1.3535104691982269e-01 2.4144135415554047e-01</leafValues></_>
        <_>
          <internalNodes>
            0 -1 261 6.5093442797660828e-02</internalNodes>
          <leafValues>
            -7.4032053351402283e-02 4.6678462624549866e-01</leafValues></_>
        <_>
          <internalNodes>
            0 -1 550 4.7269824426621199e-04</internalNodes>
          <leafValues>
            -1.5160296857357025e-01 2.2492761909961700e-01</leafValues></_>
        <_>
          <internalNodes>
            0 -1 605 -1.0889027267694473e-02</internalNodes>
          <leafValues>
            -4.5889133214950562e-01 7.9090036451816559e-02</leafValues></_>
        <_>
          <internalNodes>
            0 -1 427 -3.5717301070690155e-02</internalNodes>
          <leafValues>
            3.3944264054298401e-01 -1.0689954459667206e-01</leafValues></_>
        <_>
          <internalNodes>
            0 -1 87 -1.0080477595329285e-01</internalNodes>
          <leafValues>
            2.7074545621871948e-01 -1.2652963399887085e-01</leafValues></_>
        <_>
          <internalNodes>
            0 -1 70 3.6016736179590225e-02</internalNodes>
          <leafValues>
            -8.8505595922470093e-02 4.1267162561416626e-01</leafValues></_>
        <_>
          <internalNodes>
            0 -1 651 4.5333737507462502e-03</internalNodes>
          <leafValues>
            6.4081974327564240e-02 -6.2051790952682495e-01</leafValues></_>
        <_>
          <internalNodes>
            0 -1 513 6.3117535319179296e-04</internalNodes>
          <leafValues>
            -1.4630252122879028e-01 2.2299414873123169e-01</leafValues></_>
        <_>
          <internalNodes>
            0 -1 590 -7.8647257760167122e-03</internalNodes>
          <leafValues>
            -4.6651169657707214e-01 7.3729030787944794e-02</leafValues></_>
        <_>
          <internalNodes>
            0 -1 639 -3.1371880322694778e-03</internalNodes>
          <leafValues>
            3.4281316399574280e-01 -1.0059869289398193e-01</leafValues></_>
        <_>
          <internalNodes>
            0 -1 586 1.5019520651549101e-03</internalNodes>
          <leafValues>
            -1.4804193377494812e-01 3.0799654126167297e-01</leafValues></_>
        <_>
          <internalNodes>
            0 -1 46 3.6489400081336498e-03</internalNodes>
          <leafValues>
            6.5907627344131470e-02 -5.5066251754760742e-01</leafValues></_>
        <_>
          <internalNodes>
            0 -1 39 1.4884755364619195e-04</internalNodes>
          <leafValues>
            -1.9936557114124298e-01 1.8005205690860748e-01</leafValues></_>
        <_>
          <internalNodes>
            0 -1 290 5.6465680245310068e-04</internalNodes>
          <leafValues>
            -1.7013794183731079e-01 1.8187019228935242e-01</leafValues></_>
        <_>
          <internalNodes>
            0 -1 444 -3.5977750085294247e-03</internalNodes>
          <leafValues>
            -5.5652683973312378e-01 5.9268772602081299e-02</leafValues></_></weakClassifiers></_>
    <!-- stage 8 -->
    <_>
      <maxWeakCount>45</maxWeakCount>
      <stageThreshold>-3.7552285194396973e-01</stageThreshold>
      <weakClassifiers>
        <_>
          <internalNodes>
            0 -1 406 -2.2216867655515671e-02</internalNodes>
          <leafValues>
            8.7676769495010376e-01 5.3812152147293091e-01</leafValues></_>
        <_>
          <internalNodes>
            0 -1 530 -7.5975744985044003e-03</internalNodes>
          <leafValues>
            7.0642936229705811e-01 3.1129699200391769e-02</leafValues></_>
        <_>
          <internalNodes>
            0 -1 273 -1.1615995317697525e-02</internalNodes>
          <leafValues>
            5.5720883607864380e-01 -1.0728529840707779e-01</leafValues></_>
        <_>
          <internalNodes>
            0 -1 673 -1.6871902626007795e-03</internalNodes>
          <leafValues>
            4.7057092189788818e-01 -2.0305861532688141e-01</leafValues></_>
        <_>
          <internalNodes>
            0 -1 323 -7.6352870091795921e-03</internalNodes>
          <leafValues>
            5.2118003368377686e-01 -1.0491761565208435e-01</leafValues></_>
        <_>
          <internalNodes>
            0 -1 683 1.4713875134475529e-04</internalNodes>
          <leafValues>
            -2.1488936245441437e-01 2.3593553900718689e-01</leafValues></_>
        <_>
          <internalNodes>
            0 -1 245 9.8790436983108521e-02</internalNodes>
          <leafValues>
            -8.1316329538822174e-02 5.9197372198104858e-01</leafValues></_>
        <_>
          <internalNodes>
            0 -1 526 5.7001188397407532e-03</internalNodes>
          <leafValues>
            -8.6455501616001129e-02 5.1915723085403442e-01</leafValues></_>
        <_>
          <internalNodes>
            0 -1 617 1.5045588370412588e-03</internalNodes>
          <leafValues>
            -1.5115299820899963e-01 2.7895838022232056e-01</leafValues></_>
        <_>
          <internalNodes>
            0 -1 576 -2.9128124006092548e-03</internalNodes>
          <leafValues>
            3.9520198106765747e-01 -1.1666393280029297e-01</leafValues></_>
        <_>
          <internalNodes>
            0 -1 75 1.3162986375391483e-02</internalNodes>
          <leafValues>
            -1.8558399379253387e-01 2.1834738552570343e-01</leafValues></_>
        <_>
          <internalNodes>
            0 -1 466 7.3189036920666695e-03</internalNodes>
          <leafValues>
            7.0335015654563904e-02 -6.1267870664596558e-01</leafValues></_>
        <_>
          <internalNodes>
            0 -1 638 1.0489814449101686e-03</internalNodes>
          <leafValues>
            -1.0347418487071991e-01 3.5014364123344421e-01</leafValues></_>
        <_>
          <internalNodes>
            0 -1 142 -4.2364941909909248e-03</internalNodes>
          <leafValues>
            3.8209474086761475e-01 -9.2871092259883881e-02</leafValues></_>
        <_>
          <internalNodes>
            0 -1 447 3.5355417057871819e-03</internalNodes>
          <leafValues>
            5.2755348384380341e-02 -7.2331279516220093e-01</leafValues></_>
        <_>
          <internalNodes>
            0 -1 220 6.3227382488548756e-03</internalNodes>
          <leafValues>
            4.9024574458599091e-02 -5.7442075014114380e-01</leafValues></_>
        <_>
          <internalNodes>
            0 -1 174 -6.0615623369812965e-03</internalNodes>
          <leafValues>
            -5.6855815649032593e-01 5.2453827112913132e-02</leafValues></_>
        <_>
          <internalNodes>
            0 -1 681 3.4318587859161198e-04</internalNodes>
          <leafValues>
            -1.7612585425376892e-01 1.7836631834506989e-01</leafValues></_>
        <_>
          <internalNodes>
            0 -1 244 1.3021063059568405e-02</internalNodes>
          <leafValues>
            -1.4189909398555756e-01 2.3117266595363617e-01</leafValues></_>
        <_>
          <internalNodes>
            0 -1 155 -2.0221269130706787e-01</internalNodes>
          <leafValues>
            4.1084671020507812e-01 -1.1079232394695282e-01</leafValues></_>
        <_>
          <internalNodes>
            0 -1 260 9.1355800628662109e-02</internalNodes>
          <leafValues>
            -9.4701357185840607e-02 3.2812553644180298e-01</leafValues></_>
        <_>
          <internalNodes>
            0 -1 166 1.0672446340322495e-02</internalNodes>
          <leafValues>
            -1.5852771699428558e-01 2.4553468823432922e-01</leafValues></_>
        <_>
          <internalNodes>
            0 -1 668 -7.1224750718101859e-04</internalNodes>
          <leafValues>
            3.1582027673721313e-01 -9.7415573894977570e-02</leafValues></_>
        <_>
          <internalNodes>
            0 -1 658 -2.6284260675311089e-03</internalNodes>
          <leafValues>
            -6.1996144056320190e-01 5.0728294998407364e-02</leafValues></_>
        <_>
          <internalNodes>
            0 -1 627 -1.8882874865084887e-03</internalNodes>
          <leafValues>
            1.8358330428600311e-01 -1.6727176308631897e-01</leafValues></_>
        <_>
          <internalNodes>
            0 -1 687 -7.9415170475840569e-03</internalNodes>
          <leafValues>
            -6.6598558425903320e-01 4.5041002333164215e-02</leafValues></_>
        <_>
          <internalNodes>
            0 -1 443 -4.1849099099636078e-02</internalNodes>
          <leafValues>
            2.1663284301757812e-01 -1.4106635749340057e-01</leafValues></_>
        <_>
          <internalNodes>
            0 -1 394 3.8116876035928726e-02</internalNodes>
          <leafValues>
            -1.0071338713169098e-01 3.8386014103889465e-01</leafValues></_>
        <_>
          <internalNodes>
            0 -1 186 5.0449177622795105e-02</internalNodes>
          <leafValues>
            6.9058761000633240e-02 -4.9371498823165894e-01</leafValues></_>
        <_>
          <internalNodes>
            0 -1 441 -1.6830906271934509e-02</internalNodes>
          <leafValues>
            3.0164822936058044e-01 -1.0825217515230179e-01</leafValues></_>
        <_>
          <internalNodes>
            0 -1 665 -3.9320569485425949e-03</internalNodes>
          <leafValues>
            -8.0039346218109131e-01 4.3790828436613083e-02</leafValues></_>
        <_>
          <internalNodes>
            0 -1 601 3.9495299570262432e-03</internalNodes>
          <leafValues>
            -9.1790348291397095e-02 3.8468733429908752e-01</leafValues></_>
        <_>
          <internalNodes>
            0 -1 602 -5.7107419706881046e-04</internalNodes>
          <leafValues>
            2.3357516527175903e-01 -1.3139617443084717e-01</leafValues></_>
        <_>
          <internalNodes>
            0 -1 319 1.5799604356288910e-02</internalNodes>
          <leafValues>
            -1.0224314779043198e-01 3.0442082881927490e-01</leafValues></_>
        <_>
          <internalNodes>
            0 -1 503 -3.2391850836575031e-03</internalNodes>
          <leafValues>
            -7.2336483001708984e-01 4.7435078769922256e-02</leafValues></_>
        <_>
          <internalNodes>
            0 -1 65 1.8789625167846680e-01</internalNodes>
          <leafValues>
            -5.5945619940757751e-02 6.1842870712280273e-01</leafValues></_>
        <_>
          <internalNodes>
            0 -1 357 -9.2736771330237389e-04</internalNodes>
          <leafValues>
            2.0509530603885651e-01 -1.5015465021133423e-01</leafValues></_>
        <_>
          <internalNodes>
            0 -1 212 -2.4313232861459255e-03</internalNodes>
          <leafValues>
            -5.6081646680831909e-01 6.0348380357027054e-02</leafValues></_>
        <_>
          <internalNodes>
            0 -1 92 -2.0718560554087162e-03</internalNodes>
          <leafValues>
            2.9705494642257690e-01 -1.0797376185655594e-01</leafValues></_>
        <_>
          <internalNodes>
            0 -1 38 -9.4441007822751999e-03</internalNodes>
          <leafValues>
            -6.3779270648956299e-01 4.6744093298912048e-02</leafValues></_>
        <_>
          <internalNodes>
            0 -1 250 2.0765359513461590e-03</internalNodes>
          <leafValues>
            -1.1415813863277435e-01 2.7868852019309998e-01</leafValues></_>
        <_>
          <internalNodes>
            0 -1 428 -4.4477405026555061e-03</internalNodes>
          <leafValues>
            -5.2424716949462891e-01 6.0159299522638321e-02</leafValues></_>
        <_>
          <internalNodes>
            0 -1 266 -6.8124989047646523e-03</internalNodes>
          <leafValues>
            1.5716059505939484e-01 -1.9061371684074402e-01</leafValues></_>
        <_>
          <internalNodes>
            0 -1 165 1.4294711872935295e-02</internalNodes>
          <leafValues>
            4.3696962296962738e-02 -5.8378136157989502e-01</leafValues></_>
        <_>
          <internalNodes>
            0 -1 308 -3.3447604626417160e-02</internalNodes>
          <leafValues>
            2.5242048501968384e-01 -1.1056447029113770e-01</leafValues></_></weakClassifiers></_>
    <!-- stage 9 -->
    <_>
      <maxWeakCount>48</maxWeakCount>
      <stageThreshold>-4.0240931510925293e-01</stageThreshold>
      <weakClassifiers>
        <_>
          <internalNodes>
            0 -1 371 1.3177602086216211e-03</internalNodes>
          <leafValues>
            5.1881718635559082e-01 8.4187662601470947e-01</leafValues></_>
        <_>
          <internalNodes>
            0 -1 594 -1.3627149164676666e-03</internalNodes>
          <leafValues>
            5.2815359830856323e-01 -5.3320322185754776e-02</leafValues></_>
        <_>
          <internalNodes>
            0 -1 263 4.9635032191872597e-03</internalNodes>
          <leafValues>
            -1.0780035704374313e-01 6.1586117744445801e-01</leafValues></_>
        <_>
          <internalNodes>
            0 -1 262 -2.6051164604723454e-03</internalNodes>
          <leafValues>
            4.7379356622695923e-01 -2.1456755697727203e-01</leafValues></_>
        <_>
          <internalNodes>
            0 -1 537 -3.4319362603127956e-03</internalNodes>
          <leafValues>
            3.4693887829780579e-01 -1.5887524187564850e-01</leafValues></_>
        <_>
          <internalNodes>
            0 -1 134 -1.1522419750690460e-01</internalNodes>
          <leafValues>
            5.9629672765731812e-01 -8.2488700747489929e-02</leafValues></_>
        <_>
          <internalNodes>
            0 -1 172 2.4307571351528168e-02</internalNodes>
          <leafValues>
            -2.4178263545036316e-01 2.7914649248123169e-01</leafValues></_>
        <_>
          <internalNodes>
            0 -1 469 1.8959360197186470e-02</internalNodes>
          <leafValues>
            -1.5831004083156586e-01 2.9295441508293152e-01</leafValues></_>
        <_>
          <internalNodes>
            0 -1 603 -4.2507806792855263e-03</internalNodes>
          <leafValues>
            -6.7848354578018188e-01 5.4492052644491196e-02</leafValues></_>
        <_>
          <internalNodes>
            0 -1 188 1.3092554872855544e-03</internalNodes>
          <leafValues>
            -1.0504843294620514e-01 3.8556814193725586e-01</leafValues></_>
        <_>
          <internalNodes>
            0 -1 182 2.4524778127670288e-03</internalNodes>
          <leafValues>
            -9.4028063118457794e-02 4.1504177451133728e-01</leafValues></_>
        <_>
          <internalNodes>
            0 -1 21 -1.0924585163593292e-02</internalNodes>
          <leafValues>
            2.7866232395172119e-01 -1.5453295409679413e-01</leafValues></_>
        <_>
          <internalNodes>
            0 -1 1 -6.0557741671800613e-03</internalNodes>
          <leafValues>
            -5.0171846151351929e-01 7.9545766115188599e-02</leafValues></_>
        <_>
          <internalNodes>
            0 -1 478 -2.1201199851930141e-03</internalNodes>
          <leafValues>
            -5.7428395748138428e-01 5.6903894990682602e-02</leafValues></_>
        <_>
          <internalNodes>
            0 -1 28 -6.5843269228935242e-02</internalNodes>
          <leafValues>
            2.7384144067764282e-01 -1.3267286121845245e-01</leafValues></_>
        <_>
          <internalNodes>
            0 -1 130 5.3335521370172501e-03</internalNodes>
          <leafValues>
            8.2170143723487854e-02 -4.5273414254188538e-01</leafValues></_>
        <_>
          <internalNodes>
            0 -1 159 1.8325226847082376e-03</internalNodes>
          <leafValues>
            -6.1492335051298141e-02 5.6267333030700684e-01</leafValues></_>
        <_>
          <internalNodes>
            0 -1 53 2.3235171101987362e-03</internalNodes>
          <leafValues>
            7.4533253908157349e-02 -4.7644025087356567e-01</leafValues></_>
        <_>
          <internalNodes>
            0 -1 51 1.5075411647558212e-02</internalNodes>
          <leafValues>
            -1.3939678668975830e-01 2.2406414151191711e-01</leafValues></_>
        <_>
          <internalNodes>
            0 -1 215 7.8891947865486145e-02</internalNodes>
          <leafValues>
            -1.3285151124000549e-01 2.6844805479049683e-01</leafValues></_>
        <_>
          <internalNodes>
            0 -1 246 -1.0629959404468536e-01</internalNodes>
          <leafValues>
            -7.3379975557327271e-01 4.6506110578775406e-02</leafValues></_>
        <_>
          <internalNodes>
            0 -1 277 1.2404881417751312e-01</internalNodes>
          <leafValues>
            -1.0425432026386261e-01 3.0854618549346924e-01</leafValues></_>
        <_>
          <internalNodes>
            0 -1 36 -1.0416121035814285e-01</internalNodes>
          <leafValues>
            8.2791912555694580e-01 -3.9688527584075928e-02</leafValues></_>
        <_>
          <internalNodes>
            0 -1 356 1.4601772418245673e-03</internalNodes>
          <leafValues>
            -8.3622604608535767e-02 3.5146051645278931e-01</leafValues></_>
        <_>
          <internalNodes>
            0 -1 129 -9.4097666442394257e-03</internalNodes>
          <leafValues>
            -6.4911746978759766e-01 5.8865413069725037e-02</leafValues></_>
        <_>
          <internalNodes>
            0 -1 636 1.9848933443427086e-03</internalNodes>
          <leafValues>
            4.1007306426763535e-02 -6.3425731658935547e-01</leafValues></_>
        <_>
          <internalNodes>
            0 -1 414 4.2834383202716708e-04</internalNodes>
          <leafValues>
            -1.6382503509521484e-01 1.9888831675052643e-01</leafValues></_>
        <_>
          <internalNodes>
            0 -1 542 1.6994120087474585e-03</internalNodes>
          <leafValues>
            -6.7340128123760223e-02 4.1657575964927673e-01</leafValues></_>
        <_>
          <internalNodes>
            0 -1 442 -1.1550374329090118e-02</internalNodes>
          <leafValues>
            -7.6033622026443481e-01 4.2489733546972275e-02</leafValues></_>
        <_>
          <internalNodes>
            0 -1 159 -7.5317511800676584e-04</internalNodes>
          <leafValues>
            3.2372304797172546e-01 -9.1726236045360565e-02</leafValues></_>
        <_>
          <internalNodes>
            0 -1 646 1.4511466026306152e-02</internalNodes>
          <leafValues>
            3.4190550446510315e-02 -8.1692981719970703e-01</leafValues></_>
        <_>
          <internalNodes>
            0 -1 12 3.7935804575681686e-03</internalNodes>
          <leafValues>
            3.0942814424633980e-02 -7.0828676223754883e-01</leafValues></_>
        <_>
          <internalNodes>
            0 -1 599 2.0238643046468496e-03</internalNodes>
          <leafValues>
            -9.4523482024669647e-02 2.9968804121017456e-01</leafValues></_>
        <_>
          <internalNodes>
            0 -1 243 -7.3286741971969604e-03</internalNodes>
          <leafValues>
            2.1306310594081879e-01 -1.3486692309379578e-01</leafValues></_>
        <_>
          <internalNodes>
            0 -1 171 -3.4279637038707733e-03</internalNodes>
          <leafValues>
            -3.3383420109748840e-01 8.2944959402084351e-02</leafValues></_>
        <_>
          <internalNodes>
            0 -1 436 -5.1305838860571384e-03</internalNodes>
          <leafValues>
            -7.4066430330276489e-01 3.5818267613649368e-02</leafValues></_>
        <_>
          <internalNodes>
            0 -1 270 -4.6248463913798332e-03</internalNodes>
          <leafValues>
            -4.8198804259300232e-01 4.9695286899805069e-02</leafValues></_>
        <_>
          <internalNodes>
            0 -1 162 -6.7555792629718781e-03</internalNodes>
          <leafValues>
            -7.7200388908386230e-01 3.1470026820898056e-02</leafValues></_>
        <_>
          <internalNodes>
            0 -1 465 -1.6785800457000732e-02</internalNodes>
          <leafValues>
            -7.5258916616439819e-01 2.8724897652864456e-02</leafValues></_>
        <_>
          <internalNodes>
            0 -1 490 1.8761127721518278e-03</internalNodes>
          <leafValues>
            -1.0928697139024734e-01 2.4819357693195343e-01</leafValues></_>
        <_>
          <internalNodes>
            0 -1 16 -5.9826558828353882e-01</internalNodes>
          <leafValues>
            6.1981487274169922e-01 -4.3542522937059402e-02</leafValues></_>
        <_>
          <internalNodes>
            0 -1 566 8.9943874627351761e-04</internalNodes>
          <leafValues>
            -6.7861020565032959e-02 3.5068029165267944e-01</leafValues></_>
        <_>
          <internalNodes>
            0 -1 239 -2.7071263641119003e-02</internalNodes>
          <leafValues>
            2.2176435589790344e-01 -1.2397075444459915e-01</leafValues></_>
        <_>
          <internalNodes>
            0 -1 611 1.8035361543297768e-02</internalNodes>
          <leafValues>
            4.0879819542169571e-02 -6.8234670162200928e-01</leafValues></_>
        <_>
          <internalNodes>
            0 -1 348 -9.6327875507995486e-04</internalNodes>
          <leafValues>
            1.9561789929866791e-01 -1.3459512591362000e-01</leafValues></_>
        <_>
          <internalNodes>
            0 -1 460 1.6301898285746574e-03</internalNodes>
          <leafValues>
            -1.2228282541036606e-01 2.3878569900989532e-01</leafValues></_>
        <_>
          <internalNodes>
            0 -1 615 -1.8815197981894016e-03</internalNodes>
          <leafValues>
            2.4465309083461761e-01 -1.0631497204303741e-01</leafValues></_>
        <_>
          <internalNodes>
            0 -1 644 -3.4293569624423981e-03</internalNodes>
          <leafValues>
            -4.8211699724197388e-01 5.8159131556749344e-02</leafValues></_></weakClassifiers></_>
    <!-- stage 10 -->
    <_>
      <maxWeakCount>51</maxWeakCount>
      <stageThreshold>-3.6152079701423645e-01</stageThreshold>
      <weakClassifiers>
        <_>
          <internalNodes>
            0 -1 301 -8.4146168082952499e-03</internalNodes>
          <leafValues>
            8.5668349266052246e-01 5.2386856079101562e-01</leafValues></_>
        <_>
          <internalNodes>
            0 -1 519 -7.4156345799565315e-03</internalNodes>
          <leafValues>
            5.6602758169174194e-01 -1.2725878506898880e-02</leafValues></_>
        <_>
          <internalNodes>
            0 -1 594 -3.2199416309595108e-03</internalNodes>
          <leafValues>
            4.4591489434242249e-01 -1.3386912643909454e-01</leafValues></_>
        <_>
          <internalNodes>
            0 -1 572 1.0352114913985133e-03</internalNodes>
          <leafValues>
            -1.9705715775489807e-01 2.8200730681419373e-01</leafValues></_>
        <_>
          <internalNodes>
            0 -1 302 -3.0150217935442924e-02</internalNodes>
          <leafValues>
            3.3012381196022034e-01 -1.6043820977210999e-01</leafValues></_>
        <_>
          <internalNodes>
            0 -1 296 1.6708975890651345e-03</internalNodes>
          <leafValues>
            -1.2120967358350754e-01 4.3283885717391968e-01</leafValues></_>
        <_>
          <internalNodes>
            0 -1 258 -4.4679986312985420e-03</internalNodes>
          <leafValues>
            4.5422676205635071e-01 -1.0666742920875549e-01</leafValues></_>
        <_>
          <internalNodes>
            0 -1 195 -1.4209071174263954e-02</internalNodes>
          <leafValues>
            -5.3125870227813721e-01 8.0101318657398224e-02</leafValues></_>
        <_>
          <internalNodes>
            0 -1 178 9.5660276710987091e-02</internalNodes>
          <leafValues>
            -5.4839439690113068e-02 8.6724472045898438e-01</leafValues></_>
        <_>
          <internalNodes>
            0 -1 101 -7.1760043501853943e-03</internalNodes>
          <leafValues>
            2.3509217798709869e-01 -1.6653190553188324e-01</leafValues></_>
        <_>
          <internalNodes>
            0 -1 501 1.1032428592443466e-02</internalNodes>
          <leafValues>
            4.6355646103620529e-02 -7.4720489978790283e-01</leafValues></_>
        <_>
          <internalNodes>
            0 -1 306 -4.1661504656076431e-03</internalNodes>
          <leafValues>
            1.6952846944332123e-01 -1.9381748139858246e-01</leafValues></_>
        <_>
          <internalNodes>
            0 -1 117 -3.0534051358699799e-02</internalNodes>
          <leafValues>
            -7.9667478799819946e-01 4.0763940662145615e-02</leafValues></_>
        <_>
          <internalNodes>
            0 -1 61 2.7941819280385971e-03</internalNodes>
          <leafValues>
            -1.7018926143646240e-01 1.8413986265659332e-01</leafValues></_>
        <_>
          <internalNodes>
            0 -1 49 -2.6312707923352718e-03</internalNodes>
          <leafValues>
            -4.5056420564651489e-01 7.0937290787696838e-02</leafValues></_>
        <_>
          <internalNodes>
            0 -1 122 -1.0543264448642731e-02</internalNodes>
          <leafValues>
            3.3511441946029663e-01 -1.0190691798925400e-01</leafValues></_>
        <_>
          <internalNodes>
            0 -1 540 1.3353774324059486e-02</internalNodes>
          <leafValues>
            -1.6509726643562317e-01 2.0857630670070648e-01</leafValues></_>
        <_>
          <internalNodes>
            0 -1 54 8.5799442604184151e-03</internalNodes>
          <leafValues>
            4.5647408813238144e-02 -6.8941676616668701e-01</leafValues></_>
        <_>
          <internalNodes>
            0 -1 152 2.3325937800109386e-03</internalNodes>
          <leafValues>
            -9.8073042929172516e-02 3.6616444587707520e-01</leafValues></_>
        <_>
          <internalNodes>
            0 -1 485 5.3242044523358345e-03</internalNodes>
          <leafValues>
            -9.6187978982925415e-02 4.0453776717185974e-01</leafValues></_>
        <_>
          <internalNodes>
            0 -1 435 7.1802935563027859e-03</internalNodes>
          <leafValues>
            5.0302144140005112e-02 -7.1467095613479614e-01</leafValues></_>
        <_>
          <internalNodes>
            0 -1 595 2.2684739902615547e-02</internalNodes>
          <leafValues>
            3.6140374839305878e-02 -7.0492649078369141e-01</leafValues></_>
        <_>
          <internalNodes>
            0 -1 94 2.3638394474983215e-01</internalNodes>
          <leafValues>
            -7.7514581382274628e-02 4.2207196354866028e-01</leafValues></_>
        <_>
          <internalNodes>
            0 -1 529 8.5665760561823845e-03</internalNodes>
          <leafValues>
            -6.1163954436779022e-02 4.8661386966705322e-01</leafValues></_>
        <_>
          <internalNodes>
            0 -1 376 7.8892242163419724e-03</internalNodes>
          <leafValues>
            5.1761109381914139e-02 -7.0976257324218750e-01</leafValues></_>
        <_>
          <internalNodes>
            0 -1 352 -9.6916733309626579e-04</internalNodes>
          <leafValues>
            1.8222960829734802e-01 -1.6031767427921295e-01</leafValues></_>
        <_>
          <internalNodes>
            0 -1 111 4.7375326976180077e-03</internalNodes>
          <leafValues>
            5.8488264679908752e-02 -5.2322924137115479e-01</leafValues></_>
        <_>
          <internalNodes>
            0 -1 351 -4.6982988715171814e-04</internalNodes>
          <leafValues>
            2.2134409844875336e-01 -1.3614776730537415e-01</leafValues></_>
        <_>
          <internalNodes>
            0 -1 383 1.2196679599583149e-03</internalNodes>
          <leafValues>
            -1.3850764930248260e-01 2.1340923011302948e-01</leafValues></_>
        <_>
          <internalNodes>
            0 -1 267 4.7134906053543091e-03</internalNodes>
          <leafValues>
            -1.0506994277238846e-01 2.7726191282272339e-01</leafValues></_>
        <_>
          <internalNodes>
            0 -1 234 9.5627019181847572e-03</internalNodes>
          <leafValues>
            4.8352081328630447e-02 -6.3806265592575073e-01</leafValues></_>
        <_>
          <internalNodes>
            0 -1 420 4.0323659777641296e-03</internalNodes>
          <leafValues>
            4.2147248983383179e-02 -5.9749758243560791e-01</leafValues></_>
        <_>
          <internalNodes>
            0 -1 35 1.5250871889293194e-02</internalNodes>
          <leafValues>
            -6.1287853866815567e-02 4.6542730927467346e-01</leafValues></_>
        <_>
          <internalNodes>
            0 -1 619 -1.2159523554146290e-02</internalNodes>
          <leafValues>
            -6.7129075527191162e-01 3.9892133325338364e-02</leafValues></_>
        <_>
          <internalNodes>
            0 -1 587 9.6944961696863174e-03</internalNodes>
          <leafValues>
            -9.1627888381481171e-02 2.8756266832351685e-01</leafValues></_>
        <_>
          <internalNodes>
            0 -1 194 -7.1863159537315369e-02</internalNodes>
          <leafValues>
            -5.0259619951248169e-01 5.2941009402275085e-02</leafValues></_>
        <_>
          <internalNodes>
            0 -1 286 1.5202917158603668e-02</internalNodes>
          <leafValues>
            5.2934333682060242e-02 -4.7620281577110291e-01</leafValues></_>
        <_>
          <internalNodes>
            0 -1 85 5.1757691835518926e-05</internalNodes>
          <leafValues>
            -1.6123138368129730e-01 1.6732823848724365e-01</leafValues></_>
        <_>
          <internalNodes>
            0 -1 248 5.4030630737543106e-02</internalNodes>
          <leafValues>
            -1.1479300260543823e-01 2.3551157116889954e-01</leafValues></_>
        <_>
          <internalNodes>
            0 -1 360 -1.0096004232764244e-02</internalNodes>
          <leafValues>
            2.3596240580081940e-01 -1.2417849898338318e-01</leafValues></_>
        <_>
          <internalNodes>
            0 -1 625 -1.1607032502070069e-04</internalNodes>
          <leafValues>
            1.7082408070564270e-01 -1.5526326000690460e-01</leafValues></_>
        <_>
          <internalNodes>
            0 -1 384 1.5547003597021103e-02</internalNodes>
          <leafValues>
            -8.8605344295501709e-02 3.1646582484245300e-01</leafValues></_>
        <_>
          <internalNodes>
            0 -1 48 1.6055753827095032e-01</internalNodes>
          <leafValues>
            -6.9104567170143127e-02 3.8837644457817078e-01</leafValues></_>
        <_>
          <internalNodes>
            0 -1 119 -1.2932533398270607e-02</internalNodes>
          <leafValues>
            -7.0762461423873901e-01 4.2073059827089310e-02</leafValues></_>
        <_>
          <internalNodes>
            0 -1 660 -3.2013893360272050e-05</internalNodes>
          <leafValues>
            1.7401428520679474e-01 -1.5475165843963623e-01</leafValues></_>
        <_>
          <internalNodes>
            0 -1 241 -2.4187266826629639e-03</internalNodes>
          <leafValues>
            2.6994511485099792e-01 -9.8250761628150940e-02</leafValues></_>
        <_>
          <internalNodes>
            0 -1 219 -6.7723616957664490e-02</internalNodes>
          <leafValues>
            2.9020136594772339e-01 -8.4494866430759430e-02</leafValues></_>
        <_>
          <internalNodes>
            0 -1 213 9.5432847738265991e-02</internalNodes>
          <leafValues>
            -1.1207868158817291e-01 2.3473222553730011e-01</leafValues></_>
        <_>
          <internalNodes>
            0 -1 491 1.0532129090279341e-03</internalNodes>
          <leafValues>
            -1.1694571375846863e-01 2.1951572597026825e-01</leafValues></_>
        <_>
          <internalNodes>
            0 -1 461 -3.9899200201034546e-03</internalNodes>
          <leafValues>
            -5.8224403858184814e-01 4.4464565813541412e-02</leafValues></_>
        <_>
          <internalNodes>
            0 -1 514 2.7710087597370148e-03</internalNodes>
          <leafValues>
            -6.7410737276077271e-02 4.1520470380783081e-01</leafValues></_></weakClassifiers></_>
    <!-- stage 11 -->
    <_>
      <maxWeakCount>53</maxWeakCount>
      <stageThreshold>-3.8726374506950378e-01</stageThreshold>
      <weakClassifiers>
        <_>
          <internalNodes>
            0 -1 368 5.4766177199780941e-03</internalNodes>
          <leafValues>
            5.5124056339263916e-01 8.7190079689025879e-01</leafValues></_>
        <_>
          <internalNodes>
            0 -1 542 -1.8060987349599600e-03</internalNodes>
          <leafValues>
            5.9932887554168701e-01 1.9153827452100813e-04</leafValues></_>
        <_>
          <internalNodes>
            0 -1 610 -1.2301199138164520e-02</internalNodes>
          <leafValues>
            5.5756247043609619e-01 -1.3481862843036652e-01</leafValues></_>
        <_>
          <internalNodes>
            0 -1 83 1.5026563405990601e-01</internalNodes>
          <leafValues>
            -1.4259698987007141e-01 6.0839366912841797e-01</leafValues></_>
        <_>
          <internalNodes>
            0 -1 202 -3.8294424302875996e-04</internalNodes>
          <leafValues>
            3.0019453167915344e-01 -2.1811136603355408e-01</leafValues></_>
        <_>
          <internalNodes>
            0 -1 500 4.0282823145389557e-02</internalNodes>
          <leafValues>
            -1.6901920735836029e-01 3.6196732521057129e-01</leafValues></_>
        <_>
          <internalNodes>
            0 -1 291 1.5024478780105710e-03</internalNodes>
          <leafValues>
            -1.9582614302635193e-01 2.5874403119087219e-01</leafValues></_>
        <_>
          <internalNodes>
            0 -1 415 -7.0635089650750160e-04</internalNodes>
          <leafValues>
            2.1959413588047028e-01 -2.1529047191143036e-01</leafValues></_>
        <_>
          <internalNodes>
            0 -1 170 1.6463309526443481e-02</internalNodes>
          <leafValues>
            5.6956317275762558e-02 -6.4132040739059448e-01</leafValues></_>
        <_>
          <internalNodes>
            0 -1 342 -1.7124274745583534e-03</internalNodes>
          <leafValues>
            3.9051339030265808e-01 -1.0266841202974319e-01</leafValues></_>
        <_>
          <internalNodes>
            0 -1 314 6.5556350164115429e-03</internalNodes>
          <leafValues>
            -8.2445725798606873e-02 3.9389422535896301e-01</leafValues></_>
        <_>
          <internalNodes>
            0 -1 355 9.8831150680780411e-03</internalNodes>
          <leafValues>
            -7.9713463783264160e-02 4.2654821276664734e-01</leafValues></_>
        <_>
          <internalNodes>
            0 -1 657 5.1033440977334976e-03</internalNodes>
          <leafValues>
            -1.7410480976104736e-01 1.9190162420272827e-01</leafValues></_>
        <_>
          <internalNodes>
            0 -1 486 6.5801944583654404e-04</internalNodes>
          <leafValues>
            9.4075672328472137e-02 -3.5221323370933533e-01</leafValues></_>
        <_>
          <internalNodes>
            0 -1 570 1.5658787451684475e-03</internalNodes>
          <leafValues>
            -1.1558683216571808e-01 2.6578745245933533e-01</leafValues></_>
        <_>
          <internalNodes>
            0 -1 201 1.8849882483482361e-01</internalNodes>
          <leafValues>
            -7.1184583008289337e-02 4.7029221057891846e-01</leafValues></_>
        <_>
          <internalNodes>
            0 -1 272 -4.0526101365685463e-03</internalNodes>
          <leafValues>
            -3.9678674936294556e-01 7.5149856507778168e-02</leafValues></_>
        <_>
          <internalNodes>
            0 -1 421 -2.6520950719714165e-02</internalNodes>
          <leafValues>
            2.1668751537799835e-01 -1.4037413895130157e-01</leafValues></_>
        <_>
          <internalNodes>
            0 -1 237 2.7369779348373413e-01</internalNodes>
          <leafValues>
            -3.9910975843667984e-02 6.3327205181121826e-01</leafValues></_>
        <_>
          <internalNodes>
            0 -1 128 9.2365294694900513e-03</internalNodes>
          <leafValues>
            -1.2090639770030975e-01 2.2298158705234528e-01</leafValues></_>
        <_>
          <internalNodes>
            0 -1 487 -1.1652486864477396e-03</internalNodes>
          <leafValues>
            -5.3053581714630127e-01 5.3208384662866592e-02</leafValues></_>
        <_>
          <internalNodes>
            0 -1 675 7.6794729102402925e-04</internalNodes>
          <leafValues>
            -8.9917100965976715e-02 3.1862318515777588e-01</leafValues></_>
        <_>
          <internalNodes>
            0 -1 515 5.2159428596496582e-03</internalNodes>
          <leafValues>
            7.0949368178844452e-02 -4.1997170448303223e-01</leafValues></_>
        <_>
          <internalNodes>
            0 -1 629 3.7087094970047474e-03</internalNodes>
          <leafValues>
            3.8524579256772995e-02 -7.3981058597564697e-01</leafValues></_>
        <_>
          <internalNodes>
            0 -1 675 -1.3194491621106863e-03</internalNodes>
          <leafValues>
            4.3814104795455933e-01 -7.1096710860729218e-02</leafValues></_>
        <_>
          <internalNodes>
            0 -1 20 1.8736027413979173e-03</internalNodes>
          <leafValues>
            4.6321570873260498e-02 -5.7230895757675171e-01</leafValues></_>
        <_>
          <internalNodes>
            0 -1 470 1.4080462278798223e-03</internalNodes>
          <leafValues>
            -1.0061015188694000e-01 2.7675092220306396e-01</leafValues></_>
        <_>
          <internalNodes>
            0 -1 634 5.8476822450757027e-03</internalNodes>
          <leafValues>
            5.0566878169775009e-02 -5.7490533590316772e-01</leafValues></_>
        <_>
          <internalNodes>
            0 -1 618 1.2547655496746302e-03</internalNodes>
          <leafValues>
            -9.6573978662490845e-02 2.9979860782623291e-01</leafValues></_>
        <_>
          <internalNodes>
            0 -1 96 -4.3615018948912621e-03</internalNodes>
          <leafValues>
            5.3795629739761353e-01 -4.9617428332567215e-02</leafValues></_>
        <_>
          <internalNodes>
            0 -1 120 1.1260539758950472e-03</internalNodes>
          <leafValues>
            -1.4444412291049957e-01 1.8147276341915131e-01</leafValues></_>
        <_>
          <internalNodes>
            0 -1 361 -1.7742773052304983e-03</internalNodes>
          <leafValues>
            2.3692096769809723e-01 -1.1420699208974838e-01</leafValues></_>
        <_>
          <internalNodes>
            0 -1 325 6.5168952569365501e-03</internalNodes>
          <leafValues>
            4.3238334357738495e-02 -6.6804838180541992e-01</leafValues></_>
        <_>
          <internalNodes>
            0 -1 14 2.5852717459201813e-02</internalNodes>
          <leafValues>
            4.1017994284629822e-02 -5.7464611530303955e-01</leafValues></_>
        <_>
          <internalNodes>
            0 -1 416 2.1401375532150269e-02</internalNodes>
          <leafValues>
            5.6020159274339676e-02 -4.0647625923156738e-01</leafValues></_>
        <_>
          <internalNodes>
            0 -1 33 2.1057212725281715e-03</internalNodes>
          <leafValues>
            7.5615808367729187e-02 -3.1500315666198730e-01</leafValues></_>
        <_>
          <internalNodes>
            0 -1 235 3.9831865578889847e-03</internalNodes>
          <leafValues>
            -6.5258577466011047e-02 4.0864846110343933e-01</leafValues></_>
        <_>
          <internalNodes>
            0 -1 144 -3.8419230841100216e-03</internalNodes>
          <leafValues>
            2.9313457012176514e-01 -9.7481071949005127e-02</leafValues></_>
        <_>
          <internalNodes>
            0 -1 73 4.5003108680248260e-03</internalNodes>
          <leafValues>
            3.6771845072507858e-02 -7.6514858007431030e-01</leafValues></_>
        <_>
          <internalNodes>
            0 -1 410 -3.7201370578259230e-03</internalNodes>
          <leafValues>
            -5.2315264940261841e-01 4.4112585484981537e-02</leafValues></_>
        <_>
          <internalNodes>
            0 -1 418 -5.4507078602910042e-03</internalNodes>
          <leafValues>
            3.2364928722381592e-01 -8.0382250249385834e-02</leafValues></_>
        <_>
          <internalNodes>
            0 -1 635 -3.2611587084829807e-03</internalNodes>
          <leafValues>
            -4.7437849640846252e-01 5.8022048324346542e-02</leafValues></_>
        <_>
          <internalNodes>
            0 -1 463 1.9014181569218636e-02</internalNodes>
          <leafValues>
            3.0306600034236908e-02 -7.7072745561599731e-01</leafValues></_>
        <_>
          <internalNodes>
            0 -1 457 2.7563527226448059e-02</internalNodes>
          <leafValues>
            -1.1162278801202774e-01 2.2626689076423645e-01</leafValues></_>
        <_>
          <internalNodes>
            0 -1 579 2.4390961043536663e-03</internalNodes>
          <leafValues>
            3.9083249866962433e-02 -6.6135042905807495e-01</leafValues></_>
        <_>
          <internalNodes>
            0 -1 343 -8.3703082054853439e-04</internalNodes>
          <leafValues>
            2.7704909443855286e-01 -9.1234780848026276e-02</leafValues></_>
        <_>
          <internalNodes>
            0 -1 649 8.1836562603712082e-03</internalNodes>
          <leafValues>
            4.9044016748666763e-02 -5.6204980611801147e-01</leafValues></_>
        <_>
          <internalNodes>
            0 -1 672 -1.8153426935896277e-04</internalNodes>
          <leafValues>
            1.7882987856864929e-01 -1.3844361901283264e-01</leafValues></_>
        <_>
          <internalNodes>
            0 -1 408 -6.0605769976973534e-03</internalNodes>
          <leafValues>
            -7.3143601417541504e-01 3.2833646982908249e-02</leafValues></_>
        <_>
          <internalNodes>
            0 -1 504 -1.1436866596341133e-02</internalNodes>
          <leafValues>
            -5.5651903152465820e-01 3.7627402693033218e-02</leafValues></_>
        <_>
          <internalNodes>
            0 -1 525 -1.8434901721775532e-03</internalNodes>
          <leafValues>
            2.9045164585113525e-01 -8.4783487021923065e-02</leafValues></_>
        <_>
          <internalNodes>
            0 -1 495 -1.3008199632167816e-01</internalNodes>
          <leafValues>
            -6.2278139591217041e-01 3.7191864103078842e-02</leafValues></_>
        <_>
          <internalNodes>
            0 -1 399 -1.3252323865890503e-01</internalNodes>
          <leafValues>
            3.0466106534004211e-01 -7.6124645769596100e-02</leafValues></_></weakClassifiers></_>
    <!-- stage 12 -->
    <_>
      <maxWeakCount>51</maxWeakCount>
      <stageThreshold>-3.9664921164512634e-01</stageThreshold>
      <weakClassifiers>
        <_>
          <internalNodes>
            0 -1 89 -5.0687883049249649e-03</internalNodes>
          <leafValues>
            8.9290010929107666e-01 5.7612782716751099e-01</leafValues></_>
        <_>
          <internalNodes>
            0 -1 299 -5.5363476276397705e-03</internalNodes>
          <leafValues>
            5.0123423337936401e-01 -5.6855339556932449e-02</leafValues></_>
        <_>
          <internalNodes>
            0 -1 520 1.4561631716787815e-02</internalNodes>
          <leafValues>
            -1.5619553625583649e-01 4.5634242892265320e-01</leafValues></_>
        <_>
          <internalNodes>
            0 -1 574 -9.6603075508028269e-04</internalNodes>
          <leafValues>
            3.7193629145622253e-01 -1.8458886444568634e-01</leafValues></_>
        <_>
          <internalNodes>
            0 -1 583 -3.3099662512540817e-02</internalNodes>
          <leafValues>
            5.2342891693115234e-01 -9.5445282757282257e-02</leafValues></_>
        <_>
          <internalNodes>
            0 -1 150 1.0660478146746755e-03</internalNodes>
          <leafValues>
            -1.7579986155033112e-01 3.1408128142356873e-01</leafValues></_>
        <_>
          <internalNodes>
            0 -1 29 1.0872565954923630e-01</internalNodes>
          <leafValues>
            -1.8637527525424957e-01 2.6848721504211426e-01</leafValues></_>
        <_>
          <internalNodes>
            0 -1 640 1.7210457008332014e-03</internalNodes>
          <leafValues>
            -1.3026753067970276e-01 4.3246763944625854e-01</leafValues></_>
        <_>
          <internalNodes>
            0 -1 614 4.8697572201490402e-03</internalNodes>
          <leafValues>
            -7.8672416508197784e-02 4.8109927773475647e-01</leafValues></_>
        <_>
          <internalNodes>
            0 -1 561 1.3886320812162012e-04</internalNodes>
          <leafValues>
            -1.7100253701210022e-01 2.3025663197040558e-01</leafValues></_>
        <_>
          <internalNodes>
            0 -1 199 1.1248247325420380e-01</internalNodes>
          <leafValues>
            -6.1301495879888535e-02 5.8135026693344116e-01</leafValues></_>
        <_>
          <internalNodes>
            0 -1 18 -3.8120606914162636e-03</internalNodes>
          <leafValues>
            -6.4408820867538452e-01 5.2782736718654633e-02</leafValues></_>
        <_>
          <internalNodes>
            0 -1 397 1.2278891517780721e-05</internalNodes>
          <leafValues>
            -2.0866119861602783e-01 1.5828660130500793e-01</leafValues></_>
        <_>
          <internalNodes>
            0 -1 238 -4.6355623751878738e-02</internalNodes>
          <leafValues>
            -5.2277696132659912e-01 6.4155787229537964e-02</leafValues></_>
        <_>
          <internalNodes>
            0 -1 159 -1.0802824981510639e-03</internalNodes>
          <leafValues>
            3.7079402804374695e-01 -8.9795500040054321e-02</leafValues></_>
        <_>
          <internalNodes>
            0 -1 116 1.1492671910673380e-03</internalNodes>
          <leafValues>
            -1.4839486777782440e-01 2.1516959369182587e-01</leafValues></_>
        <_>
          <internalNodes>
            0 -1 37 -3.9925691671669483e-03</internalNodes>
          <leafValues>
            -4.4011905789375305e-01 7.6788924634456635e-02</leafValues></_>
        <_>
          <internalNodes>
            0 -1 34 -2.0227464847266674e-03</internalNodes>
          <leafValues>
            2.2014166414737701e-01 -1.5029737353324890e-01</leafValues></_>
        <_>
          <internalNodes>
            0 -1 50 3.9458442479372025e-03</internalNodes>
          <leafValues>
            6.2162701040506363e-02 -5.4927837848663330e-01</leafValues></_>
        <_>
          <internalNodes>
            0 -1 275 -3.9670839905738831e-03</internalNodes>
          <leafValues>
            -3.3206990361213684e-01 8.3168633282184601e-02</leafValues></_>
        <_>
          <internalNodes>
            0 -1 532 -1.0577732697129250e-02</internalNodes>
          <leafValues>
            2.9039302468299866e-01 -1.3318656384944916e-01</leafValues></_>
        <_>
          <internalNodes>
            0 -1 79 3.6713965237140656e-02</internalNodes>
          <leafValues>
            -1.1667459458112717e-01 2.8584325313568115e-01</leafValues></_>
        <_>
          <internalNodes>
            0 -1 402 -1.7331130802631378e-02</internalNodes>
          <leafValues>
            3.6498135328292847e-01 -8.6719356477260590e-02</leafValues></_>
        <_>
          <internalNodes>
            0 -1 407 -8.1915361806750298e-03</internalNodes>
          <leafValues>
            -7.8613764047622681e-01 4.8104189336299896e-02</leafValues></_>
        <_>
          <internalNodes>
            0 -1 207 4.6259104274213314e-03</internalNodes>
          <leafValues>
            -9.0913727879524231e-02 3.7502402067184448e-01</leafValues></_>
        <_>
          <internalNodes>
            0 -1 257 -1.0919423075392842e-03</internalNodes>
          <leafValues>
            2.6843035221099854e-01 -1.1591447144746780e-01</leafValues></_>
        <_>
          <internalNodes>
            0 -1 651 -3.5853877197951078e-03</internalNodes>
          <leafValues>
            -5.8837640285491943e-01 5.7674270123243332e-02</leafValues></_>
        <_>
          <internalNodes>
            0 -1 650 2.9283803887665272e-03</internalNodes>
          <leafValues>
            4.1137825697660446e-02 -6.5964353084564209e-01</leafValues></_>
        <_>
          <internalNodes>
            0 -1 330 -5.6342442985624075e-04</internalNodes>
          <leafValues>
            2.7920758724212646e-01 -1.1282566189765930e-01</leafValues></_>
        <_>
          <internalNodes>
            0 -1 545 -5.4616509005427361e-03</internalNodes>
          <leafValues>
            -7.2133487462997437e-01 4.2738631367683411e-02</leafValues></_>
        <_>
          <internalNodes>
            0 -1 558 -7.8150173649191856e-03</internalNodes>
          <leafValues>
            -8.2775610685348511e-01 2.6461971923708916e-02</leafValues></_>
        <_>
          <internalNodes>
            0 -1 147 -1.3923814985901117e-03</internalNodes>
          <leafValues>
            4.3390911817550659e-01 -6.9719128310680389e-02</leafValues></_>
        <_>
          <internalNodes>
            0 -1 292 -2.9841708019375801e-03</internalNodes>
          <leafValues>
            -3.4536051750183105e-01 8.6842320859432220e-02</leafValues></_>
        <_>
          <internalNodes>
            0 -1 146 -1.2519797310233116e-03</internalNodes>
          <leafValues>
            3.2082217931747437e-01 -9.0117163956165314e-02</leafValues></_>
        <_>
          <internalNodes>
